6.848877462719542980e-03
-5.117708668442400022e-01
7.136932885687449768e-02
-2.163615038913155875e-01
8.523809293432145495e-02
-2.263160098155121980e-01
-2.999210776901961237e-02
-2.361080290263998724e-02
-1.182740166830312661e-01
-4.155373645168868313e-01
2.464895090310768866e-01
-5.267773123882281340e-05
-2.410921102009835545e-02
2.081847957145998296e-01
-2.978101209911895864e-01
5.583418054583469958e-01
9.754856555600247003e-02
-3.225426491883963409e-02
-5.184917990993843234e-03
-6.100969057841952592e-02
9.634094114173210113e-03
2.152516501508862090e-01
-2.752350675170281979e-01
4.059194723088661583e-01
-1.675790191294892206e-01
5.538603422564147838e-01
-4.294434265342361723e-01
1.228322040398336645e-01
2.166826267937489447e-01
-2.087053828013713322e-02
-3.961358604220712176e-01
5.290323243407455411e-01
-6.771383361212224283e-02
8.873177639861944133e-02
1.098297587444054257e-01
2.438732876172470532e-01
-4.100073378571727489e-01
2.102504431763503323e-01
1.929538140440429095e-01
1.258311401720758338e-01
-1.122984222939547722e-01
4.177926418779535078e-01
3.626980229930610311e-01
2.390229030269460930e-01
3.731509234645804390e-02
8.414960356163220245e-01
1.724833173637057571e-01
1.119548550652307850e-01
2.766545886953936662e-01
3.592439222649785879e-01
-7.020098989130516554e-01
-2.911997121458815285e-01
-3.599681921817286107e-02
6.376946982695375077e-02
6.069656691340193783e-02
4.624796301257010911e-01
-2.916929398677717278e-01
4.487784536915431777e-01
-3.858562495607759796e-02
6.184594141405588275e-01
-1.635934547655801541e-01
2.657801829320451809e-02
-7.554549979764155210e-02
-5.505448521001454071e-02
-4.254852187365247840e-01
3.033098273930852073e-01
-4.002702891746331981e-01
-2.886827313600768830e-01
-1.557123206237602531e-01
5.880163523660022484e-01
-2.333616081559372890e-01
2.436599890336986207e-01
8.581446893455592362e-02
-2.953555451871025528e-01
-2.489875136484807211e-02
-1.256851097468054956e-01
-2.504594193843213135e-01
-3.992055511859550210e-01
-2.476510574877645865e-01
9.180790573885932570e-04
8.594468928485637926e-02
2.844489065117337123e-01
5.761854032266483516e-01
-3.884061812688319737e-01
-1.924182112311925152e-01
-2.503902895460794475e-01
-2.659183620866918396e-01
7.332827202786519616e-02
2.007355402383350085e-01
4.552188884037982608e-01
-2.124594735509603705e-01
-2.185294034950084896e-01
-1.012505649241312033e-01
-6.197069623607999456e-02
-2.365893344429430001e-01
6.680033079786935890e-02
5.924175712264422716e-02
3.065626521431695783e-01
2.417697388897685762e-01
-4.582166484422393882e-02
2.232224482041219871e-01
-9.733896892105868559e-02
-4.862011957036087295e-02
8.469982760099147023e-02
3.070871490213445895e-02
-1.801311063058883000e-01
-9.226145692816381527e-02
4.085789595490668322e-03
2.476617092372412343e-01
-2.070279471295921603e-01
2.435917266261085345e-01
-2.299228754741188332e-02
1.142025256368454228e-01
1.074546231983176947e-01
2.771622671084245787e-02
2.716518359241686387e-01
-8.119157572935724321e-02
5.461998701306617840e-03
-8.021295490995666855e-02
-7.073783595444707584e-02
2.253543099592084376e-01
1.318628980171591691e-01
4.412331241101186130e-02
1.917178165733676165e-01
-2.850658698265416402e-01
5.654284206177154215e-02
-1.872462487668539455e-01
-1.625776059709860000e-01
4.098707820079132425e-02
1.324821147874308547e-01
-3.402847407780024702e-01
4.500823938587648204e-02
7.096648475469136130e-02
1.088991687875419528e-01
7.326819757301306080e-02
-6.505820506631165845e-02
-4.099623093005433927e-01
-9.896867153185032184e-02
4.122616173674571033e-02
-6.121177947830172550e-02
1.498740032643267606e-01
9.685850597332450185e-02
7.554406151308569461e-02
5.921903948768201219e-03
-2.110497149343814119e-02
-5.010793312930460902e-02
1.340909779009906433e-01
-1.886149042330046155e-01
3.943417786170918399e-02
-4.140557826214261161e-02
-3.194961275805352496e-01
-1.117898826710212318e-01
3.410169548282573904e-02
9.429304694250112417e-02
5.480844703122842582e-02
1.545100754063742921e-01
4.987106682236145533e-02
2.094001814036391407e-01
-2.573863138194029676e-01
2.640525281999518969e-01
-1.293982734897138609e-01
-5.371827843778780032e-02
5.096277842750605164e-02
8.895395956736988630e-02
-1.952333995833603619e-01
2.457132894119256616e-01
-1.126490705298849038e-01
4.787774456671082396e-02
-2.476771932316205460e-01
4.711213891452366576e-01
-1.766002748116420051e-02
-6.661474671191277381e-04
4.208465512480834975e-02
-1.589298333224955229e-01
1.715770023275220435e-02
-1.630465199074464244e-02
-2.160752375429741967e-01
-1.633254625951023331e-01
-3.211042232990477530e-01
-1.202501995005744208e-02
7.812654084843911884e-02
-1.648472877132863001e-01
2.870860119756364348e-01
-4.640732043663925444e-01
-1.767509993779814714e-01
-3.947817852376493408e-01
3.665746876727256354e-02
1.275089013526760351e-01
1.422286191894424900e-01
1.353483605810598123e-01
-2.076158168901806322e-01
-7.164101970544262121e-02
9.665809698153511598e-02
1.127569173834381544e-01
3.559768270728146111e-02
-5.705453102265440994e-03
3.950341587638076662e-02
1.732316023324027288e-01
1.529590849984157341e-01
-9.592830561009649259e-02
-1.124887519168447925e-02
-2.367693743425007824e-01
-1.794559311031523538e-02
-2.516212531920948223e-02
1.611195076371527701e-01
-1.746898188096039917e-01
3.757430115013057209e-02
2.196635134022649205e-01
-4.460022583212901875e-02
-2.062565302437034953e-01
6.926406549288219305e-02
4.887187101562873170e-02
8.314226503847418903e-02
1.197758253785460580e-01
-7.465238106004168893e-03
1.932994598486674487e-01
5.822699801445546837e-03
1.263100966070203335e-02
-3.381296760303448279e-02
-1.993455624607453625e-01
-1.211526077869808510e-01
2.830224424340292352e-02
-1.241864634209859791e-01
2.347940524886451830e-01
-1.900530360043732048e-01
7.071764000175514986e-02
-2.568670820054601012e-01
1.993254385697494635e-01
1.417388334369927283e-01
-7.564556813844075522e-02
-2.711879024325842269e-01
1.607242580672992027e-01
-4.648656705337828217e-03
1.479669257547421846e-01
7.384074138171221879e-02
7.326720774245501500e-02
-1.933771923286888850e-01
5.183851537487289829e-02
2.628202743913170547e-01
-6.084236968620872210e-02
-1.725056536454372125e-01
1.785458226057473272e-03
1.554313342066258041e-01
8.775480274536328132e-03
-4.506239778717702205e-02
4.883475317989514064e-01
-2.275209607372145545e-02
2.476166478256448464e-02
1.496256794517763222e-01
7.136495032127060378e-02
-5.465650276942475294e-01
2.574198157279039556e-02
-2.184331083105493509e-01
-5.376403918632683028e-03
2.938421789321065888e-02
4.033782032418860297e-02
-8.566915025337110134e-02
1.679352961375298004e-03
-8.600212524713171658e-02
2.777405514260751773e-01
-8.099236497115762379e-02
1.597101380085836908e-01
2.058370445642171975e-01
8.731626040101288233e-02
-1.757691610199352827e-01
1.507378413200102796e-01
-2.185380170649606490e-01
-1.634475828493133776e-01
-3.245277953696201062e-02
4.272969396168934120e-01
-3.989187395575107681e-02
1.228986389444043370e-01
-1.226227734819642090e-01
-6.626388633741192580e-02
6.426730504900690644e-02
9.310224230050850869e-02
-1.630268039800954749e-01
-2.272681009017309128e-01
-6.922776219736855030e-02
-1.588871716409483992e-01
1.061118151430902462e-01
1.289711219480264015e-01
2.223262726727692484e-01
-1.086202410401238827e-01
-1.045133051556130649e-01
-1.365129032414702237e-01
4.096727117039957247e-03
-1.986902930916828180e-01
-4.618765649999459488e-02
2.975625399705813523e-01
-3.050496458696976831e-01
-7.796774774151798981e-02
-5.122797412097295638e-02
2.191690797137134383e-02
-2.863035852631973799e-01
-7.949693922535817914e-02
7.989053524404288176e-02
1.459920628088957617e-01
1.409865344288907807e-01
1.152577494242725958e-01
1.283442689782842566e-02
-2.010126702339538052e-01
-4.242032288077121627e-02
2.865399043850526753e-02
1.092729555821202042e-01
-1.160816992341218434e-01
-4.037454096793795244e-02
-1.080010478269079893e-01
-9.322325408619609732e-02
-1.737409845508623985e-01
1.125346531878951284e-01
-1.129476699628313430e-01
-3.510724495157521025e-02
1.846213897692771388e-01
-2.004876926268864823e-01
2.164948943618511534e-01
-3.349043662747448052e-02
-9.605366620124965171e-02
7.216494228429086444e-02
4.455016692690658142e-02
7.579211759567559652e-03
-6.125964331688874692e-02
-1.734530186286547745e-02
1.861229337874760470e-01
1.611236493053561092e-02
-2.951419493242531111e-02
-2.714724832970497603e-01
9.635773893946422350e-03
1.981005735560303349e-01
-6.942855787205055862e-02
-5.353798630703403977e-02
2.319203056409548935e-01
1.803696087651705249e-01
-5.259867027216470065e-02
8.123311939640923129e-02
3.347611179372029233e-01
-5.218851727009623381e-02
1.982205276914884295e-01
1.128148238716522034e-01
-6.226090975609704231e-02
6.631674535575715623e-02
1.437919597304938846e-01
-5.641139550623269772e-02
8.886822116784375003e-02
-1.379893936081912353e-01
1.691142402572917702e-01
1.700177086088077438e-01
-7.812719383985393395e-02
1.067357190778821796e-01
4.398588853959833900e-02
-3.006865447613878972e-01
-1.511727828568593945e-01
-1.962737287822940383e-03
3.889648874650390720e-02
1.657663158645876766e-01
5.977837598522367513e-02
-2.745569751314065610e-02
3.036453112559341916e-01
1.974231609001983814e-02
2.566053291625267074e-01
2.729191933973352038e-02
-7.750281029632948362e-03
4.923596611694569698e-03
1.533999435097570252e-01
-2.148716853111333203e-01
1.851842294301005720e-01
-1.706461183144842575e-01
-3.170879625171850180e-01
-4.062223258267499276e-02
3.834340454904320850e-01
-3.691130987906054983e-02
1.283434179865082514e-01
-5.856236743154386026e-02
2.813438496850838993e-02
-3.963183118019904250e-02
8.511046504327636486e-02
-3.513667336948263220e-02
-1.898133449258966876e-01
-3.291693824871175234e-01
-8.780063488397668592e-02
-7.751063737507822918e-03
-6.235580941463388094e-02
3.028589832075815336e-01
-1.077358344169887655e-01
-1.549467654189211167e-02
1.040054869806221948e-03
-1.171602265496906603e-01
1.413366081261852591e-01
3.847795349783016128e-03
1.653733924154231760e-01
-2.769794255240607406e-01
-8.553685622342613315e-03
1.690213102095892428e-01
-2.718764345732845381e-02
-7.791790337353558978e-03
-1.612999743446824966e-02
-4.740375608640079452e-02
1.620629149590677998e-01
3.875297927689810851e-02
-9.985070641947475789e-02
8.164596685027382394e-02
-1.387082315005746247e-01
-1.584081277265729781e-01
-1.670345228614619204e-01
-8.399202146287240711e-02
-1.288841579925691372e-01
-2.219807848502889092e-01
5.762983624765853630e-02
6.366920830306679879e-02
-2.234866644599902141e-01
-1.375477623800742399e-01
-7.130351057385733715e-02
-1.779303255778899584e-02
8.967545475972929503e-02
-1.949288976776579752e-01
1.428699280681629824e-01
-4.330027557682310929e-02
-6.321518829263413942e-03
-1.119694019919357901e-02
-6.382253667232462568e-02
6.289356607601749583e-02
8.874566795804124386e-02
-1.365736976849069029e-02
1.331113646016498786e-01
-2.462650140038551427e-01
1.267720325486665633e-01
-1.332316788729215884e-01
3.362983716733593947e-02
-6.162258068968221730e-02
1.484997965059204998e-02
-1.656246004604487732e-01
3.340977134561554651e-01
-9.121428665563724447e-02
3.460710818784370341e-02
-1.005158035391292594e-02
8.356932155139408513e-02
-2.138045640545982451e-01
2.869414922627669950e-01
9.125232607470400159e-02
6.714418149643423817e-02
-1.453986577518948664e-01
1.404598300534911082e-01
8.056250754767436961e-02
4.535882706778431028e-02
-1.837871199275338263e-01
1.502140540361462384e-01
2.482388547515451127e-01
-6.045416679687127398e-03
6.273807157532967915e-02
8.986105061658367088e-02
-4.209408493423171249e-01
3.787941612149977461e-02
-5.692013934590470225e-02
1.281453190563997535e-01
-1.170190202318907996e-01
1.772998314893265426e-01
-1.909045686410425213e-01
2.396599872537023557e-01
-7.878962088312478629e-02
1.327778523634628172e-01
-6.341834620073744100e-02
1.253490284230656393e-01
3.783310112715844442e-02
3.587907948589397905e-02
-2.243072779990775145e-01
1.178087567408742098e-01
-2.295896731822032188e-01
-1.019323150276420648e-01
-1.548575124543730142e-01
3.880648027475531170e-01
-2.277132049083085974e-02
1.268122675949277522e-01
1.960543844244664463e-02
-1.805994421264665167e-02
2.783446071612329098e-02
8.986939001443468300e-02
-2.543263872282470195e-01
-1.667809145361690837e-01
-1.754430275038918463e-01
2.311990544389541380e-01
4.111049042083229910e-02
2.760004200746310130e-03
5.525297375005812084e-01
-1.207695386085246431e-01
-1.943035945541427001e-01
2.206503849323827177e-02
1.876585200320231642e-02
-4.285586495831826548e-02
1.691760133794561194e-01
2.443593802463380274e-02
-1.346513432706224200e-01
-1.397454737670224545e-01
-2.255613339962172365e-02
1.091792535116914986e-01
2.961017546200581455e-02
2.421778443281808260e-03
5.594213037566646979e-02
1.509360767068034792e-01
7.874647528167282029e-02
-1.997790035439016634e-02
-1.127425047143782583e-01
-2.209397976949632469e-01
-1.087578151101284696e-01
-5.635161679444666838e-02
-1.547426832615428072e-01
-1.142325847430861741e-01
-3.172357168016585738e-01
6.055506123967746221e-03
4.247374911545410969e-02
-1.240067036193483879e-01
-3.864606814608738394e-02
-1.815991402763498797e-01
-1.427846941055354590e-01
8.589757742656917161e-02
-5.404554472064277207e-03
1.443819960871094710e-01
-3.327876555970593619e-02
2.979296196412302856e-03
8.129298949471737423e-02
-1.184535993500596546e-01
2.835569215361698550e-02
1.290028069090267959e-01
-4.936509474926911029e-02
1.645131204828211569e-01
-2.302455236648686121e-01
7.179358198331282914e-02
-3.364288786685519228e-01
2.067323861241923688e-01
1.291417444526884173e-01
-1.101468496960636423e-02
-2.576740581683368836e-01
2.566009383367092167e-01
-9.573859880139104495e-02
-9.536305355419256004e-04
-3.340288429755031846e-02
-1.237520800342068253e-02
-2.032373976672028626e-01
1.236885951536081524e-01
1.507551737470205211e-01
5.198569217857896413e-02
-3.009059702950677151e-01
1.852909637234934626e-01
4.439179167339803167e-02
-2.696883685188515567e-02
-2.265131255608092420e-01
1.649182920742971181e-01
4.315633239735340576e-02
1.117282489320553171e-02
1.413680415377453481e-01
1.661014873422291815e-01
-3.099959165241269465e-01
1.266268487047776947e-01
1.853382578010989989e-01
1.045818618598803734e-01
1.250199589594124666e-02
7.135101466629970024e-02
-3.179276142603303379e-01
1.926408049717605597e-01
-1.349427623281961031e-01
1.088314882469261224e-01
-6.567199513241436803e-02
-7.461673005110505685e-02
-1.138232715338868967e-01
1.652059470434160127e-01
-1.874284182097572526e-01
2.438536904380407822e-01
-2.325658066792937462e-01
-2.723714551401760359e-02
1.130357719773365383e-01
2.532009995719342044e-01
-5.699624452974341726e-02
1.621606731872843876e-01
-1.046379686830745809e-01
-6.581019228332202556e-03
6.528869428514642859e-02
-1.832115989979535634e-02
-1.023661128960318412e-01
3.736269954151495015e-02
-3.615004856799011734e-02
1.881757377879227089e-01
1.852740502560035890e-02
1.381330951451786304e-01
2.746880914377529126e-01
1.425030670471755072e-02
-9.002215486237573339e-02
-1.152315341426974754e-01
-9.488255972492092016e-02
7.377421336790636330e-02
7.612991496365343301e-03
5.468370125576958729e-02
2.365232028265737418e-02
-9.497665717746062164e-02
-2.757698201057900977e-01
1.504509017745007948e-01
-1.320820564148701137e-01
1.357100576519069957e-01
4.223316152721564437e-02
2.240180542987862608e-02
1.953163387664346440e-01
-7.869811471540869019e-02
5.597875428582625712e-02
-2.879727376258933713e-01
-8.996251820262153587e-03
-4.219533641363947679e-02
-1.972663945962992854e-02
-2.309870231007286612e-01
-2.930202590332338652e-01
-1.968088854330982684e-01
-1.540879134736108103e-01
-3.884783458225663511e-01
-9.895185674738632420e-02
-7.948743903547002276e-02
-4.557256100553054579e-02
9.969877059294840471e-02
-6.535330704599574825e-02
8.348523940122348774e-02
2.611556340460547895e-02
7.171869672357551739e-02
-6.659269148255094611e-03
1.541515873203551101e-01
7.633151207393363679e-04
7.498581026775999470e-02
1.269607545248793365e-02
1.110081767112335305e-01
-6.364090447708046182e-03
2.189421909611175832e-01
-2.850270410687462119e-01
1.405877356342180029e-01
3.722852436052803138e-01
-1.560273461994990049e-02
-1.374749467188122187e-01
2.213699927671876067e-01
-1.051583275061451495e-01
1.148005403096311744e-01
-1.875825244845200079e-01
9.540584027256321376e-02
-3.541620597764796874e-01
7.431259495201922305e-02
1.615775311768216649e-01
-1.418114705027502254e-01
-2.203592109191750414e-01
2.193459884879982516e-02
-3.783178463430493521e-02
1.331463757674254678e-01
-3.847554941127909189e-02
1.471507949107193902e-01
3.980466514554300422e-02
1.296226183777995367e-01
-1.134848795337055349e-02
1.155276285660437330e-01
-3.382878925305901063e-01
3.752370054551334988e-02
-1.541873197192265843e-02
7.504594037238190851e-02
1.629767573131854774e-01
2.933005325206610725e-01
-2.166566827974790790e-02
2.185498286029651238e-01
-8.324223826409204996e-02
2.376970070361133225e-01
-5.996782602438643917e-02
-1.805680827417127376e-01
1.466723608705897963e-01
-8.865989394571907600e-02
1.367758245396908101e-01
2.494302194634068770e-01
-2.089765352167185786e-01
-4.678410609524191743e-02
-3.526716026792819925e-02
2.448808788317966834e-01
-5.253506707910293033e-02
2.834705034198715667e-01
-4.945620044242653168e-02
-2.143841133108026209e-01
-1.193722605899941690e-02
-3.795808851198029243e-02
-1.910798850327854181e-01
-7.580120574607535078e-02
-1.617812684638247345e-01
3.697514486080089730e-02
-3.441052766848248790e-01
-2.616934897449353647e-02
1.368113059304766344e-01
-1.500161172929691811e-01
-1.013380089901280423e-01
-1.693900345196849566e-01
-5.377897051002011181e-02
1.366468359645497954e-01
1.795293187188595763e-01
8.882636233729589159e-02
-8.278809505575328298e-02
-1.915907865160568560e-02
-1.232752574574368931e-01
-9.078851612382364544e-02
-1.334293954298450824e-01
1.353438738617807613e-01
-4.080453180144603259e-02
-5.726034167293082670e-03
1.030658161146449786e-01
-1.755718309072903105e-01
2.980206383373701917e-01
-9.844104869794692569e-02
-1.257351695608452113e-01
-1.880422201316633291e-01
8.748342369657116646e-02
-1.806204184887644781e-01
-6.348347675731903783e-02
-2.136404693780831199e-01
-2.645392074050044451e-02
-1.072199718843801636e-01
-2.186005459853852251e-01
-1.075408939325196850e-01
-2.714039468312720582e-01
4.122911787231431369e-01
-2.410662441969975076e-02
7.648651031157363556e-02
1.438815405088970933e-02
1.883869943886967713e-02
-8.284556440630450047e-02
-7.438622415510982855e-02
-2.290638459014627398e-02
2.276910559569456927e-01
-6.533463856485063892e-02
2.568865773864933422e-01
2.398084319335504633e-03
1.634802712186086970e-01
-2.920049318825886364e-01
-1.260725495466880411e-02
7.276301467514417753e-02
5.052253933555162640e-02
-2.663776390340539812e-01
4.205714360346688441e-01
1.239359938987223513e-02
-5.354885875277317492e-02
-8.825714785618173075e-02
7.567077492017028340e-02
-8.974142350243141664e-02
1.797670368552067022e-01
1.268334074015379231e-01
-1.237661687861729004e-01
-9.455857374711516827e-03
7.245648238823049203e-02
-3.353535401791510329e-02
5.799498152029317066e-02
-1.939708313299121911e-01
2.841351731025476557e-01
9.633663517724809500e-02
3.951478190580668542e-02
6.843075176319257658e-02
3.745133452944578167e-02
-4.674258185571006918e-01
1.305098785112977083e-02
2.904783317726911118e-02
-1.229046916003877360e-01
2.530997068684967544e-02
1.670054746278767377e-01
-2.154058721443142810e-01
1.807576477507492341e-01
-6.385922016934450496e-02
-7.652865939577060961e-02
1.664856096593907986e-01
1.699793865659959269e-01
4.877314510890930904e-02
-9.805776210232546031e-02
-1.587725205971569631e-01
7.388590794583732579e-03
-1.991947253214557956e-01
4.864694795388108811e-02
-1.279748295078859434e-02
3.210374773896081391e-01
-8.436006173094871829e-02
8.164869113403874779e-02
6.750921359761591356e-02
-1.426767959536931994e-02
-1.517430039645568107e-01
1.427408061298104380e-01
4.687196421743829861e-02
-1.426866169500385084e-01
-3.436098124770247796e-03
-1.183626699021221723e-01
4.383733388134541942e-02
-1.052530171364591122e-01
3.298285869063102282e-01
-1.237119224313648347e-01
-1.751507994964356385e-01
-5.721023007243069419e-02
-1.030460541310879302e-01
1.399095637208389031e-01
-5.859122886686261855e-02
1.093888090302525679e-02
-1.560918653297972414e-01
-6.406751400425317322e-02
-1.084233324760726785e-01
-1.428815240320217284e-01
-1.188014643171518732e-02
2.085158316580073001e-01
1.607997306301457707e-02
2.531545845731424937e-01
2.639667557939762155e-01
-1.827316746370623857e-01
-8.398439210438327085e-02
-1.526021059157816884e-01
-7.311058505948500597e-02
-1.341102122955002141e-01
-9.944897035418964748e-02
3.429183415189994508e-03
-2.139150271768454625e-01
1.777666045785379623e-02
-4.728618249498450776e-02
-2.812693512863357337e-01
7.419375157466667758e-02
-9.784044803893331144e-02
-1.538677128015394635e-01
1.624384393182148889e-01
4.403579621927785487e-02
7.104784202411965066e-02
-6.131284302535747188e-02
1.129670125121433472e-01
-6.281550938182084431e-02
2.868556396705774711e-02
1.786563317614397184e-01
3.003394753481607449e-01
-7.115598074916405780e-02
3.445464089796548834e-02
3.451382658397978559e-02
3.044030576687551965e-03
-3.806846285901391291e-01
1.142747085932287604e-01
2.334230014455900837e-01
9.888863677817658071e-02
-9.823664083830457860e-02
2.299800584321582131e-01
7.788387945722745342e-02
-7.901894173081945583e-02
4.234174838621738990e-02
7.302843957335508618e-02
-1.296259679976070056e-01
7.302553425923477559e-02
6.449315696142951526e-02
-1.314535072726842335e-01
1.280056642043246075e-02
1.079314699949285167e-01
1.064478283131263109e-01
1.877113910312876721e-01
-2.063127181789544129e-01
2.943725932253561939e-01
1.384133760618513065e-01
-4.128224453898984847e-02
1.105512058125027869e-01
2.607334491676756016e-01
-2.006684158307017463e-01
-7.174027571542412884e-02
9.593700387934944729e-02
-2.687398084029571019e-02
-2.925763183418457480e-02
2.411160411781082535e-02
-2.047508209551726077e-01
9.857496916813410226e-02
2.637078263744458209e-02
1.921833642252649132e-01
-1.951309306800593779e-01
1.611967979504846382e-01
1.911602322850100566e-01
-3.064844834558667908e-02
-1.142125456347181517e-01
6.473864248319882719e-02
-1.155722426505800121e-01
-2.558729040895316859e-02
-1.529013792925241200e-01
2.809021753828122026e-01
-1.978502618066727836e-01
1.639749767589721019e-01
-4.503356446773131017e-02
-6.710961353567994336e-02
-2.163712471967940698e-01
-2.872843861596378195e-02
-2.204726736725123870e-01
-2.517829866073574285e-01
-2.412984841760311416e-01
8.286516061736533267e-02
1.262860031084520884e-01
1.137518527951290881e-01
4.024900879096343642e-01
-1.934373688553814863e-01
-1.629582014279291891e-01
-1.331183469981542800e-01
-8.531227031712061704e-02
7.613837676119154796e-02
-3.169694619313997291e-02
3.008723182541279129e-01
3.634375203930336612e-02
-1.746111285165032057e-01
1.566243982803950871e-02
8.974570638391593524e-02
-5.510839931501565481e-02
-1.198942952200645201e-01
-1.359788977743822680e-01
8.827550953020002478e-02
1.037430190479119441e-01
-2.740170229474180319e-01
-4.196099642397946305e-02
-8.633933053219423892e-02
-1.148825034409059614e-01
-1.186679616721533076e-01
-1.603504072566973304e-01
-6.678101179309887947e-02
-2.424071373921561356e-01
-4.190694257633309494e-02
1.471726966139796922e-01
-1.625558242721272528e-01
5.245111183394104287e-02
2.891118362025388994e-02
-3.099644218133502244e-02
1.643794846238736951e-01
2.606186102773791458e-04
-1.151483612479087398e-01
1.005675585853864629e-01
-4.944531223883832927e-02
-9.633842338410346373e-02
6.391553570946845175e-02
-5.602687928856650524e-04
-1.171485479651470686e-02
3.088264568818465880e-02
5.362356876369218928e-02
-3.865559663607411739e-02
2.034402562871290010e-01
-3.685783081079838652e-01
5.335024083344384188e-02
2.997795914398120737e-02
2.173983466886806881e-01
-2.250183563809932397e-01
4.189248678151770156e-01
-2.154873682231709872e-02
-1.356772618848820777e-01
8.793007277141820510e-02
1.343736668749781205e-01
-2.781827241201970669e-01
7.659490718259909237e-02
1.915627395000639721e-01
-1.627690968928744708e-01
-1.119185993283877412e-01
-7.181386628354981261e-02
-7.920117502532851225e-03
-3.037291227659267429e-02
-3.019117098580514566e-02
1.823448498500434278e-01
1.136500278290843990e-01
2.459933549100172187e-02
1.670186504187107790e-01
1.412875712144721352e-01
-3.735865260331587834e-01
3.227816392944313911e-02
-5.261669411422420506e-04
-2.195289041533516339e-01
-8.825344953108940627e-02
4.323697256578942077e-02
-4.226593094829831504e-02
2.140127762249011689e-01
-1.279468027033205668e-01
2.488657153974704328e-01
6.837772956736425101e-02
-2.447508520134919485e-02
-6.273869117826114811e-03
-6.538947071165429614e-02
-4.057422385039843871e-02
2.098549502891479124e-01
1.889789874182909446e-02
-1.402162622485018939e-01
-1.913410121002185119e-02
2.446412616126908690e-01
-3.191764512225726547e-01
5.160910506852376539e-02
9.914133927621161801e-02
3.240954640400464746e-03
6.414304988644133065e-02
1.311308425740368433e-01
-2.264282877587470710e-01
-3.715433637745967910e-01
-2.813020159494650785e-01
1.124544121957727905e-01
-6.417903834262639329e-02
5.594312277829169983e-02
2.972675556200865543e-01
-2.746126320990016634e-01
-2.315798509453577403e-01
-4.781274053031162041e-02
-6.976069730432447880e-02
1.489155269275860005e-01
-2.928580806540107342e-02
1.617801048473298253e-01
-1.685303259902436179e-01
-2.300052399051679200e-02
-2.200013425803113432e-01
1.121913826243996389e-03
5.518727673452208937e-02
4.797273720166081445e-02
-9.842280751324726518e-02
8.194594744511957130e-02
4.671504973988092890e-02
-3.034627798837877810e-01
1.169084044322104068e-02
-2.459307344558772090e-01
1.737627998617927438e-01
-1.903656578557331308e-02
-1.143941580908787101e-02
-1.050691363916414142e-02
-9.497582927864423041e-02
-7.813148224136370890e-02
9.076192293508017483e-02
-1.213848424059925241e-01
9.316132312901806434e-02
1.492185892596283869e-01
1.931083438475330871e-01
1.725409818075607227e-01
1.078327188124262037e-01
7.919569242199395176e-02
-8.173472230396675031e-02
-9.547879239105326252e-03
-1.459155405237128611e-01
-5.060704353824042184e-02
-3.543381460428973034e-02
-3.167629915735161589e-02
1.029542693474415002e-02
2.964161720028948843e-01
-8.009918173751248704e-02
-4.329591918169622272e-02
-2.580027896820660249e-01
-1.527071146490854500e-02
4.708310976739744913e-02
4.681942637757682130e-02
-1.356075934947282846e-01
1.879031787295233902e-01
-8.993783760235891933e-02
2.040364182865536669e-01
1.074109559574175921e-01
3.283623712379298842e-01
-1.071278103094871759e-01
4.902798889714008726e-04
1.412357813580989163e-01
-4.107771907353355983e-02
-1.994414819995398991e-01
-3.360521346483066885e-02
-1.363241289865516417e-02
1.459609217893313438e-01
-8.345252541953222802e-02
2.014553601570378272e-01
8.915716038297892554e-02
2.116657207243676786e-01
7.398060933865498179e-02
1.502492461538843249e-01
-5.667052252790387712e-01
-6.923598043292580884e-02
-1.857308264599404346e-01
5.811189506726727010e-03
-7.551946625581976158e-02
9.459657581208999466e-02
9.514421011265529471e-02
1.476342658976415312e-01
-9.743654633620461858e-02
-7.536866723842063076e-02
9.021416298996234873e-02
4.984879592241745622e-02
1.384322749866613578e-01
-7.832892535501827236e-02
5.307990163384646715e-02
8.911067859126906021e-02
-3.241738139752429332e-02
5.840838012767636533e-02
-1.681572737344104174e-01
4.353543398351085170e-01
-2.147261953299638426e-01
1.705058652223117865e-01
-2.574213190870691323e-02
-1.119117023050700266e-02
-2.654687725734591539e-02
2.876325240550558701e-02
9.758783442465637781e-02
-1.836912798813237768e-01
-2.404298451090272903e-01
1.043482437253900746e-01
1.545337379549580892e-01
4.610273574487839393e-02
1.541593976890882206e-02
6.925364893608591810e-02
-1.487823797406440662e-01
-1.484173081291350130e-02
6.910091603113135972e-02
5.421509103795137813e-02
2.957660430180167332e-01
2.534553944730252861e-01
-3.986720481831511065e-01
6.824267220453594796e-02
-1.420164834669936926e-01
2.548772349541790841e-02
4.790645635171333905e-02
3.674880022584228051e-02
-5.009096906407298905e-02
-6.251489009387352358e-02
1.903686537197260553e-01
-1.468604466048843427e-01
9.878353571095675745e-02
-2.503063572994600472e-01
6.899425909875346596e-02
-1.316349686863980128e-01
5.527763377385584015e-02
-2.675611628442230855e-02
5.255098679401846301e-02
-4.587574734422513768e-03
2.147537371020756536e-02
-1.034771453915878658e-01
1.528748019552675919e-01
5.308511032768380156e-03
1.511810036109235700e-01
1.182941544017548086e-01
-8.317521114133795412e-02
2.291384000432548640e-01
-1.784190313658098603e-01
-7.777960097383879168e-02
1.635539086566027700e-01
5.818456796048472601e-02
-7.641527214237432697e-02
-1.253301084439315816e-01
-2.036920228895767668e-02
-4.921032645560013963e-02
7.210716015762011488e-02
2.673797324235995254e-01
1.718043973925788004e-01
1.955033102687352142e-01
3.497921103696080558e-03
5.114541267176250100e-03
-3.779146298482010530e-02
-3.935137059523711317e-02
3.694039014093484369e-02
2.384323460598731376e-02
7.197498519794258420e-02
1.430503015605190942e-01
-1.661598937781748608e-01
-9.900003361859983919e-02
2.548858057910154407e-01
9.148280743734475695e-02
4.787013014718058401e-02
8.057910233575484027e-02
-1.535265677166092885e-02
-7.523928845509800234e-02
-7.598005104584892866e-02
-6.392066075778864154e-02
-1.430962047696173745e-01
-7.729387604440195181e-02
-1.110672375323590449e-01
2.049855649854283868e-01
-3.755295972109836677e-01
-1.138466998433160932e-01
-3.598462742547658966e-02
-1.125552329214681152e-01
-3.289759156606268664e-02
1.588536328231063277e-01
9.115330000051154180e-02
-7.856391775222756890e-02
-1.209506812830840744e-01
1.228000624933061335e-01
1.818717737586107164e-01
2.433617610769034656e-01
5.051526455146770900e-02
4.385701748594864752e-02
-5.338567909116068849e-02
1.477249261299579119e-01
-1.020109532316302581e-01
1.270596804537748037e-01
-1.660797896931573425e-01
2.696217375624278545e-01
2.110838013830377558e-01
-8.419792061204314781e-03
-7.238983883412823672e-02
4.296266640960381099e-03
-9.861261157138836997e-02
-9.224982289187548534e-02
1.874769005149150847e-01
-1.484016079240867425e-01
-3.248462578629645603e-01
5.514821343449419905e-02
5.915932598509328517e-03
-2.663765719913837593e-01
-1.583414088318649826e-01
2.371524214955384249e-02
3.216119048969203614e-02
-7.825273534542469267e-02
2.131634650653027596e-02
3.317621286814076420e-02
1.485917674147148593e-01
2.231336851214405781e-01
-1.156011983368603058e-01
1.456162077184994796e-01
-7.070311345295003658e-02
1.541675558686759762e-01
1.755207139910586744e-01
-1.690004725198954172e-02
2.586732551177788886e-01
-1.016651439271421854e-02
-1.253784333963096076e-01
-1.888795477880490445e-02
7.207479164085182910e-02
-8.423212615047322160e-02
-6.543297621591445679e-02
1.081661201406860645e-01
2.842598523821748824e-01
-6.445128821279787201e-02
2.733010960320066407e-01
-7.817478548926490300e-03
-2.013301364612303523e-02
-8.598422620914418502e-02
1.348454333977225361e-02
1.282464414775299523e-02
-8.984658434110207037e-02
1.043658231927745150e-01
-6.289212898607839108e-02
1.044335411555980808e-01
-3.314536798292480602e-02
-1.512762818827778979e-02
1.654843592441944677e-01
1.087800731410401012e-01
-1.413552062828556111e-01
-5.729530841661216456e-02
-5.476836197376973997e-02
8.347664728687619051e-02
-2.208674120471385838e-01
1.076388793140545530e-01
-4.332865697637597324e-02
2.008078695699427318e-01
-3.706488576943302304e-02
1.034581740583023907e-01
-2.025897872599798644e-01
-1.260693092712323639e-02
-1.670486654475993316e-01
-6.533070274851518477e-03
-3.036413015720111630e-02
3.225962697054516326e-01
-1.351354292511232624e-01
-1.163997434507890553e-02
2.605155115110339148e-01
-1.715214683268798390e-01
-9.880927833171151975e-02
-5.329224244218334211e-02
1.277506112534591842e-01
3.612062146168101145e-02
-1.243983579762829583e-01
2.486784571393763771e-02
-1.224293234969200395e-01
-2.001589618580904700e-02
-1.638940232227459604e-01
-1.485303005975412670e-02
-3.487649639108953425e-01
3.326381517341060051e-02
5.710172389026837991e-02
5.832696273561324002e-02
2.432849096939458111e-01
5.768799652439267345e-02
-1.008645164332322777e-02
6.530707049802628172e-02
3.340626338038159004e-01
3.205386946020409578e-02
1.110534245830484962e-01
1.740209478956960820e-01
1.673433711177020888e-01
6.345755320979055980e-02
-9.296713026700988147e-02
1.967260916824663253e-01
4.324360608292259628e-02
6.240284389816813659e-02
-1.552152581655610042e-01
3.874363131757131984e-01
-6.301507085777363626e-02
1.493236640100850388e-01
1.728064657245215463e-01
9.934181714781299688e-02
-5.349074741651278775e-02
-9.791770175873951154e-02
-4.660989764295304927e-03
-2.478287096763244213e-01
3.031136719611786379e-02
-6.852041203919632950e-02
3.750343993312253710e-02
-3.423240285692600304e-01
-1.993297550614802349e-01
-1.086467923241328098e-01
5.129721180508926837e-02
-3.212706468794694625e-02
-3.643316617935198759e-02
-1.404620144396804549e-01
-1.613124695579441215e-01
5.064624040353518097e-01
-3.059885919027067747e-01
-1.442723569362166225e-01
-1.150239682670530922e-01
1.457222814933515909e-01
-1.090921881405400168e-01
1.867614930299984766e-01
1.968334814675435640e-01
-4.583042242222430673e-02
1.576351268644840542e-02
-2.104174229224461123e-01
2.164945296336548142e-01
-3.927166765929399062e-01
1.182490666398261919e-01
9.859937257928269583e-02
-4.333162155193170245e-02
-2.407802522254032240e-01
-1.888604302140448610e-01
1.345697464391903443e-02
1.696465987928665736e-02
-1.200593436426149879e-01
2.024715973976906336e-01
-7.550160890177573525e-02
6.109540412150470112e-02
1.266852699107547942e-01
2.293918849306384594e-02
6.168687078275595509e-02
-5.091221383899054848e-02
-9.620788598355235061e-03
-1.625068422094456400e-01
3.967623764172093642e-02
-1.882206953938179439e-01
-1.037355565617564951e-01
2.414589030134661404e-02
1.083313094644770685e-01
-1.539399053013607854e-01
3.237753993284277210e-02
-7.486977671241001712e-03
1.181529076461798264e-02
1.938672279758303363e-01
-2.319088926710740142e-02
-1.499176359051098417e-01
2.693197774147066959e-01
9.476196321999426353e-02
5.964887647567512080e-02
-1.548745991136917834e-02
2.065708198988731037e-01
-1.405992705034103396e-01
9.624502934041653801e-02
-2.756890069163156834e-02
-9.606780683407890875e-02
-1.346932454894870235e-01
-4.957358988247696080e-02
-9.062839566162875227e-02
2.096694588698272688e-01
-1.614534789899917666e-01
7.934647075535995742e-02
1.657834467044576598e-01
-5.748324485611965018e-02
1.412811207575102312e-01
2.772499047122148341e-01
-3.962386041300509643e-01
-1.956697508626395465e-02
-1.867979781263313238e-02
-5.970944730570098072e-03
3.679424446796503156e-02
2.446071977113443985e-01
-2.473171113540689470e-01
2.272574229834725679e-01
-1.331644733749128839e-01
4.049122500997701102e-02
-7.812898226985614744e-03
6.662675886400754033e-02
-4.700744862340382885e-02
-9.252159458476254261e-02
-2.594158679456647423e-02
5.012829007999246300e-02
-2.717424936338610486e-01
6.321084055751377551e-02
-1.276365638968242344e-01
4.383324019077626810e-01
-2.041143901312494902e-01
1.185735926211593794e-01
2.199737960355959698e-01
6.357443131752152365e-02
1.483297379676465355e-01
-1.711345785478792306e-02
3.015012172799940923e-02
-8.601751202087044856e-02
-9.209605299678204349e-02
1.207802314572707231e-01
-2.621614564093519562e-01
-5.500318915880873100e-02
-7.185354117225964399e-02
2.115496432228917423e-01
-1.908275369158199050e-02
-1.124534104293778564e-01
-3.687498232257965802e-02
7.455686636364597386e-02
5.469524162735016348e-02
1.046147444806272975e-01
-1.854736354408764998e-01
-2.189917423228025795e-01
-2.555803340755860575e-01
1.839997048508329736e-01
-1.624825216764262947e-01
1.067762594943379578e-01
8.371898381995503124e-02
3.509516926223861522e-02
2.137770307813050275e-01
-2.386641586237235046e-01
3.469800014802635890e-01
-5.416979446381945396e-01
-1.061683454007683464e-01
2.216491774156996997e-01
1.057875389285556078e-01
-1.769571001145867073e-02
2.344951864946590026e-01
6.199733808388953674e-03
6.593500870873081343e-02
-2.514309624661948406e-01
3.283088225510008007e-01
3.739789706763121946e-02
-2.900870897448903918e-02
2.745329954536226622e-02
-1.243128913066361141e-01
1.766457487142709393e-01
6.899543243316325070e-02
1.668477642286410323e-01
-7.964458187686532242e-02
-3.583215922815872340e-02
4.337974659895145468e-02
4.249189878920199559e-02
-6.611135363319067815e-02
-2.653002581143260041e-01
-1.035982653372111428e-01
1.982432087886647556e-02
-2.234820536338407923e-02
3.150992121397482720e-02
9.652912624098221317e-02
-1.444060722687904863e-01
-1.760623330405907405e-01
1.256486347418190319e-01
1.381494227883872617e-03
-1.142897439462727954e-01
-7.753220636246273278e-02
3.979854023172494509e-02
-3.493850883962349441e-01
-8.892223143390833029e-02
3.223412814449574948e-02
-8.563479510876774448e-02
-1.183192253571282021e-01
-1.231803323216960899e-01
-7.797589489710589523e-03
5.402779882499438718e-02
-1.563068052717297707e-01
-5.416916927987386332e-02
1.232523463141222131e-01
-6.924766236622513504e-02
-2.464260451916154560e-01
1.132504569687147605e-01
-1.227280802482784150e-01
1.717641041585406952e-02
-3.761652587764735545e-02
-3.533169901803692335e-04
1.447054804899960134e-01
-1.041419635349803835e-01
2.374566986298944082e-01
-1.871319592088671879e-01
-1.549054273778783519e-01
3.939556290418952944e-01
1.814987936815585512e-01
-1.203351002433644817e-01
-5.044411080218766386e-02
2.464872509147783275e-01
-6.392140942111508572e-02
2.117791591197509815e-01
-1.247398498725530158e-01
-6.093265270989044191e-02
4.040990457618490184e-02
2.839666537413870206e-01
3.865878885074001126e-01
3.104799690277800228e-01
4.634193112519991581e-02
-4.138073083945073907e-04
2.057464368250894737e-01
1.497458113469562202e-01
-3.311258052823193992e-02
-3.349725985924242172e-02
-3.164948495768215020e-01
1.401437344037453070e-01
5.181002286666734624e-02
8.735349129144583114e-02
-2.489326600943445392e-02
1.731674821685066923e-02
-1.801817596341763750e-01
-2.106799832415429119e-01
-1.886709513569019558e-02
-5.998913376175566553e-02
1.752188662913848616e-01
9.079974172789798126e-02
-1.353073271460964733e-01
-1.965668735577782641e-02
3.769202734507733354e-01
2.926302264243936246e-01
-1.051322436762467671e-01
9.538098106490675281e-04
8.947179056152676502e-02
9.447442656989808729e-02
6.852762108526391782e-02
1.443120558179840085e-01
6.709711387940475724e-02
-1.457881513882257341e-01
2.591462036698061883e-02
1.807726771436135582e-01
1.426950879847379075e-02
8.016826821729196306e-02
-7.869703270338000711e-02
-4.548647866602437834e-02
1.304107234198730869e-01
-1.260244415602208845e-01
1.601428286885118457e-01
7.185570707655046518e-02
-6.844132062597316213e-02
-2.868123352556735742e-02
8.502646889792131457e-02
-1.300126143077095509e-01
-1.375760571465581283e-01
2.194261328150225523e-02
-4.183691872430907871e-02
1.391361351747296415e-01
5.863132628351035158e-02
-5.705983540814778959e-02
-2.166269758228743236e-01
2.951914703398094558e-02
1.211316575333137302e-01
-1.452307917089583900e-01
1.738406431014035136e-01
2.310816242453017921e-01
9.724464657792775135e-02
-1.002709030802536316e-01
-2.324134455355408302e-01
1.077914428963284293e-01
-1.981004000025071710e-02
-6.678611510480379765e-02
-7.039844206544318417e-02
1.763321767194242773e-01
-4.153942768089595172e-01
-7.327018009256638931e-02
1.025191548796777902e-01
-4.606627540456163100e-02
-1.867549470732256245e-01
-1.578805016996598087e-01
1.856546928937627601e-04
1.298026579247069656e-01
-1.099542854408872561e-01
-6.031581209584443298e-02
-1.020275899588141133e-02
-1.733802926791620513e-01
-3.785631095834562920e-01
-1.568152997433589213e-01
-3.549313830362741951e-01
-1.060678722794856053e-02
-1.670397853448072067e-01
3.703886378776997945e-02
1.108464396493279019e-01
-5.346360419525210406e-02
4.792528597683266833e-02
1.264851208022456930e-01
-4.481141092405930421e-02
-4.331085031410850106e-02
3.920601551634205761e-01
4.905778561114406203e-03
1.350692678539306135e-01
2.710717773093975214e-01
-8.039595444702561655e-02
7.666825061262841357e-02
-2.597288135544292276e-01
4.128262097977220685e-02
-1.051023301890703782e-01
-1.355661648808226261e-02
1.583646057180147781e-01
2.476884364428415808e-01
-5.056070498836860022e-02
2.702018995688920122e-01
2.261690627387562547e-01
5.800673624321244642e-02
-1.483552911678163479e-03
-1.261320651054123609e-01
8.343066082141470385e-02
-7.563449674334130068e-02
8.027167423292626280e-02
-1.710619207054371871e-01
-1.847780659456960961e-01
5.599922187380464850e-02
-3.478505829042463637e-01
1.172167088483180714e-01
7.297222406648963544e-02
3.672062032420921052e-02
-1.224303604098343767e-02
1.155682012314277335e-01
-1.958541674339212002e-01
-2.870186574744193128e-02
2.382414703504635578e-01
2.143316229169957565e-01
7.067784591475564926e-02
-1.297011517437592631e-01
-1.648527980024349915e-01
8.989185829276835626e-02
1.019121990835740177e-01
1.931838464706709529e-02
2.259932887970836912e-01
-2.952735474624187950e-01
-8.168311788591854639e-02
3.194782409110802357e-01
1.065736248476223669e-01
-1.523559898636049903e-01
-1.470603461336634221e-01
3.394680920747217973e-02
-1.690861388512780034e-02
-4.585717363177988504e-01
1.677305380753154884e-01
2.185970113620438748e-01
2.448448711267214861e-01
-1.268137110605467854e-01
1.201626440125286299e-01
-1.160700603937500214e-01
1.651125994444158085e-01
3.840043963309822672e-01
-4.077109855887239842e-02
-6.895109794493223775e-03
6.692318442296020520e-02
-1.208927669092776658e-01
3.725920243410624222e-02
2.148411960084749550e-01
-3.128071331022305168e-01
-1.124402239436993467e-01
9.946473024686480757e-02
1.454738902474588813e-01
-1.419102108627053049e-01
2.013215972242787116e-02
-1.463291729135385300e-01
3.603750631810859750e-01
-4.907548773544902036e-03
8.491106338511297813e-02
4.121675382373028718e-02
9.763926239003564711e-02
-2.531981259217533919e-01
-5.553617231542731097e-02
2.535208146987306260e-02
5.821038717631678294e-02
-7.268755908379791186e-02
-2.046696567744246686e-01
1.164076630301250359e-01
-1.320765631427733289e-01
-5.282694902353128608e-02
-1.902852756953684610e-01
1.158943665052327432e-01
3.778223263895491568e-02
-2.085215439828011497e-01
7.228564419514527106e-02
-4.182171373613813303e-01
-1.418767110910871820e-01
-5.116426832619816456e-02
4.192472312409492585e-02
9.132149621539933232e-03
7.376546149317078638e-02
1.651549228271916026e-01
5.992051720384346247e-02
-6.443248082860163206e-02
-1.357883585048857145e-01
2.649635391512683569e-01
-1.540311376340154116e-02
-4.965489589372626411e-02
7.323360227576564130e-02
-1.258360982095878267e-01
1.401381318482860516e-01
-7.837975871918081983e-02
9.395289009742218561e-03
-1.892124420140668672e-02
-5.230392054894177079e-02
1.817289097962577760e-01
6.777420427166458428e-02
8.937055743527881624e-02
8.409733968651113278e-02
5.944117656748176826e-01
5.196784452391135789e-02
3.805897342986112181e-02
-1.194735472618064787e-01
-1.138049613088456119e-01
2.604124826503091961e-01
5.920576346847555849e-02
-1.548167295945377664e-01
5.885278520016698836e-03
2.398550566112669369e-01
-2.232656246834771041e-01
1.281924387375723007e-01
1.047639255183268892e-01
-3.636325735196060255e-02
-3.318576937565841378e-01
6.302351835863122254e-02
-2.499104437422824954e-01
8.656893283446558465e-03
1.765043612985886653e-04
2.033657189921354858e-01
-2.176466695980753055e-02
-1.110721313462197657e-01
-1.376503404516450091e-01
-3.593035058373877932e-02
-4.382105422467565993e-03
-4.260964635751944563e-02
-4.337201571887303736e-02
-2.769320083792272680e-01
1.164274472220004908e-01
1.633701842982531460e-01
-3.419971710777529230e-03
-5.892984406429434968e-02
-1.697148987973584044e-01
1.839713831876320024e-02
-1.122480781327857419e-01
-1.548570920152100849e-01
-1.195527452367402543e-01
1.430434554135255436e-02
-1.280582839468384637e-01
4.626891006166788251e-02
1.191677049418846251e-01
-9.758231125860064581e-02
5.284990160049228558e-02
2.912572350289146517e-01
3.734012737117628489e-02
-2.297050899662270995e-01
-8.340606529510359579e-02
-5.180030193595738103e-02
3.080169847980551018e-02
6.488653226419668907e-02
-2.941917647834335070e-01
-2.794280436741358731e-01
-1.452930158793051263e-01
6.892093892566598934e-02
-2.103644755246558973e-01
8.480697669343086054e-02
-9.445186370748421059e-03
-2.975519214477970187e-02
-9.758902676932502962e-02
-5.996232430039444977e-02
1.372150201228072297e-01
9.323178786537898721e-02
-1.178165315430924620e-01
4.933482614969927210e-02
4.955524423499259312e-02
-5.998332412093485000e-02
-3.052890883354201224e-01
1.684014815724225317e-02
-4.608989679079827928e-03
2.705265099056410882e-01
-1.573110803593504026e-01
1.486637897753961268e-01
2.652729153302673878e-03
-8.379287145437079934e-03
-1.450879553939723836e-02
6.082511480741304571e-02
-5.610277535084576828e-01
-7.378662491230320031e-02
5.855605612060323789e-02
7.102272385154149992e-02
4.931950184076337555e-03
7.460023829096500136e-02
1.260581822450348166e-01
-1.955603349370029775e-01
-1.900349908350590367e-01
3.425151395972210466e-02
5.011024615678883604e-02
1.493265854022399197e-01
2.233809540801205140e-01
-1.662632494886891188e-01
-1.555310250717444887e-01
3.704194117656570695e-01
-2.706618636607593387e-01
1.186194007305694104e-01
-1.482422507462295425e-01
2.528604222323125872e-01
2.322136614449422931e-02
1.904934305795067118e-01
2.008288708291067481e-01
1.713228011143175245e-01
3.724169389326538737e-01
-1.068544194677199383e-01
-2.805967350096021454e-02
1.380563131449046577e-01
6.393934204075062133e-02
9.074221277710076139e-02
-8.435163699032996454e-02
-8.044403304752589801e-02
1.543973972026149895e-02
2.459860025359167923e-01
-3.081910505154164537e-01
1.687367250451050349e-01
1.256064901527579325e-01
-5.729688735018403228e-02
-2.521908386812526937e-01
7.951452974105231719e-02
-1.247262998928663630e-01
1.810680351594142479e-01
-9.193324862725651969e-02
4.669392721939554652e-02
1.199673303464409840e-01
-1.301736892380569478e-02
-2.877208979680059842e-01
-1.164719548516324477e-01
4.088103463222237310e-04
-9.859315187188624763e-02
1.009077891211203060e-01
-2.020998309407245619e-01
2.728943355055497150e-02
1.811994066013549731e-01
-1.182093567941892853e-01
-2.266810451612942534e-01
-7.388764607739360668e-02
-4.935485486534619409e-02
1.905261248121127571e-01
-5.343438956866422562e-02
2.458270228020520073e-02
1.602844642330800984e-01
-4.359664852547355529e-02
-2.220535203819229420e-01
-3.080274257353763367e-01
-2.067913466667754274e-01
-3.377639144807919047e-01
-1.340492753266310233e-01
-1.511716360326219033e-01
1.112527837158209243e-01
-2.257108608328706745e-01
-1.129152918583768150e-01
4.344782897255443366e-02
4.345057877277794245e-02
-2.702503095776594422e-01
-1.607943920025999562e-01
-1.818260613634269940e-01
-3.726402317379689383e-02
-4.407988612179162269e-01
-4.521753086538014832e-02
-9.564981855732304639e-02
4.408240503709822677e-01
1.980860064812213148e-02
1.560517482503394615e-01
7.201352281820833090e-02
8.360455801091636052e-02
-2.392439743815086561e-01
1.284970533773603651e-01
-3.602069025993453327e-03
-6.613050036404292953e-02
-2.464751773819513422e-02
-1.783921402541620294e-02
1.365966477264301789e-03
1.941163673721974237e-01
-1.391138060999094483e-01
4.948606640899055886e-02
1.246572038463596710e-01
-4.045355998521101698e-02
3.059388044400863579e-02
9.075310342989154067e-02
-3.054254224853529265e-01
-9.654739236434597971e-02
-1.684542086709095166e-01
-1.654067390940576476e-02
3.934724035903636175e-02
5.735722775736385240e-03
7.102674797268564155e-02
2.265975576606707453e-01
-9.414660086111906190e-02
-1.265811517621558829e-02
-4.174358530929109246e-02
3.138113757889552935e-01
2.433118751979583896e-02
-9.061041641831558968e-02
9.889185870452936455e-02
1.270113454603438996e-01
-1.588310994705624535e-01
-1.026406145882933080e-01
-9.623584284269180722e-02
3.123750863774339415e-01
1.284870765220219035e-01
1.097524911001746262e-01
1.372018693677601320e-01
-1.076303533239918453e-01
2.847531582285866558e-01
-5.594839486549961494e-02
1.349195715568342890e-01
1.248941023813650991e-02
4.574752432990770307e-02
-2.349764786283016407e-03
-4.724848728404649340e-02
5.183987767614665898e-02
2.476753821671180689e-02
5.908705157113443296e-02
-1.951618029104882912e-01
-1.767442360898044129e-01
-1.161769965972762192e-02
-7.148205231712813357e-02
-2.074370131928011118e-01
9.873296455290740681e-02
-9.835371579129992270e-02
1.053340087798297457e-02
-2.041497521144551575e-01
-1.274653462689485650e-01
-1.138252228776282932e-01
-1.068868506784802393e-02
-2.513117641283005646e-02
-1.335644263569708556e-01
2.715230343796918300e-01
-1.912151953927899162e-01
2.845241306905837639e-02
1.841473544968284413e-04
1.262611233354041240e-01
1.432240123922795712e-02
-1.894687625490036262e-02
-3.439955170083415781e-01
-5.540194168675423025e-01
9.432752751939246783e-02
-1.526110894097870707e-01
8.064157209195425488e-03
-1.761831369529714419e-01
1.075808427316429366e-01
-1.763755346711786687e-01
-1.581758421228599276e-01
-8.456134790213480634e-02
-4.540410587505198242e-02
-1.216694240197226107e-01
1.615600125585140434e-01
1.890538139189794631e-01
-1.874937386400338524e-01
-3.592867511095025890e-01
-1.412260044842815476e-01
1.361164284694340587e-01
-1.973443235262220818e-01
-3.099876393782363126e-01
-2.157369407077872336e-01
-3.723074150961569462e-02
2.471407348561089901e-01
3.158449450219957128e-02
-3.682544242439984572e-01
-1.933290049894947904e-01
2.554387860604452332e-01
4.469415083741026112e-02
1.574784767022679166e-01
1.626640948783075469e-01
1.345572776398980541e-01
-1.740755325119163754e-01
8.192830721673309557e-02
2.099624752299105931e-02
-9.941520090501393403e-02
-1.260582481819151612e-01
-1.030733248259552842e-01
-2.274502822067112767e-02
1.352950198099966694e-01
5.134412277918010831e-02
1.728825224646018677e-01
8.703214329609127234e-03
-1.511835491319236946e-02
1.259604808938187270e-01
7.028177801874004038e-02
-1.416103155341882358e-01
-1.285754017757639311e-01
-2.972544487703297766e-02
-8.873312760783133579e-02
-1.960824871188407339e-03
9.140070052263633837e-02
-1.537572073755327229e-01
5.812459292573869674e-02
-1.211793300714326532e-01
-1.739170882932516982e-01
1.314368233157667092e-02
1.389890065833274124e-01
5.372796751440493679e-02
-1.745986266265016906e-01
1.749103771184490896e-01
4.594346183652882332e-02
-3.714644195285610739e-01
-8.966299572165467580e-02
-1.100156261569980864e-01
3.136368964448249530e-01
1.701386730798604974e-01
1.153342055336447070e-01
1.398341251613103020e-01
-1.741855920203687000e-02
4.212259359545652004e-01
-5.677191029075693944e-03
-8.566436373546242955e-04
1.031204749030224382e-01
2.461012666719523401e-01
-3.466281250541797254e-02
-1.800650484987047495e-01
2.346125292255757111e-01
-8.737568795529388269e-03
8.948046064791543089e-03
-2.536815777580759754e-03
7.034351114441851627e-02
1.441888687111445022e-01
-1.519807847450766747e-01
-1.831626719666097913e-01
1.147462871308096988e-01
-1.616442914698927313e-01
-3.407031495191374659e-02
-1.322380049030415228e-01
-1.563257600512918122e-01
3.702067254853123601e-01
-5.179771023645058509e-02
-5.280346643991801203e-02
-1.797571808972125706e-01
1.417581368410006093e-01
2.559667102922083895e-02
6.213891858223564296e-02
-2.492121728197254915e-01
1.106444200839473979e-01
8.973403258770636104e-02
-5.259875632825535691e-02
-4.114175986003816843e-01
-2.466751451510056925e-01
-2.917966613724934932e-01
-1.213950609255207425e-01
4.416307205567781419e-02
2.935711230252834036e-02
1.694114459768537861e-01
2.013211830600101504e-01
-1.903907959021091528e-02
1.560066152129097918e-02
1.264445814609991420e-02
2.530578609040976673e-02
1.539006869135624012e-01
1.134284959117706215e-01
-7.457068099491422075e-02
-3.141137833613334429e-01
-1.930328206038274264e-01
-5.731606598323557566e-02
-1.089168330585685712e-01
-3.441573189617989081e-01
1.259578088696491349e-01
-8.300141265165385251e-02
9.147834679491158305e-03
1.232151209617363546e-01
-3.531523002943829925e-01
-1.299451094345062951e-01
5.232214491044880761e-02
-2.618127651605229103e-02
-7.804379491285343140e-02
4.145146030526359465e-02
3.205875614113353200e-01
-1.018530375630926632e-01
3.001760540399609281e-02
1.389720655496640700e-01
6.745369122888104918e-02
-1.467242254094771881e-01
-5.141003519724898080e-02
4.818914276741313729e-02
1.438365203098830314e-01
-1.703649801567548583e-02
4.561446534464508318e-02
-8.177073160367975824e-03
3.381204647940932312e-02
1.830616835803446640e-01
1.017239001463159098e-01
-9.681550815411235633e-02
1.854592412248013134e-01
-6.867155991548085092e-02
-4.446077121292942719e-02
-3.534673510892683002e-02
9.642775736187367275e-02
-7.183424958036435659e-02
-1.088948212363728338e-02
8.262019360788699918e-02
-5.135494488777847186e-03
-1.172622371921477197e-01
4.265779606510366161e-03
2.245374446197704599e-01
1.722290058778698785e-01
1.197748542420162404e-01
1.386903673998786113e-01
-3.348614001278447105e-01
4.678890423464190929e-02
-3.312210552417217957e-01
4.597138832935045993e-01
-1.299215128820374598e-01
1.260809460817424177e-01
2.254591224827916934e-02
1.718343871188547645e-02
5.590316182739574202e-01
-1.456299064844706892e-01
7.952081134402977369e-02
-1.093928265922332888e-01
2.582870675183693288e-01
1.085593631582934260e-01
-7.466070929704415882e-02
8.293644625646139079e-02
1.842564429089141032e-01
-4.717385995615856059e-02
-3.299847036266905648e-02
-9.439693422297817937e-02
7.555204719538996527e-02
-1.885919123337891912e-01
-3.445609085214381140e-01
1.178392668823454170e-01
-1.788107901053166138e-01
1.650563714731917084e-02
-1.785676030729702324e-01
-2.415878158794182717e-01
1.203281033362191832e-01
-3.203098164227465849e-01
-2.538172717296782177e-01
-1.379668674516127957e-01
1.238455131477223803e-01
-8.165753371515738213e-02
-1.865029858728919562e-02
-9.250884093281504239e-02
6.186902850926614961e-02
8.386780520337570877e-02
-1.045655310780301862e-02
-9.721365929703248976e-02
-7.395338505401161111e-02
5.376178358856605055e-02
9.689370635122540598e-03
-2.298297184105169491e-02
-3.886189970707906727e-02
1.474464040982185753e-01
-1.228609069568816076e-01
-1.016100640760132963e-02
-1.924653730397773432e-01
7.652995261611045263e-02
2.743604795784704842e-01
9.731526876865223552e-02
-1.369805219944246200e-01
1.094963970568760617e-02
-3.059585555484357622e-01
1.339695775690184776e-01
1.378522816088751379e-01
-1.134251606354616249e-01
-2.339896172284686160e-02
9.502715158087934877e-02
7.516381310151014350e-02
-1.612069569407435787e-01
-1.246106306008747389e-01
-6.131472979250191663e-02
-3.619458413127794039e-01
1.941063138810651956e-01
-9.687795178584231517e-03
1.503017102696207474e-01
-1.292933355847765975e-01
5.268591200130391672e-02
-1.751561710933506252e-02
8.043433038388285439e-02
1.695020604083986027e-01
3.793649074461351994e-02
8.946764008342644736e-02
-3.286745915140541763e-02
1.208887807289829031e-01
1.649385462933039559e-01
-4.997348471555283778e-02
1.280010285174238704e-01
-5.385587388505109346e-02
3.664420014018225646e-02
-2.557646099166521747e-02
-1.591424604489196648e-01
-2.155208168872250196e-01
-1.659717349885064808e-01
-3.565205454439809157e-02
-2.878394857589027800e-01
8.846869108980374985e-02
2.054823528559696910e-01
-1.801328646439346037e-01
7.813007481663494791e-02
-1.899236659779273695e-01
3.261065869075464030e-01
-8.475248298950137371e-02
6.290897607534949153e-04
2.552047335632031122e-01
4.425581506843616342e-02
2.286431243238042088e-02
1.200088106962456797e-01
-3.352725671965076648e-01
3.268528671250064792e-03
1.543529794078562362e-02
2.340965736906473194e-01
7.196412578583789854e-02
2.314413893439456471e-01
-1.879892905913347137e-02
-9.287925925532378169e-02
2.648890413618000886e-02
-2.500758456504223459e-02
3.638978580599237789e-02
1.485197318576242723e-02
-1.027959994036660579e-01
-1.434576019846813544e-01
-6.051065242868226141e-02
1.738457560672748148e-01
2.703833865686271487e-01
1.577800429075935651e-01
-1.920416057219576644e-01
-1.691124492079272845e-01
-6.876652026503138337e-02
4.940065457948655120e-02
3.671096289913646643e-02
1.873509610713335050e-01
-1.368633759764216751e-01
-3.312237777447599174e-02
-7.708613923012029578e-02
1.987076562476194908e-02
-4.612836133549350071e-02
3.173688338563739053e-02
-1.120622072220922062e-02
9.286813652152338394e-02
1.089537336045639376e-01
1.110069167533304368e-01
1.801779715132186543e-01
-1.062084222679961915e-01
-1.573979767320210221e-01
3.383920970299054143e-01
1.125239518066591254e-01
-3.333221305411365742e-01
-4.098709399178079166e-02
1.940446229601682782e-01
1.174097066224727703e-01
-5.267778447596684066e-02
8.480727758035563890e-02
-3.362859706510460539e-02
-3.174204804794738145e-03
-4.515980092560994280e-02
-9.402952488482076154e-02
2.879023194492321136e-01
2.928915667859853800e-01
2.638112742209189898e-01
5.791978023950917348e-02
-1.356375846681227015e-01
1.597002215488856347e-01
5.503403485331053585e-02
-1.306788823890230045e-01
-1.315078489017091623e-01
-1.840079274592437975e-01
-4.108085674166885859e-01
-1.246082371665744454e-01
4.598704822731807668e-02
2.109916015567020187e-01
-1.772741166868323781e-01
-3.155941530369404946e-01
-6.826981333975828958e-02
-1.503730446828011602e-01
1.426021415462763731e-01
-5.601178602157980829e-02
6.032176244279422589e-02
-1.970374530029805893e-01
1.311745006295701177e-01
2.196413276145545435e-01
-1.534802336887138852e-01
-1.415079292005778644e-01
-2.125442966600069872e-01
4.473639207794815470e-02
1.484711849200199274e-01
-3.890842324065295343e-02
1.653349134680482391e-01
1.462120648920711696e-01
-4.182774206921201221e-02
9.340040986100427156e-02
-2.353988039059292520e-02
-3.817916386003325502e-02
-2.389805896703658949e-02
-1.024073035737950305e-01
-1.970261228002649981e-02
1.507920724755125730e-01
1.590232784834628155e-01
1.321794354543926429e-02
7.067493179597125752e-02
-1.698723333158833337e-01
2.883409311198286695e-01
4.173352252604425883e-02
5.616032875193338603e-02
1.154445932568839428e-01
1.402389627131655214e-01
-1.198968528744366047e-01
-1.904847210782699418e-02
-3.393057143339355264e-01
-1.699692218476124839e-01
-2.647622247684601748e-01
1.669933219025180604e-01
-1.307649519204855809e-02
-2.874279052775833843e-01
4.443413590999648749e-02
-4.328193217931434328e-02
-4.660657760973713204e-03
-1.152090563652536787e-01
3.379356074015335554e-02
4.636662571479735484e-02
1.107966291622509841e-01
4.261904810618257627e-02
8.900939581179875826e-02
1.150824028518398871e-02
-1.130583728283918593e-01
-2.275384792625358144e-01
-7.535270878213726209e-02
-9.714454319085680245e-02
-1.750237954194128753e-01
-1.970928507134967617e-02
-1.793100198022262726e-02
2.641227142172271058e-01
-3.044581179364873047e-01
-1.764379992901410621e-01
4.202407263669208359e-02
1.405502759194492690e-01
3.701965924628485699e-02
1.079147234338065781e-01
-2.142816699251247348e-01
1.076122131274718507e-01
9.191169436470228785e-03
1.138190224772265974e-01
-1.753181375344431969e-01
-2.263664961293674893e-01
-2.539010305423075042e-01
1.574932563565467625e-01
6.571316359987131039e-02
-1.008018896758038213e-01
-7.186948000294782202e-02
-4.346255711085249968e-02
1.885110141047977722e-02
-3.579670092262637326e-01
6.156743850156954495e-02
9.515572403843837457e-02
-2.001213524011151990e-01
-1.113352557490353972e-01
7.133936039112864433e-03
3.636885156197255942e-01
4.393497755141669361e-03
8.777263016656230987e-02
-5.259212413720231773e-03
-3.894102861459157027e-03
8.550133095321336973e-02
1.601260429632124851e-02
-1.208022620796224827e-01
-8.830842664277430143e-02
-2.047260839857061310e-01
-1.029588193373441180e-01
-1.209048808509583378e-01
-1.283066361885330520e-01
-1.746238773706050018e-01
-2.585647749865233602e-01
-4.413667402400295314e-01
9.476626355914366528e-02
1.743509511280178781e-01
4.337080961386143019e-02
1.856007032492553235e-02
1.839771650606612796e-01
-1.126654331256601443e-01
5.731245017575324618e-02
1.830889567954625541e-01
1.566115769603037070e-02
9.388183687590333226e-02
-4.250984083525938262e-02
-1.311961166459988115e-01
1.310070126381118194e-01
-1.802272715453802354e-01
-5.453770934269151771e-03
1.252985420543354100e-01
3.159043414006342670e-02
-7.084014645045960679e-02
3.332225631101448649e-02
-4.483993899615260070e-01
-1.993144445255501107e-01
4.176060191527618259e-02
2.334468339013346522e-02
1.849083810711536491e-01
2.101298977120298339e-01
-4.470535127015712318e-02
7.344391314625121556e-03
2.467911471415151423e-02
2.060877662146688716e-01
-5.704116649255478594e-02
9.312257009882475567e-02
4.089617209489881250e-02
-1.283275896062006233e-02
-1.669510378269818407e-01
1.849132183736693774e-02
-3.604570999831813172e-01
-1.477219665885813327e-01
-1.393512641962667102e-02
4.157408888236651667e-01
-1.893046026491923828e-01
-1.067840148030102937e-01
-3.845652852808086747e-02
-1.433769624194536629e-01
1.375421630915610038e-01
5.165564533170793893e-02
2.442287388090599518e-02
-1.392953856730521633e-01
-1.474040109237240714e-01
-7.076091905016650141e-02
-4.238343901622436535e-04
3.418856153008867360e-02
6.231040122788471247e-02
-1.088342900164881860e-01
-2.733571242800120205e-01
2.260303544803844364e-03
-1.002983718433557610e-02
8.633170471327740458e-02
-1.326520976771761728e-01
-4.720367295561660181e-02
-3.962421729335062204e-01
-1.539004772228938223e-01
4.035650811397889851e-03
-8.681347445854141476e-02
-2.522476600206194353e-01
-8.825146098513732273e-02
-2.518127515142364325e-01
1.192507833845518478e-01
-8.393159692312683606e-02
3.165914844852378302e-03
7.020962273720762759e-02
-3.193632758931341797e-01
8.203951142582603662e-02
3.919670540945733445e-02
8.410742840629617523e-02
-9.475901795221257362e-02
-1.433654651570700211e-01
2.164513422042765867e-01
4.056324403347765645e-02
-2.840468580865326831e-01
1.136217237717875445e-01
4.673873429457300194e-02
-8.052171338512413568e-02
-8.215336090517114109e-02
-1.474933878777384966e-01
1.493880215765634456e-01
1.631438735234782764e-02
-3.255271766502559894e-02
7.931640111386581427e-02
9.141447760752420548e-02
2.057894906187079098e-01
7.449939180344621048e-02
-1.532025205473906415e-01
4.477260100071978749e-02
-1.154958857698379776e-01
-7.633990104865601145e-02
-8.307558514021043394e-02
-1.438230370267060410e-01
7.357063265225555204e-02
-1.815734584101464377e-01
-3.186267929653174846e-01
1.536522364285449471e-01
-5.341527375858125259e-02
1.256332386784733690e-01
-1.210353322415273492e-01
2.187522207603845997e-02
-1.767214217967639223e-01
-8.562032591229255807e-02
3.440872576552149176e-01
-1.610616161817952641e-01
1.310610550237319982e-01
-1.064411972850658195e-01
-4.890287725657425748e-03
1.834597490347101290e-01
2.947571625829285141e-02
7.139432039550559772e-02
2.139105416494639644e-01
-1.264719269725283202e-01
8.431344721708242118e-03
-1.027884034367682470e-01
-2.278043262231686517e-01
-1.237287037529556932e-01
-7.644666573198896642e-02
5.150875845554288984e-02
7.705590024515919512e-02
1.720947418538016638e-01
9.442210801967501621e-02
2.978815164602577337e-01
-2.224705091570167714e-01
1.464156903472819959e-01
2.018642418424329010e-01
1.368084311143324960e-03
2.191314124889540138e-01
2.659964149614518769e-02
-2.014550372085371355e-01
4.182484034637002496e-02
-1.342342562384510052e-01
3.733441895195029059e-02
-1.945498012158842008e-02
1.997655800571697671e-01
1.855760476849531715e-01
3.872416130591322531e-02
-1.988995637608901093e-02
-1.654233691377154647e-01
-2.948779163840036799e-01
1.433339542705860115e-01
1.624924751966195027e-02
-1.346075769146627965e-01
-4.000240568251108297e-01
-1.158367981536604328e-02
-2.544855665067725925e-02
1.413602463234359813e-02
2.034211939624737120e-01
-2.327821226224200957e-01
-7.652906099479168944e-03
-3.691059534864422065e-01
-3.672314807110740181e-02
6.058375395717460754e-02
1.030418740596986127e-01
1.915231421031427794e-01
-1.767777398873071060e-01
-2.724385706737754431e-02
2.166678257050293557e-02
1.297645918397863085e-01
1.333786829943900132e-01
4.599228783860594832e-02
2.492143086331792459e-03
5.731983417936089426e-02
1.002894532770927799e-01
-7.926175395125278911e-02
-1.540635901287208120e-01
-1.289824861915531418e-01
1.132949623947822615e-01
4.089685752339825009e-02
5.366729971489417328e-03
-1.600597634793326507e-01
2.185344890178568533e-02
2.031952741973162280e-01
1.241913760070989109e-01
-4.402418177418159773e-01
2.198346807794608060e-01
-1.725505222738467348e-02
4.638966447170029400e-02
-1.460986613214189205e-02
-2.400171912487277792e-01
2.399995015992089920e-01
-8.990391961854819758e-02
-3.283721020871166463e-02
-3.336085702772038225e-02
1.754819387583003709e-01
9.464624450430024483e-02
2.178457830719343902e-01
8.200390750393264649e-02
1.762758495117556223e-01
-2.642160291498557578e-01
1.581999121621246451e-01
-2.570355910967091484e-01
-1.738390096973040366e-01
-2.772783475800302821e-02
8.913291088494941505e-02
-4.334899803470922408e-01
2.850267121420953509e-01
1.239283242647158945e-01
3.451998872992691203e-02
5.117694996658292417e-02
3.966588770774372857e-02
-2.576396134879331834e-01
-2.196886939278770712e-02
1.401981692490366915e-01
4.666271402237170962e-02
-1.614131767041465104e-01
3.833970222555295460e-02
-6.719955307282647616e-02
-1.573609634424722251e-02
-4.833873552656412637e-02
9.570761258193395682e-02
1.466493662419008637e-01
8.477670437246834223e-02
-1.523422226268990320e-01
-2.384425708417002576e-01
-2.868637006986248239e-01
-2.997810110113799942e-01
-1.506960734509505961e-01
-1.524075583013415891e-01
-7.405532189256158748e-02
2.888272697889339713e-01
-3.795973065249912820e-02
2.257979915089116940e-01
4.391708873057291462e-02
4.032462773530982592e-01
-5.979471915970062390e-02
-5.022061941661326578e-02
1.365401117395196873e-01
1.571751654591145853e-01
-2.254885222836557346e-01
6.926201318815113084e-02
-1.467782277916545586e-01
1.089272563116923942e-01
4.159671143118488790e-02
2.895300379021202297e-01
-6.723771860888658192e-02
2.484630531471446191e-02
1.000830413479595893e-01
-5.220493061026433568e-02
-6.422048652128820034e-02
-1.286709043974584854e-01
1.447491388928048295e-01
-5.210905655070634940e-03
-2.543116246321620033e-01
4.710862558128722788e-02
1.088954184046817264e-01
-3.962329574903913909e-02
2.539948323203992664e-01
-6.031567803462848515e-02
-2.160082567657544694e-01
-2.946579704652211307e-01
-8.097548062410560646e-03
1.985127743703929970e-01
3.250461978065136148e-01
3.445150139909529119e-01
-1.579144631623582429e-01
-6.870302573981197647e-03
5.651627966755990579e-02
1.578860102822128852e-01
-1.160542282990373597e-01
1.194291200187134055e-01
5.527126935590753742e-02
4.329573223981303398e-02
-3.920396533130884875e-02
1.179298185298718275e-03
-5.598075516399479701e-02
-4.261488937911719899e-01
-7.601115257266870262e-02
-2.189979494916977423e-02
-2.009452821580343940e-01
-2.743688238323265804e-01
4.757763565126008065e-02
5.416474914191881512e-02
-5.953970512692179778e-03
-1.814793968006964409e-01
1.410182274101716149e-01
-6.727408192724973479e-02
6.301233844956055652e-02
-2.132696184031887890e-02
-2.357530448859614380e-01
2.425162607440712603e-01
8.561520630218984185e-02
-1.368339752919935648e-01
1.481488514945373258e-01
-1.673012054693698014e-01
1.216690208800059736e-01
1.426930903334809875e-01
6.448865179716654905e-02
1.410158939328831629e-01
-1.883456505437113293e-01
2.369457770866267021e-01
-2.373668953586691166e-01
6.536288626352960984e-02
6.982492149957626737e-02
-1.406368401067519536e-01
-4.613274540580804967e-02
2.527345868886065605e-01
-1.985602947229547499e-01
-9.316397540369154850e-02
-1.501466491630799038e-01
1.792805067257271789e-01
-2.057374043265141617e-01
2.495593565651103851e-01
3.154826650138973787e-01
-2.166676856417116062e-02
-1.513931326871132965e-01
2.587824840067943777e-01
-1.079852036381292735e-01
1.691398857773257769e-01
-9.204084647025770338e-02
2.937571720797521047e-01
-6.186903576126704524e-02
-1.607233328425612326e-02
-2.103694865294017391e-02
1.593339539198227253e-02
-3.474858768481629001e-01
-3.135900681395256684e-01
3.701140621431791428e-02
2.222330664323918584e-02
-6.840488678036289738e-02
2.161051625741242932e-01
-6.692603099310642789e-02
2.187088506085463346e-02
-7.060948443914520645e-02
4.274927370320890097e-01
-1.249027735992487981e-01
-1.190360635034250075e-01
-6.236857429110691936e-02
-9.379699224579024497e-02
-9.543878578180202410e-02
1.571644708816261060e-01
-1.794102120700537817e-01
5.700407160053147515e-02
1.742777755957015257e-02
3.958100271671518566e-01
-1.715998788254166907e-01
7.437374843917789191e-02
5.647174012391829173e-02
-6.636266176495039804e-02
-2.289188725175141381e-01
1.801716680403155080e-01
2.880403874208994908e-02
-1.896078242237046463e-01
-2.079741540082854778e-01
-1.454842428406058763e-01
-6.785257269166464211e-02
-3.895816541440835085e-02
2.742967777185318923e-01
-1.619754885561756896e-01
-2.016053899350910561e-01
-2.309178422379014328e-01
-2.129741936013999637e-01
7.824932984423914328e-02
1.308358193099452005e-01
1.128838943416967527e-01
-2.070465494559990682e-02
2.090378357956005489e-03
-9.611656898669396210e-02
1.230558040861777364e-01
-1.568281741537663754e-01
1.032261903635834678e-02
3.029482924576881037e-02
1.155426359346640175e-01
9.853141073972003505e-02
1.569041113950321586e-01
-2.536254479865485134e-01
-1.556046234756471303e-01
1.364331750471235727e-02
-3.965822209542773508e-02
-1.973155534049420567e-01
-5.922886183881956312e-02
-5.948580142844994006e-02
1.539795680864014804e-01
-6.902201043198621933e-02
-3.829299378190190728e-01
3.894469464596384684e-02
-7.534398577330879421e-02
-3.481752663259667785e-02
1.471661403535030888e-01
-2.461835299559946011e-02
3.274825610936492049e-01
-1.728083113266371262e-01
2.090503751377609937e-02
1.615050321883983730e-01
-1.175190478614928508e-01
1.660914080930037118e-01
-3.324264522277107364e-02
-2.007743465333798258e-02
1.909914711002218546e-01
9.300301237672151111e-02
3.482957970534955039e-01
-3.369077189973010422e-01
-5.908123802925654977e-02
1.952620804336391291e-01
-3.577608525007364842e-02
-3.275132073164801483e-01
2.449613005310522507e-01
8.244395077598487553e-02
1.175224263316372586e-01
-1.392121999361007056e-01
1.027622480789188164e-01
-4.292653842358369887e-01
1.188008687418680258e-02
4.899941377953793975e-02
-1.440385050331704705e-02
-1.239846443897446859e-01
2.741838490510934978e-01
4.873723249407245495e-02
2.839660218817205983e-01
7.519842120409209185e-02
1.233848440042090988e-01
4.103793262497281574e-02
-6.838322130568702528e-03
-1.045584880251203136e-01
-1.866136967841007521e-01
-5.445260365233147715e-01
-1.417294365560527181e-01
2.630215166469600935e-02
4.677866171590065042e-02
-5.758307864091406769e-02
1.049005166099182540e-01
-2.971653829851993445e-01
1.967284527766937352e-01
-1.282435069162351227e-01
3.957565414714400709e-01
-1.760701664240212072e-01
1.993634807023539623e-01
-1.433172442525168684e-02
-1.521171582190206928e-01
-1.376774033601056157e-01
5.851248531302948724e-02
-1.272908969540346991e-01
1.400799648915269403e-02
1.691361805481649550e-01
3.703498208695216731e-01
-6.860493299061236339e-02
-2.722953465485659572e-02
2.165356085597149385e-02
-3.330958102622305628e-01
1.380548785414579538e-01
-1.172191310852426643e-01
-1.133406135187068784e-03
-3.728036295831295144e-01
-3.379829409454204736e-01
-2.098620951690717898e-02
1.918061373617588328e-02
5.345339300905300323e-02
4.107731399658440252e-01
-9.600127924247041367e-02
-2.722507559592893811e-01
-1.001687798581548661e-01
-5.266243550929070039e-02
2.773956787251875555e-01
2.325192257556044362e-01
4.259926571314491539e-02
-7.357125047394041939e-02
-1.510516216712929072e-01
-2.658502891448141781e-02
2.543598762661469781e-02
5.224702490331298473e-03
1.334147833872939004e-01
-1.189335569148702310e-01
1.475285600363050731e-01
-9.314337420039496551e-02
-1.545369558720920411e-01
3.347179076911629882e-03
-8.791650773013266751e-02
9.461735251130506952e-02
-1.058590952965416249e-01
3.496062999075371519e-02
-2.697736694041849015e-01
-1.646847548548106277e-01
5.882526429219891995e-02
-8.803580814331968263e-03
-2.440813598754738578e-01
7.590250253940597491e-02
-2.616518997938603319e-01
-5.395138441313794553e-02
1.062244938327094705e-02
-7.448341256397265908e-02
2.789559813672667365e-01
1.583862614906640098e-01
-1.450975869892954517e-01
2.505745942676545525e-04
-1.981086683938410586e-01
1.679770492455147923e-01
2.529032603543226454e-01
3.872098742864876070e-02
1.302254456344618117e-01
-1.136808738760289317e-01
1.936091675522580158e-01
-1.912678159487895546e-01
2.289399326320427919e-02
2.051505455543670142e-01
1.501911083541828951e-01
-3.493549549966370460e-01
2.783974280784794475e-01
1.700137903654337090e-01
-1.395522706173845662e-01
-8.362637581082846272e-02
1.134374800732050603e-01
-3.073979456740300598e-01
8.696857913939477769e-02
4.138970043854868497e-02
-3.815702043166940838e-02
-5.204350644614837151e-02
-9.133374366023242624e-03
9.493810386302989693e-03
2.912392751733177548e-02
6.538184314242402595e-02
1.929887495433321998e-01
2.659907634041903599e-02
-1.230543657373649180e-01
1.644956432234048749e-01
-2.436922004334975134e-02
-3.127203856539431670e-01
-3.164214442177921693e-01
1.878796213515546501e-02
-1.136589835939908338e-01
4.239451002317187744e-02
1.883759136695342395e-01
5.880777191381422048e-02
4.152728241058824959e-02
-5.096229874047613490e-02
2.511715208383627496e-01
-2.808036033692362099e-01
-1.646420012543270972e-01
1.383864556799613288e-02
9.822790453994076354e-02
-2.554243733570389363e-01
4.518305955388469963e-02
-3.613862100952668771e-02
-9.269944523004192138e-02
-1.013780255717354776e-03
1.906751541910330083e-01
-6.539277667052001419e-02
-3.948120660081106542e-02
-1.223627503915482168e-01
-8.736039328377215307e-02
-7.480761002547652028e-02
1.463704942355475991e-01
3.829819509677942144e-04
-6.396117480927314414e-02
-2.852325964214458831e-01
9.197841500502271228e-02
-7.272286817847292695e-02
2.364276435531388262e-02
3.815474689180427537e-01
-1.750388478973439743e-01
-3.487516168935654859e-01
-3.314356734856612752e-01
9.975651009681345271e-02
1.651512434955613728e-01
3.092864028377118046e-01
3.491686108261216059e-02
-3.206631121808481977e-01
-1.566759202814505536e-01
-4.216270760722869854e-02
1.232689310295914942e-01
-1.293286625310330340e-01
-1.078478181055818851e-02
-1.186490640199270447e-01
2.077354618277890974e-01
7.526401031746327019e-02
2.220751473125261444e-01
-3.103613004450049562e-02
-2.231358915765574158e-01
-5.532301003341532665e-03
-2.806767715527284657e-01
2.122757933150594967e-01
-3.325537658725074425e-02
-3.218589922213947047e-02
1.405598861905198171e-01
-3.175377718611828437e-02
-4.373358108546547829e-01
3.060632821892471100e-01
-2.165802456387950770e-01
-2.890390408403386777e-02
-1.255892809232999896e-01
-1.602256791022616811e-01
3.154833638729822032e-01
-1.117135090080100118e-01
2.287818168005275460e-02
3.740074391992631586e-02
-5.356291784831461456e-02
1.689114424585827223e-01
1.591009788598481134e-01
-8.031232192701359685e-02
5.925378260220172388e-02
-2.756512868600550226e-01
3.898466482869270000e-02
-1.856372253094162872e-01
3.409294495222079530e-02
2.683822583306213691e-02
-1.853148697567224001e-01
-2.092032199816776517e-01
2.356152257788564908e-01
-1.189673383427926195e-01
-2.594531746948909243e-02
4.053896964484209053e-02
2.131675581633869498e-01
-4.027386483549775797e-01
2.357070960374815227e-01
2.063956189722188084e-01
4.288083460360971391e-03
-1.749152070860389985e-01
1.235173544823483238e-01
-7.040286021954378359e-02
2.736146738046569063e-02
-3.491596468863780505e-04
2.049021838172955801e-01
2.008501094679480958e-01
-4.565262764556295844e-02
5.420954501708703105e-02
7.148203064175732979e-02
-5.355566054343438021e-01
-4.820848487387224823e-02
-4.781527625942934290e-02
-1.635583291256070271e-01
-2.030683954823428450e-01
1.367150362227058102e-01
-7.227869242085653567e-02
2.367180358163684939e-01
-9.275490984650851256e-02
4.342371668144150987e-01
-1.265921433988454955e-02
-1.222661551899565935e-01
-2.659049023102657075e-02
-1.399468746085481309e-02
-2.660803537732111534e-01
2.106664623682392434e-01
-8.730634906211755253e-02
-1.069025035562487513e-01
3.535481377593403113e-02
2.082333142297030093e-01
-7.027600355819245415e-02
5.186945969747176755e-02
-9.643860807018758696e-02
-1.412544545490341530e-01
-1.307161091819300514e-01
-1.404461296421472549e-01
-2.682390929126025059e-01
-4.440136430679453988e-02
-3.083395298357220482e-01
3.234892878607355943e-02
2.402460080288429042e-02
-1.311871763723321538e-01
3.635560435677901436e-01
-2.446569465067310600e-01
-1.571336874863352162e-01
-9.727902122121021011e-02
1.315271987858837033e-01
1.025950464739048829e-01
1.672646288054090158e-01
2.731671459514518063e-01
-4.238307506571007549e-02
-7.477928198299005347e-02
2.347294183230166920e-01
6.151368361649657557e-02
-2.264938670047489666e-01
2.355635404758453511e-01
4.840431940805133698e-02
2.005904810520162673e-01
-3.926840576069535321e-02
-5.755849955454276495e-02
-6.576026599253196984e-03
-2.887384863236069910e-01
1.859401180832646883e-02
5.704634201033040308e-02
2.094939126385006456e-01
-3.432860162553732497e-01
8.829268760262774102e-03
-9.243872063569504027e-02
4.167488296728231317e-02
-2.610025600702425286e-01
2.263156323761366384e-01
1.855813543233614596e-02
-9.998772747215908807e-02
-7.638434726481966100e-03
-3.010376970773924118e-02
2.221077231260475127e-01
-9.856669113433867702e-02
8.611208042834747611e-02
4.534880594838025525e-02
2.589984437340886632e-03
1.656597381679406067e-01
7.530629505376459920e-02
-2.172377823379448292e-01
-7.733632498506458341e-02
-1.242058672728192509e-01
2.596026057115338181e-01
-1.995457194139728940e-01
7.243830511807912431e-02
1.549421891015007047e-01
-2.052123719781441258e-01
-2.365234493497670731e-01
1.357362389706045780e-01
1.328135318381367669e-01
8.332372681725912222e-02
2.067917488594015266e-02
-2.783891867194749747e-03
-2.083778156349306021e-01
-1.299002624102525982e-01
-2.798811348666154289e-02
1.725763360927626625e-02
-1.732416051471389329e-01
1.004218624885906269e-01
2.467585037881882271e-02
1.040343375834238693e-01
5.742356825061374626e-02
2.566861416498518178e-01
3.181029109570759350e-01
9.245080215988309147e-02
-1.514289018408233045e-01
-1.802049405823276107e-01
-2.342058468743573041e-01
-2.199259508066241653e-01
-1.332692815117468288e-01
3.704271921731983053e-02
9.847970978577419432e-02
-1.412892681351307980e-02
-9.447315446739035227e-02
1.179347806986330849e-01
-1.147553613444231430e-01
5.164920345058705564e-01
-1.285622273509442470e-01
-9.897779397211702024e-02
2.154188301445447012e-02
2.179613326624284253e-01
-4.177054125421088004e-01
-1.288347914622384356e-02
-1.955657084036541149e-01
-1.048061291082470897e-01
-8.441457149439553220e-02
3.005761918650894926e-01
-1.404669751002531886e-01
1.126988845450285909e-01
1.509010330617396867e-01
-2.166655420332034079e-02
-1.023670479956487189e-01
-7.087353059321931104e-02
3.457725256840309819e-02
-1.885877105752779281e-01
-3.548641095755956099e-01
1.095340516224762792e-02
1.326183604849675846e-01
9.353970974762296567e-03
3.533794236164378155e-01
-2.748607892871458153e-02
-6.071785310559521531e-02
-1.869938189980739907e-01
1.486896340038442454e-01
1.592540121207363935e-01
8.061657373326550080e-02
1.694868912902168234e-01
-1.855606970462648220e-01
-6.205843758545316613e-02
-1.015747124289231723e-01
3.832284506137791785e-02
-4.002627380390716416e-02
-7.005627762452922014e-02
7.088155217065131297e-02
1.622962833971167140e-01
-1.229879788036518512e-01
-2.070883234105273807e-02
1.981205416897424687e-01
-4.015634968570440666e-01
-1.916528386569257836e-02
1.064251216472804351e-02
1.489017600715977496e-01
-2.380950513161964877e-01
5.638501498137336171e-02
1.537686518302990892e-02
2.009696324905220211e-01
-2.787915941001231079e-01
2.759400846862059553e-01
2.585774154044491735e-01
-6.987978197392831492e-02
1.399781910892477776e-01
-1.331508016506597891e-01
2.971592715087417735e-01
-6.298201556419860681e-02
-2.310034263153326883e-01
-1.240402483048465565e-01
-1.962200240231267920e-03
3.433842476921263875e-01
1.923792555516141145e-01
-3.090264270305191352e-01
2.867335395403781684e-01
-2.084596094348589168e-01
2.498854978748530631e-01
-3.671783734285011258e-01
1.391480493592759660e-01
5.423359555367644746e-02
1.238581467371474149e-01
-2.078695365006344442e-01
1.574379053002201156e-01
7.208999501578222668e-02
-6.762649085556221573e-02
-3.165873284254817899e-02
1.490153913249351869e-01
-1.731882571712040908e-01
2.183011405442756014e-01
2.353826834829661763e-01
5.881101937830936904e-02
-1.753674932622769148e-02
-2.216463002260687237e-02
1.931128359074616996e-01
2.561114409184061524e-01
-4.985978066325417318e-02
3.782501290295676721e-01
-3.514858173710096872e-02
1.096691447824834215e-01
1.890886444083244855e-01
9.402931792660153276e-02
-2.672717534003825057e-01
-2.195023704473005322e-01
3.687446752630150343e-02
-1.412795317609110979e-01
7.916916297673749769e-02
3.124779305290646403e-01
-1.760851023562994347e-02
8.912617438920622526e-02
-1.623636420075013909e-01
5.218489577334166629e-01
-9.094819424811682873e-02
7.418147591812326858e-02
1.748311358997164666e-01
-2.654360302788437431e-02
-3.485616756806442229e-01
1.774950469456417490e-01
-6.371350180298469834e-02
8.892083619771878195e-03
-9.520415673732302020e-02
3.082897386324974232e-01
1.584790197567160497e-01
-4.037145773653745551e-02
4.853149661514570556e-02
-1.009890875054567233e-01
-7.656864077399101742e-02
1.465943518652406113e-03
-1.113492070735821460e-01
-1.995074213561816023e-01
-7.023755676164064599e-02
-1.259626922630471269e-01
-8.026649194139544308e-02
6.593694916272649365e-02
2.817571898773217343e-01
-1.576290531401759176e-01
7.908018295297954137e-02
-2.197956445817143278e-01
6.740418792844346529e-02
1.536059686160718696e-01
1.964472176846913665e-01
2.333854187915014311e-01
-1.678857791315823689e-01
-1.114261103129337849e-01
-1.205894424497332279e-01
-6.001659338359199153e-02
-1.890131771420038020e-01
1.849941530634528070e-02
2.960471679316984892e-02
1.840949827353817458e-01
2.819420418905681514e-01
-1.063951589404528442e-01
-1.538138629998110074e-01
-2.858898498926362164e-01
4.890784374523920314e-02
-3.417542224135988044e-02
1.901926236276861581e-02
-4.673914262165333733e-02
1.870917774963493097e-01
-1.872269124326959022e-01
-9.818278941833066820e-02
-3.743903053025540717e-01
1.412814040205362387e-01
1.265862609331995514e-01
-1.099584102289195009e-01
1.108898462281373287e-01
-6.519526202210076948e-02
2.480386651725108860e-01
1.536739462423257485e-01
-6.992549844704841477e-02
-7.067393020879998711e-02
-7.992410904140351269e-02
1.408949129055513672e-01
1.480539507599092780e-02
-1.643011465280442007e-01
2.914170636593744756e-01
-9.396778660475541001e-02
1.748687621493600630e-01
-2.911729059468348146e-01
-5.961958090717155850e-02
1.672162385127961420e-02
-1.284250706420000110e-01
-1.729300155663593130e-01
2.191995486703004758e-01
1.765862070464890299e-01
2.018520942575720567e-01
-2.582013854770243144e-01
-5.009508197346533402e-03
-7.518337332832607245e-02
7.335093848650939274e-02
2.137790458238811309e-01
-2.542738311919253147e-01
-1.517132226437118148e-01
2.394303402310271056e-01
1.768824175772029106e-01
-2.330031354658701481e-02
-9.737274654207644931e-02
4.739439972393401090e-01
8.014155176564458083e-02
-2.633357562046438338e-01
6.928826102036152006e-04
1.746572418940527394e-01
-1.091348842747630055e-01
-3.408750121113182652e-01
2.074666389542281428e-02
2.003985422238015179e-02
1.732614533639173504e-01
2.119363336075686111e-01
-1.107182070078133185e-02
3.217291359392952521e-01
-8.896094394760706292e-02
3.179845854246877712e-01
-1.017761832191107912e-01
7.842225492389806596e-02
1.044853905541042599e-02
-5.355256871286648984e-02
-2.200831849252890271e-01
1.893227882368522519e-01
-2.799625233559366877e-01
-4.450074079536341792e-02
-1.325422022108520836e-01
4.668356996891316890e-01
-9.712852304906074985e-02
-4.477584883171229629e-02
2.540206241242572854e-02
-5.937635482622211081e-02
1.639197984439178662e-02
-1.451610172165329615e-01
-1.519277971295241447e-01
-3.632044928442109133e-01
-1.074296093271226438e-01
1.551402678501691279e-01
-1.135239439248826310e-01
3.753962650476924678e-02
2.057317082549231790e-01
-1.238085498080204461e-01
-2.753249578355296268e-02
-8.468769378572997553e-02
-1.033399141136335520e-01
-4.200253412154629495e-02
2.649103243694203025e-01
2.745866734885908933e-01
4.350794483507679222e-02
-7.563806565474968935e-02
-9.704410395109007437e-02
-7.882138683503284171e-02
-9.262792567066187310e-02
1.264289799731226904e-01
6.469590644976047633e-02
8.871105147493048293e-02
9.395481955352449899e-02
7.610537650757880426e-03
1.284542230061831436e-01
-3.914308558573305619e-01
-8.618285663536710828e-02
-3.114479667853324932e-02
8.299141011328801942e-03
-1.896901456097970506e-01
1.610751877682633712e-02
2.105437798032989277e-02
9.341661135999494020e-03
-3.147687443034063448e-01
1.927853628626891580e-01
2.016707107915093403e-02
-2.838894924020856844e-02
-1.740075923809459024e-01
-2.443664646192204304e-01
3.514073926489884037e-01
-1.601892059496292601e-03
2.288682974522255331e-01
7.117114339079516627e-02
-8.653603829639724965e-02
-9.687121029543239309e-03
1.435381221132341623e-01
-1.048438776148604284e-01
2.094796412225349014e-01
-1.136039796769855587e-01
3.567645579858918503e-01
-3.577735026352862335e-01
1.770779717197374648e-01
-3.400543260140098667e-02
3.220491049684114700e-03
-2.773486618818823413e-01
3.380727167103234065e-01
8.509901845344779170e-02
1.810915374308073172e-02
8.339575624247774766e-02
5.558767507735296737e-02
-2.043454784614296971e-01
1.576356753656867754e-02
5.398690092241945765e-02
-1.259908489685716559e-01
-1.373962245187611564e-01
3.594442988117007437e-02
2.940452421862125784e-02
2.222194723486117796e-01
-3.919187620684788653e-02
2.503983320980128768e-01
9.983068589836492646e-02
-1.538448881208009378e-01
1.130380862264280251e-01
1.682831328370717194e-01
-2.257108953559399112e-01
-3.131959286688065780e-01
-4.186196273585297833e-02
-1.594837279492818420e-03
1.811071640150032636e-01
2.588199629988351402e-01
-2.620111637348594702e-02
3.139579452993848108e-01
3.497470890724643788e-02
1.854279482418548786e-01
-5.424305445051873925e-02
4.156535075268021767e-02
1.397690920381177981e-01
5.109506116329098208e-02
-2.635183841596502319e-01
9.488088788815750296e-02
-2.611314306637800842e-01
-1.220975288309719547e-01
-4.657252496607496017e-02
1.615298377594710788e-01
-2.065448133969452760e-01
3.448136981822124553e-02
-2.096978946853077924e-02
2.705798476924384461e-04
-1.355585507514674992e-01
-1.850860811590140931e-02
-3.919576277982723955e-02
-3.352056697220868187e-01
-3.110062182056154145e-01
1.454326251647801160e-01
-1.660409300401032018e-01
-4.640631005431861134e-02
3.133059610106032622e-01
-1.078705699205815410e-01
-2.513850688511298226e-01
-6.073373246266736136e-02
-4.914339636681899250e-03
1.422488613822906756e-01
2.670188743426198386e-01
4.293686209077110516e-02
8.183116679646652847e-02
-1.031714744866994160e-01
3.318320613070755570e-02
-1.629742741146470164e-01
-1.376308091896282504e-01
-4.303760286409909208e-02
6.443932613993454128e-02
1.834185889088817412e-01
3.466786223610762024e-02
-6.925323273435264604e-02
-8.789457433646136186e-02
-9.153100497337866848e-02
-1.632275143428182640e-01
-5.377250118225626596e-02
5.236058246214602557e-02
-1.187558553553659108e-01
-1.211717475124660381e-01
-1.241075844509495485e-01
-1.333490457401965978e-01
5.383182060387287429e-03
1.684985760491549550e-02
-1.830766564598950430e-01
-1.114844267978646886e-01
2.528415147124837281e-01
-2.588042966152634058e-02
2.447849632523237118e-01
-1.273233539347400911e-01
2.130084075437976288e-01
-1.281465422783909479e-02
-4.521775433204563294e-02
-1.011709869468896544e-01
1.126506715251606415e-02
-7.061011664103535035e-02
2.402245635336918220e-02
-1.676229344361105100e-01
3.544495391424758429e-04
-3.077024395482280683e-01
6.873782005104356330e-02
6.304779811975852466e-02
-5.548955655566358697e-02
5.587534133850385540e-03
3.999512748741974044e-01
1.038486273436746432e-01
2.781492774976171770e-02
-9.669850796403088589e-02
1.726334787891190548e-01
-2.093075530785134530e-01
-1.115720407074189367e-02
1.211933280320874884e-01
-4.985182251552163629e-02
-2.401513349842548106e-01
2.206960185441856070e-01
-3.187418432024427539e-03
1.022271665306944029e-02
-1.076294501647766938e-01
2.709372443965287758e-01
1.470774683070256716e-01
-2.501342732859540216e-02
2.131615071597128541e-01
9.418047571573651133e-02
-5.335032238388066617e-01
-1.063410937374900112e-01
6.308905145540380510e-02
4.882982437053546426e-02
5.982981621010834139e-02
2.359457640570027659e-01
-5.785192850974563150e-02
3.196162214964564097e-01
-8.551162364882677891e-02
3.828401491230991605e-01
-1.677602507237476170e-01
5.097163414548489327e-03
-2.244441202339287483e-02
1.067908929014191877e-01
-1.496193639014928578e-01
2.237590613330369405e-01
-2.040727251428938183e-01
-1.743669914902637452e-01
2.307428102135902423e-02
4.281126770340216714e-01
2.005959180817457402e-02
-1.106647393054912137e-01
7.635575521451876818e-03
3.082924192019375828e-02
-1.049752546967833806e-03
-7.615095171288112363e-02
8.907911005263020182e-03
-1.527667296481546311e-01
-9.549610270830324876e-02
9.717175679808169597e-02
3.210074163579729745e-01
-4.730077417569014675e-02
3.181101158243915816e-01
-1.321384605903457299e-01
-1.593446312936524500e-01
5.694373436352279799e-02
-4.529651892999380161e-03
4.502085029638420305e-02
-2.007473795887091891e-02
2.111241541537190181e-01
-2.121478216144118967e-01
-1.370142333252678812e-01
-2.975447399031617146e-01
3.729360726814597796e-03
5.330552516169767552e-02
9.980488757854059922e-02
-1.735459414485420460e-01
1.807424186321544002e-01
1.422388228209677252e-01
-6.273858146736195629e-02
-1.744334600057289783e-02
-9.969516454939668371e-02
-1.094629695739212927e-01
-2.929086301469456810e-01
-1.320662764367049880e-01
-3.164523886772986905e-01
-1.426190087453596267e-01
1.638365840901960871e-02
1.090421165649837765e-01
-1.063356400346665565e-01
2.112384984754949596e-02
1.804331836149564439e-01
-1.268595763392328657e-02
-4.331326624302613698e-02
-9.142183059151287594e-02
9.597037769590843759e-02
-1.020113838889364910e-01
9.482527754534189612e-02
5.266058396714846240e-02
-5.435302071668009910e-02
-2.155237901319646543e-01
1.043072421322662618e-01
-2.007383493960373383e-02
1.269498657404171116e-01
-2.315212661128249194e-01
3.906100600352115371e-01
-3.286007629407679542e-01
-1.851932012416376561e-01
2.022236001391833904e-01
2.940662919105223056e-03
-2.000832472165521569e-01
2.291640631456519916e-01
9.663960621112816646e-03
1.257961381504132392e-01
1.058064201152033035e-01
5.334572483248212205e-02
-2.202801070119840832e-01
7.609204184413879968e-02
2.271457203605123931e-01
1.007503766650119925e-01
-1.442864326881517778e-01
3.192806249177748135e-01
1.253043312621931159e-02
2.737840554098647239e-01
-2.488227652521239272e-02
2.553156489147456187e-01
2.357661817714526709e-01
-1.660338888518664846e-01
2.365424249214962693e-01
2.232667939817128411e-01
-2.225787999616825608e-01
3.815538982523191541e-02
4.717809166645858809e-02
-1.602268075963790284e-01
-3.920675278955138010e-02
2.796062052141903842e-01
5.400122172858582738e-03
9.283057930048987938e-02
-2.434575661968199634e-02
1.515013128359968542e-01
7.659331084386354627e-02
1.568744002505101376e-01
-1.226769241273439337e-01
-2.011728038998100432e-01
-1.886186661714523705e-01
2.169226591445448105e-01
-1.033902052200054572e-01
-1.196082641237142252e-01
-1.214619941401387168e-02
1.874258896968229449e-01
2.445804710483091837e-02
1.926119007631974522e-01
-4.327459617058892344e-02
-8.748913642428712834e-02
-6.854044709808952696e-02
2.311650479377727954e-02
-2.865729028410284318e-01
-1.438587449691979270e-01
-6.643495604158507206e-02
4.716643910489033004e-02
3.820649703247794293e-02
-3.995460306351341501e-02
2.789104791577421416e-01
3.603136077524751041e-02
5.895521238570988060e-02
-1.660117348930466030e-01
-1.520275568330286819e-01
8.941359251834543609e-02
3.038177650726543444e-01
2.095140172448276550e-01
-3.814031829260460804e-01
6.116937894290093436e-02
-1.059360390195887291e-01
1.888509906805377336e-01
-8.146456424446865685e-02
5.852516767310220192e-02
-2.083736344899730919e-02
8.809017094321969221e-03
2.124608787675514865e-01
-2.390749567971068301e-01
-8.477421481573246820e-02
-4.086345259974459299e-01
-5.302726492485999171e-02
-1.204661839693834530e-02
-2.032892958705075082e-01
-3.197438883520111741e-01
-7.245955359326879119e-02
-2.241686683381416412e-01
7.020478963966882147e-02
-4.980030642715436162e-01
5.426847481350000058e-02
1.531163527418358816e-01
-7.563709682694245984e-02
1.641528843965243678e-01
-7.168585756845786972e-02
1.656687816759100096e-01
1.139290482011608707e-01
3.006586255756738338e-02
2.465766865663337332e-02
5.208302074171458629e-02
9.542278124048568511e-02
9.631052343947642258e-02
1.509051337269570470e-01
3.266341947236456877e-01
1.202260416533269399e-01
1.029971217581725079e-01
-1.801745858692795355e-01
-6.598281422965332488e-02
1.410366154830922647e-01
1.445400325106391826e-01
3.744453627074337265e-02
1.962608375212026857e-01
1.362740230966613675e-01
-2.584022695781638609e-02
3.375803245952531395e-02
1.011965917071008247e-01
-9.745550915920232760e-02
5.810378048444919674e-02
1.189595545855575698e-01
1.002497613685321837e-01
-2.505957853023912593e-02
1.447317011253942409e-01
-6.784287312268130754e-02
1.169445698253264582e-01
-9.208236663553458212e-02
3.951961927791738938e-01
8.042854139657831802e-02
-9.656530788298949008e-02
-4.871926702165389061e-02
2.288518163732477517e-01
-3.814038710505558427e-01
-1.584085981468746629e-01
1.909620827615964300e-01
3.598932083391082754e-02
4.187458981712388617e-02
3.379616912739413226e-01
-2.454283743566981063e-02
2.179106489182370265e-01
1.085949941846302454e-02
-1.974786812108460937e-02
-3.478556178197840867e-03
2.034301886136841153e-01
7.443522556507004007e-02
1.191888022391924401e-01
4.483796783775937343e-03
3.454348474716792960e-01
-3.328893962782372706e-01
-3.772339402177606049e-02
1.395698680169853612e-04
2.761880509764271796e-01
-2.171421535144171522e-01
1.425472424962090090e-01
-1.792393585727807687e-02
-2.939227918374831550e-01
6.138854903745889074e-02
-1.413526745497132864e-01
-2.529160698391476059e-01
-1.113982112036649985e-01
-8.758587291360200866e-02
9.665465032629751152e-02
-3.119839606224956638e-02
-1.119477876954462076e-01
2.085588226515635024e-01
-1.906110288496053184e-01
3.987203260589908260e-02
-4.021685292961445918e-02
1.157839327001299323e-01
5.013999340292759482e-02
1.589776936322705725e-01
2.611054620561296669e-01
-5.375398173990625361e-02
-7.125790052820962783e-02
8.814502472347435572e-03
8.835575585964640377e-02
-9.966383399660831699e-02
1.435185944056781467e-02
2.086492074149560449e-01
1.785170426412636679e-01
4.346935668640611317e-02
-1.346632954831543660e-01
-3.711586998090875972e-02
-9.610947433641378601e-02
-3.117082690337532117e-03
-3.534026680450507579e-02
3.281722578994110129e-01
-2.217659359727544577e-01
-2.672972743911823934e-01
1.085261144287187202e-01
4.921327093914049100e-02
-1.767443188007645494e-01
-6.385431205174532318e-03
1.116673633135347593e-01
-2.282007152014038642e-01
-3.602201670210634227e-02
-5.753333539123055285e-02
-1.619803198255541365e-01
-6.783354508993648391e-02
5.850242132296871317e-02
2.186856450659351581e-01
-1.906683545408829616e-01
2.389020388566387987e-01
9.332999722034135415e-02
-2.966643925022030906e-02
1.950041750828011011e-01
-3.154254988228988310e-01
3.282957102876472577e-01
-2.665144962304259457e-01
6.093447418838553176e-02
1.722789843029842449e-01
-2.156669117307041805e-01
-1.451849035369636998e-01
2.526209145233780373e-01
4.145676290818993415e-02
6.755689104689423241e-02
9.592486094138520658e-02
1.889484325783483826e-02
-1.520365854472734424e-01
1.027118422208410375e-01
2.189581615250829616e-01
-6.422253438520486579e-02
-1.952564481136235541e-01
5.204929691811360781e-02
-1.496397246594040609e-01
1.063806216050914993e-01
-1.133432434499079267e-01
1.599504951144377074e-01
7.622507517580398573e-02
-6.928575813833237097e-03
1.786638166721715992e-01
5.204182307663057089e-02
-3.236864193083956454e-01
-1.892550201676513055e-01
-2.194990219991135860e-01
-1.614934908717840234e-01
1.632024948267432954e-02
1.055173219225764292e-01
-5.620817199562231498e-02
2.327129100330199013e-02
3.313597826418356734e-02
1.592603406863152826e-01
-3.945789578704846784e-02
-2.713407834899509222e-02
-2.161538979385276005e-01
-1.546753266005030381e-01
2.197866603571313124e-02
2.447704624028532450e-01
-2.091018431517091825e-01
-1.015583004440736153e-01
-8.935958751947305212e-02
2.302123206088366458e-01
-2.187527386011763331e-01
-1.464461964662736870e-01
1.546842108935018723e-01
-1.464477296326290312e-01
2.149450377891492514e-01
5.892157630738263999e-03
-1.262972862678794217e-01
-3.234521288906547776e-01
-3.526143776706939376e-02
3.114524458604243096e-01
-2.168111135730031377e-02
1.022314576920730841e-02
9.569169048132319944e-02
-5.000490731149839080e-02
-7.607950630975943151e-02
-1.309331694465798723e-01
8.090913791818666115e-03
-1.248592477252120740e-02
8.917280040631248017e-02
9.225115049508088305e-02
-8.754052939791238941e-02
-9.179632628731805577e-02
-1.783875903709433025e-02
-9.946961991147411364e-02
3.706640603945344364e-02
-9.140707693684993473e-02
-1.048420225489516827e-01
-1.071408328674806204e-02
4.125023307838027176e-02
8.212687484418212946e-02
1.530884727538770786e-02
-3.150711051125995033e-01
2.072003431046054792e-02
-7.150280142338580336e-02
-8.454209217550032185e-02
-2.418830818525388171e-01
-1.557913547322824221e-01
-3.783574871978077903e-02
1.205641333257432835e-01
-2.409035882786206006e-01
-2.372898855516735253e-02
-4.790142349741553091e-02
-1.802988627245361020e-01
-6.414969874819684281e-02
-1.264068078270457751e-01
2.065720344766108774e-02
2.002059803511744285e-01
-4.060826822017738619e-02
-1.188742011143882615e-01
9.723619739965960740e-02
-2.717294961377038076e-01
5.651565248489466564e-02
-8.773075756495166827e-03
1.615895121193167139e-01
-1.062156055661074017e-01
1.614347514909109660e-01
-3.545070864289128210e-01
5.054478693291883373e-03
4.651196424570067101e-02
8.812713682943425220e-02
-2.679208442091046694e-01
3.368407612479744073e-01
3.910907037514512602e-02
4.849858019934554648e-02
-1.687089051479386537e-01
-6.791785497028351992e-02
-1.318782161902491978e-01
-2.332897451536582872e-02
1.769227526032189635e-01
-9.685716571450818380e-02
-1.272976663411160003e-01
5.470493261129463075e-02
1.823252470947271942e-01
1.088887734097429144e-01
-1.401086310801890333e-01
7.516561664759689732e-02
2.058910282768535438e-01
-1.381284114047908462e-01
1.972174581089999879e-01
1.540773152720815442e-01
-6.097671931482435692e-01
-4.418186532083167445e-02
6.851856915011897767e-03
-1.644796360765307316e-02
1.370202812474815846e-01
2.374631462443619889e-01
-1.050341234194381856e-01
6.267961849080345982e-02
-1.070139551503011960e-01
2.361833324770183096e-01
-1.777958526110864634e-01
5.129447390639154530e-02
1.231891513677784294e-01
6.352768682778495157e-02
-2.334744089836592873e-01
-1.571157441079540015e-02
2.846228503684865643e-02
-1.880657645456491195e-02
-1.212971992953512795e-01
2.284926992419427372e-01
-1.800843535080401125e-01
1.138880836947234881e-02
4.232739508281467555e-02
-9.845109123496875378e-03
-2.332020583819817139e-01
-9.443154975666301354e-02
-1.885127352918589683e-01
-1.944715016609400160e-01
-2.769516915080786901e-01
-6.861196895324539469e-02
2.970518339442235894e-02
2.201961553108003622e-01
2.647653619924640878e-01
-1.600165087484329771e-02
4.314656754429693764e-02
-1.650568640640888707e-01
3.280813498782316623e-02
-9.042996690819232741e-02
2.316738698666970797e-01
2.219197986126137667e-01
-3.400863480505431080e-02
5.716107162359780614e-02
6.097911539762581462e-02
-6.050968009608551079e-02
-2.479431469415158407e-01
6.576270786677811120e-02
-1.024185112415829935e-01
5.535881390782371875e-02
5.060723365651227657e-02
-1.889380359130661824e-01
7.936598261441102364e-02
-3.585122308011067793e-01
-1.037402299680538903e-01
1.126709070202520091e-01
-4.524464678359220449e-02
5.724360024155526749e-02
-1.577667455675131336e-01
-1.632161812014674696e-01
2.522041918479585587e-01
-1.625277127054952642e-01
-2.544312439342774970e-02
7.660492913686919869e-02
1.646068436323606665e-01
-2.653505762916242086e-02
-1.239016280856024277e-01
5.605731173158506886e-02
-8.304228789170685354e-02
-1.850022747704482828e-02
4.367050598499401526e-02
9.142408233379080429e-02
