8.112716492648660571e-01
8.882318607371956221e-01
-1.259417489277514790e-01
5.715040000290573241e-01
3.405310334446861459e-02
4.175031935824478624e-01
-1.282270717599527307e-02
5.437324895705451105e-02
-1.118745444174799264e+00
5.391085417175713879e-01
1.725740359004570568e+00
-1.029300082255961424e-01
-4.029227696928514707e-02
-7.593001701855259800e-01
-9.033387488946079125e-02
-1.422732399051656937e+00
-3.240514470934620639e-01
9.918228306746218470e-02
3.044810225656315872e-01
7.690040044720244383e-01
1.742875811797611474e-01
1.322757226122356355e-01
-1.201179529503666327e-01
-3.479022072594167292e-01
-1.611528703374977625e-02
-2.348413451258681839e-01
8.956012761218379303e-01
-3.536857594295282348e-01
1.221877169527406437e+00
4.696406197170417407e-01
3.718632783378522655e-01
-1.203098220215291225e-01
-1.757071465030972668e-01
4.102878065254405571e-01
4.543506263862349126e-01
4.315706515289883249e-01
-2.292185057144260907e-01
9.775051724846778312e-02
-4.860412749855431147e-01
2.065399241630399285e-01
1.668239715293434455e-01
6.153286304125608376e-03
1.268416736588284244e-01
-2.101846324190315696e-01
4.999423373615190236e-02
-2.329138806815272689e-01
2.403412707559528239e-01
1.830590091734168520e-02
-1.004765291305590585e-01
4.605815930927787960e-01
6.191074362391316838e-02
-1.697924621181048643e-01
-2.901083321135201620e-01
9.554734124467213763e-02
-4.683899157673692137e-01
-3.998865935060236243e-01
9.923902686372197968e-01
-2.226965434668167279e-02
3.719896346666275999e-01
1.369725928594126285e-01
4.808356748756955623e-01
4.264959689491660266e-01
-1.371123922901746894e-01
1.523433963637769450e-01
-2.038122889543432792e-01
1.981323661937660074e-01
-4.605726173906024568e-02
-2.150520971045294660e-01
-2.419437454857203684e-01
4.833983967785230318e-01
5.717377379985021379e-01
9.248931898588082234e-02
3.668966819345154673e-01
-6.035122839555816521e-01
6.882567599088122712e-02
-4.717717488659227687e-01
-3.890033358924697288e-02
-6.950006399367866794e-02
-1.955951391579312248e-01
3.235587469765951463e-01
-1.286244317915496982e-01
-1.289988576390231345e-01
2.127165179442907020e-02
2.484823593049405033e-01
1.310770943934458088e-01
-1.923699026543027879e-01
3.800058473647884294e-01
-1.318338856094099232e-01
7.756220279201196943e-01
4.126009775557401005e-01
4.517647464297103177e-01
5.833055553064007137e-01
1.742889273142315398e-01
-1.026920456466292320e-01
-8.512133408882895103e-02
1.326896455646039974e-01
2.597409862741960687e-02
-1.504085933268095310e-01
-1.690714824506517888e-01
-7.708865861512935458e-02
2.580142585112068510e-01
-1.170514683501683861e-01
-5.631308481402949595e-02
-4.994131594379735972e-01
-2.659839592338619774e-01
-2.379355054007928627e-01
2.540369710671047665e-01
-1.268443788674881167e-01
4.024444509937529640e-02
2.011537878551678815e-01
-1.306088904343205848e-01
-3.245788249270656345e-01
-7.204754093668584713e-02
1.453853873908466654e-01
-1.642386494406146979e-01
3.821174073038297730e-02
8.060343016459680099e-01
-3.060748299175625187e-01
2.646807375771118576e-01
2.884134809539321345e-02
4.221521180273695162e-01
1.686779562565763058e-01
2.103654222679221253e-01
5.042189890627579718e-01
-2.524041657415874718e-01
1.302008014975145067e-01
-1.827344916987284629e-01
5.365950402464047392e-02
-1.201196277083145941e-01
-1.343187310001245915e-01
4.363465096691743761e-01
2.357503690411523189e-01
2.549913645708647980e-01
-5.441311970274534948e-01
-1.131336628074708778e-01
-7.741977664853978425e-01
-2.181748060172457593e-01
-5.857868332764966639e-04
-1.813711908564238084e-01
4.203296346529942773e-01
1.642438191444867829e-02
1.393649142018261455e-01
1.206461042770717584e-01
3.773179315330432021e-02
4.757098554150768904e-02
-4.109403037203275266e-01
5.148765592881787700e-02
-2.531455364718787626e-01
5.893679645479694695e-01
-9.375854462113150656e-02
2.347942240153500226e-01
4.798961450443959276e-01
4.878430711234675587e-02
2.812102890804755728e-01
-1.598625446798621064e-01
2.830695808970709604e-01
-3.937809771264359771e-02
-2.093830378527734848e-01
-8.891100583086787579e-02
2.616577333264379912e-01
-6.767604811294236633e-02
1.446666905752527488e-01
2.368670153581223237e-01
-1.328029821162237667e-01
9.183778998210755107e-02
-3.675676242405684913e-01
2.319142029366405913e-02
2.550566161105100593e-01
1.031459452789583314e-01
5.262247645491718862e-01
5.799464750349703213e-02
-1.823512911689085525e-01
-5.958462179442911705e-02
-1.471590914106185033e-01
-3.269174038766144846e-02
-1.509592975803673298e-01
6.953596339405720972e-01
7.655574160307227621e-03
8.437063015327110893e-01
-9.074557875771087356e-02
4.853796935349767860e-01
3.427349894690212562e-01
-2.415325341596004927e-01
2.857425901345558850e-01
-9.471781280861296670e-02
-2.494511023633281255e-01
-1.384393242084710485e-01
-5.595065008463940247e-03
-8.173989353407566660e-03
1.902918255561324434e-01
5.715054768444544075e-01
-1.823487103104680651e-01
2.119676649188113049e-01
-6.100673823645542670e-01
2.726557702795293081e-01
-4.349007349239246145e-01
2.818309428432265173e-01
-2.509956609437244759e-02
-2.720265641549766689e-01
2.554440034883018740e-01
8.076951395023397595e-02
2.489653778049863153e-01
-6.514425713076658908e-02
1.993998988237283970e-02
1.065661514579829133e-01
-3.351948667687509875e-01
3.325346175900426582e-01
-1.109697770855994775e-01
9.163628219158221899e-01
-4.809878455822039212e-01
4.113818594521310157e-01
1.136095570945497985e-02
-1.254023949459284470e-01
1.815868314654084659e-01
1.075790097361997849e-01
5.016970710362279595e-01
1.517785898826562174e-01
-1.437805223105589891e-01
-3.254781658078597650e-01
3.934413998999026774e-01
2.963217772069797751e-01
2.081468517574238952e-01
9.308736936177809673e-02
2.964249240504712724e-02
2.933193448250697166e-01
-4.151466770057445910e-01
1.865770354696400790e-01
-3.409396529887524091e-02
1.990935403466486675e-01
1.530130517984708630e-02
1.860874092119374490e-01
-8.200075638769865893e-02
-3.129006301740380747e-01
-1.535476889461750427e-01
-1.133533129863373012e-01
-2.651359309832036493e-01
3.797238554222183704e-01
-1.393659877821010196e-01
2.438208579483762406e-01
9.250701434541730786e-03
6.857361095634298964e-01
-8.414071258690601629e-02
1.599734137776680776e-01
1.871181143669731484e-01
-1.892568580661515842e-01
6.427024004842067650e-02
1.519825914167314551e-01
-7.232877602813324314e-02
-2.356294597519874301e-01
3.213348936095186126e-01
8.266338048981607400e-01
3.458740860227302871e-01
2.132841391821184152e-01
-4.556056618305857620e-01
8.054057217211728348e-02
-4.790500832591300662e-01
2.245970395080400528e-01
-1.292979464786111685e-02
1.510581382520891358e-01
4.012439279167123174e-01
1.690170483317193773e-01
1.734774298662641046e-01
5.991198178881675801e-02
5.354095763635630112e-01
-2.282736267502949723e-01
-2.118479052428730858e-01
3.553694726327300546e-01
-1.183510212486367924e-01
5.116663684457016803e-01
2.156935849986805487e-01
1.642502789090839188e-01
7.343522381246431197e-02
-2.264090489056740929e-01
5.057422016320620717e-01
5.966193175501434409e-02
2.890838905500542899e-01
2.513292127173301638e-01
1.658598325332459045e-01
-3.785102558297726572e-01
2.423126711676056311e-01
2.434866908210932546e-01
6.375075163648520615e-02
-2.997674538202624306e-01
3.501277175711340478e-02
-9.551114175944067086e-02
-6.302109985823556304e-01
-1.710447462034851984e-01
1.249900728179495490e-01
9.874031828405836764e-02
1.701832081788361151e-01
4.984224917942867844e-02
3.039080971497309935e-01
-3.312670049136891004e-01
3.153741499158693173e-01
-1.562481489724015515e-01
-2.681695944062656989e-01
-4.686141534951506205e-01
-1.079415007560901446e-01
6.351982191248309872e-01
-4.248834144356666287e-01
1.872270632803141877e-01
2.686258239540994033e-02
1.411129616344136417e-01
1.486871250801894973e-01
-1.864550806915149517e-01
-4.643308240200281767e-01
-5.221681463214401797e-02
1.179392728187354661e-01
-3.429140453536270727e-01
9.003540475884332095e-02
-2.917483591716271696e-01
2.331170220719692640e-02
-1.968307166109056761e-01
3.705444849389248341e-01
-1.390623440924503712e-02
-3.170553052172390696e-01
2.294659092352607510e-01
-1.229614608409864696e-01
-2.004240651392021344e-01
4.276538414901157603e-01
-2.170911112831045153e-01
1.151736379526921150e-01
5.575466688272676802e-02
-4.074288546577675696e-01
-1.512716907666779020e-01
-1.453695448645878074e-01
-1.711641728144329688e-01
2.278728599007596722e-01
2.898983386762851167e-01
-1.859624467340585396e-01
5.173766454563386574e-01
9.647526696112740385e-03
-1.383029476118474432e-01
4.226538763945301147e-01
1.521205117089401426e-01
3.618327878119756424e-01
6.868995812325238981e-02
-3.061692038774533331e-01
-1.250299733478803244e-01
-6.961170644776019933e-02
7.231719376344648842e-02
-3.357581556689835378e-01
-2.064277117309582243e-01
-4.411419025579065289e-01
-1.690768971703967560e-01
-2.349130383795789423e-01
1.122715412307500743e-01
-1.723748939590357687e-01
3.275221896114461351e-01
-5.479670464634648352e-01
-1.536936550067815044e-01
1.517461946132864781e-01
-1.582082045897330314e-02
-4.107127127047759951e-01
1.070914045238070961e-01
-9.112048910512943189e-02
7.359863372298454109e-01
-3.740705531242886073e-01
1.862756216648800145e-01
-2.250321350666089921e-03
2.731229015849034325e-01
2.615572601176593959e-01
-3.235322704422424755e-02
3.276745856066152762e-01
5.714244442521038830e-02
-1.916276192464736738e-01
1.828411444177139022e-01
1.379257375585385137e-01
2.509221757120454477e-01
2.062495699840070085e-01
-4.611594925729190497e-01
2.016015163194954662e-01
-8.090687744637302392e-02
-9.960976452657697988e-02
3.771501931713900496e-02
-2.404896904227782350e-01
1.434544836569852377e-01
4.971920355862131935e-02
2.464031989795881315e-03
-6.503853683851683609e-01
4.254035080607497521e-02
2.889815905324256140e-01
1.268384429871324270e-01
-2.860486788879221809e-01
-7.844781017903444675e-03
1.473340344584310735e-01
6.546544272894309069e-01
-2.328689618774165693e-01
2.411942477542179941e-01
9.174204807287332508e-03
1.393321415699348698e-01
3.524160326234871410e-01
1.160050996578970428e-01
1.208320353439374523e-01
3.775797950861703445e-02
-3.234681529537580258e-01
1.246796372091092814e-01
4.525165204825172538e-02
-2.194620732017135423e-01
4.077969466345188199e-01
1.013293389959470797e-01
-1.891139747032037910e-01
1.887912719836301045e-01
-3.038130421676700221e-01
2.120534848742597622e-01
-2.063727999698427573e-01
-1.084353033085734552e-01
2.588633792837920916e-02
7.617993178538214242e-06
-3.246873929261238634e-01
3.265460656550417951e-01
-1.227839027050172949e-01
-1.550355862301946164e-01
-3.509065086649030829e-01
-1.224259194530166739e-01
1.573965447266226225e-01
4.339123058573717828e-01
-4.587000206572543481e-01
4.210926211541227149e-01
-5.201406535634192085e-01
-3.447345259379561155e-01
1.451468320640993681e-01
5.466507217114355832e-01
1.788046898958324527e-01
-2.265398722061449377e-01
1.963752363508434462e-01
5.068994192717792002e-02
3.043656520475168659e-01
7.948913176302092876e-02
-1.473308690935672405e-01
1.607513043698196309e-01
8.903682463335782504e-02
-9.456935121797231669e-02
-2.693245209720045510e-02
3.035009507772489790e-01
-1.287634029301766014e-01
3.962214114117883212e-02
1.243238506388595760e-01
1.724785926612354969e-01
-2.480367764429877442e-01
1.953607035110721535e-01
2.314813019482954148e-01
2.829415176998831619e-02
-1.769032013444551410e-01
1.258938326285274911e-01
-1.023880350512021836e-01
6.933926577355088439e-01
-2.920252996118916089e-01
6.590156693705514490e-01
-1.805905788916231658e-01
-3.688775123367847297e-01
-3.203074524533806033e-01
1.139892655533857185e-01
-4.661984067452913660e-02
4.009803753736174148e-02
3.483579152365418596e-01
-2.642887609072455679e-01
-4.231959817961651882e-01
-1.331383189645226617e-01
-6.412349384202549463e-02
-5.752021935410706055e-01
3.441628677360001332e-01
8.691502252697894115e-02
2.305500859389464363e-01
1.492596942734746857e-01
4.231819633373282152e-01
1.978952136755439961e-01
-3.939156207452797209e-02
-1.262473842390494372e-01
-1.901829995394955716e-02
-8.144869390630201690e-04
-4.251692681426547799e-02
2.351652928585950542e-01
-5.118860254484852712e-01
-1.243059088799529921e-01
-6.341802207698775673e-01
4.052664632834021008e-01
-1.342306541407775333e-01
4.207382165072712232e-01
-3.463780956912635434e-01
-4.844617792214943597e-01
-6.907951110117125371e-01
5.219811351419013923e-02
1.934408933155999100e-01
-5.703066567366037523e-03
-2.689700225189534666e-01
3.834103117134241706e-02
1.408308250568015008e-01
-7.124617892841512978e-02
7.532806076809160645e-02
-3.766723122583258421e-02
1.049357393164789855e-02
1.202008678566384159e-01
2.733699421476565913e-03
1.866442955917195778e-01
2.468081437324049776e-01
2.209888108971985732e-01
2.476339432498458892e-01
-1.696549586792211461e-01
-1.384039076880918817e-01
1.390862070757571956e-01
-1.977834406901941497e-02
-2.821330348784811259e-01
-2.931006182127918885e-02
1.791341199804931394e-01
-3.111645861442616234e-01
-5.570718218340211039e-03
-3.265521035912284931e-01
6.482185666570762228e-01
-1.558628707849198103e-01
4.113536301431773845e-01
1.082418617150075930e-02
2.506285595840804237e-01
4.482549819996605178e-01
-1.209503646391032611e-01
-3.914866509444979714e-01
1.193833909153333706e-01
5.514688954227517925e-01
4.710143963199269757e-01
-1.757631274883266204e-01
6.237855415017208582e-02
1.294123299241549396e-01
1.864625979274604217e-01
2.491612360098423296e-01
-4.600899125835278269e-01
-7.063410943680371590e-01
1.028686336242098237e-01
-8.377369242045844266e-02
-1.614125804145926102e-01
-8.731363463336948294e-02
1.009717030219969003e-01
1.260832358883890170e-01
-3.530928226518454394e-01
1.230465683352539169e-01
4.370320342345262316e-02
-2.300728697270433831e-01
3.947482268137340183e-02
-1.494260508077711602e-01
2.365046835197271713e-01
6.825268730621182611e-02
2.552485148665378789e-01
3.955115672748103772e-02
-1.333981537628096681e-01
-3.841578478648884076e-02
1.143233814946228860e-01
-5.474129789503130450e-01
2.555539837496231814e-01
-2.871088989856092066e-01
2.054535340058770421e-01
-3.688114592876756692e-02
-7.485060610046317953e-01
3.753684430404385063e-03
3.483108084551444494e-01
1.111971723922161592e-02
6.209091218820075864e-02
-6.767802066231967117e-01
-1.901836459443438376e-01
-6.427548260375301470e-02
-4.537697725273844018e-02
8.659883743404563072e-02
-1.799914674763556655e-01
-1.462811873674622343e-01
3.108118478891688241e-01
-3.707587080417768521e-01
-2.228930445665089077e-01
-2.585349699505547494e-01
3.845692161863206726e-02
-2.961586640323767700e-02
1.476684966577801739e-01
1.684589538249985918e-01
6.034069877165471052e-01
5.595807197674274036e-01
1.935153898911186610e-01
5.338443423581004099e-01
-3.759991086053024456e-01
-5.899372362213426424e-01
1.107870907773629426e-01
1.352839371478889163e-01
3.385185955351221465e-01
2.011444218890639374e-02
-1.903131986791039842e-01
1.107592432955838840e-01
2.394666784439395957e-01
1.926137194407275544e-01
1.723117012783520197e-01
-8.632433824578166215e-01
8.086731798019723694e-02
7.105125860040689689e-02
7.088566064365121877e-02
1.809199864546066558e-02
-4.581229983408655754e-02
-3.025281043713838255e-02
-1.139580566459612587e-01
6.807942095467067745e-01
5.354613118329727695e-02
-2.125451563293783153e-01
-7.375816485907200903e-02
-3.515499776023149614e-02
2.163147510463190593e-01
-3.023877707861872821e-01
2.575787628085986491e-01
5.808106293653604313e-01
-2.601859435173378698e-01
5.287150529861837089e-01
-3.551784413457443335e-01
-7.593892829903098329e-01
-4.296159627292325256e-01
1.478469796690232499e-02
3.394477400976891324e-01
-4.514092515807826000e-01
-6.391123305341024630e-02
2.620244669932369486e-01
1.559519389606822959e-01
1.005546960316383714e-01
7.598164633729988238e-02
-6.032175323754681573e-01
4.989233266783270060e-01
-1.206561971464614573e-02
9.862530478593088679e-02
1.845161881149486593e-01
2.302470841747787655e-01
-3.655735677646012455e-02
1.402084197705261992e-01
8.206856507504101117e-01
-4.771443944601234943e-02
-3.883756830182071296e-01
-5.675399929751125949e-01
-8.497353369609035589e-02
5.255012970019850016e-01
-9.290986611612699064e-03
-5.343925246967096143e-01
-3.646678386152089058e-01
2.241116523176817643e-01
-1.265166050264077413e-01
-3.103228211785874491e-01
-6.867133824927414976e-01
1.504136065622937446e-01
-1.844254322046937344e-01
-1.383698318981447239e-01
-2.751375395396917778e-01
-4.048062088842744460e-02
1.195853258517057954e-01
8.607692298112985807e-02
-3.810054883119259883e-01
7.285200912146076735e-02
-5.325158487647411176e-01
-1.459706413324404241e-02
-5.166043433782276789e-02
-3.128867684264858423e-02
5.154832664145884147e-01
6.235740745249521155e-02
-1.460652266335389082e-01
-1.153084219622340159e-02
3.626611040743316083e-01
-5.628697322599243540e-03
-3.450786483602288346e-01
2.330674650594680708e-01
1.957936404032041833e-01
5.561381089222035001e-01
-1.442178034763193506e-01
-2.972919251767977000e-01
-1.872374291436058880e-01
1.007385670981674891e-01
-3.265218369876046189e-01
-4.651958742811661551e-01
3.088685002767547760e-01
3.645993941984935344e-02
1.670509880427087923e-01
4.986272897906653401e-01
-6.526942481202536728e-01
-5.446177624118404142e-02
-2.092180975452802016e-01
-1.364774470470491718e-01
-1.934759341474323602e-01
2.507258903059652599e-01
6.010796052410571910e-02
1.043335344411710497e-01
2.308220953433840622e-02
1.765039736829460970e-01
4.835097383484787126e-01
-2.479447993067706857e-01
1.929348474560010074e-01
2.454695507550091471e-01
1.156534624518544829e-01
9.710453554282542921e-02
2.206262765839504536e-01
7.065440744635237240e-03
3.402731765592530988e-01
-2.302247180703929919e-02
6.296667549033611866e-02
3.116468196393139441e-03
1.293816119542384735e-01
9.889733622711205027e-03
-1.282735371160880211e-01
3.449581664238658418e-01
-4.982279136739464764e-02
-1.403857845429621054e-01
1.637568333615573579e-01
-3.769769582144041203e-02
-3.525040534906064837e-01
-2.716624630197075549e-02
-1.448505111031475612e-01
1.184783968603741605e-01
-2.494876995677495213e-01
-2.116057253651290881e-01
-2.188922887388740357e-01
5.622744197908179781e-02
2.196471385476637395e-01
4.840676357032107358e-02
1.232749528083457169e-01
1.178438539887713687e-01
1.344205525844100191e-01
-6.913365518000150201e-02
2.644129030268471126e-01
-2.562809178268170562e-01
-4.374789678046402952e-01
2.596629236822762254e-01
4.901411615460425295e-04
5.432087025344706221e-01
2.054928799693304664e-01
-1.633777108721689020e-01
-2.257537380280412453e-01
4.137443895361001683e-02
1.386505525977335951e-01
3.113437609948661866e-02
2.555786636324103647e-03
-5.034433812475929033e-03
-1.121768751371311074e-02
4.410983913574387932e-02
1.564326246632562201e-01
8.957319500216455455e-02
5.046821076214603324e-02
6.127084515432398848e-02
-6.435716572988694484e-01
-1.088609320976941311e-02
-3.898461836248233447e-02
2.137152456739719597e-01
8.387721635437057899e-03
9.709173649668682848e-02
6.391297995368796503e-01
-1.486324686213051638e-01
1.062899666072419091e-01
-1.504580372662759069e-01
1.812581307078883486e-01
-2.433300985202684619e-01
-4.909989338983201668e-01
3.414625307403336696e-01
-3.977652086928516462e-01
4.444503267170371030e-01
-1.158924048472433216e-01
-3.505893046458635059e-02
-2.349052113578236900e-01
-4.065398623086479146e-01
-2.231423251672790820e-01
6.196270001345045852e-02
-3.882136690505456206e-02
1.133867972513142447e-02
1.707474789297630524e-01
-2.802039127814114905e-01
3.755736501371469971e-01
6.866943856608432872e-01
2.100089184143321130e-01
2.699173082204565088e-01
-8.457726276264709853e-01
-1.068622256705299700e-01
-3.323448155160376172e-01
2.840259274712091941e-01
1.762401703249548146e-01
2.526651765225117544e-02
4.314534342538190459e-01
1.304529831710191795e-02
-1.266835610144336280e-02
2.922381301758620875e-01
-2.138556934289322642e-01
-1.502715280855582668e-02
-3.405600188337221668e-01
7.303127167389461549e-01
-3.499512109295366269e-01
-8.714760375790198133e-02
2.203536042127808570e-01
2.531244670508484562e-01
-9.365013910310525380e-02
3.426679827579037080e-02
4.297802971261813210e-01
-5.034449513953388744e-02
-2.479767367106836679e-02
-1.434185812561561135e-01
-2.010258936319847534e-01
-3.359456430151419593e-01
9.870211122599276132e-02
1.759315332659969477e-01
1.980543990213114169e-01
-1.036737950855078638e-01
-4.351781058606731811e-01
1.812003216886132750e-01
-4.999443170271308801e-01
2.952185848530856638e-01
3.043886306704559619e-01
-2.581232187421713675e-01
5.123469421417549130e-01
1.909987026774683794e-01
-1.555858027059196236e-01
1.802653341899154160e-01
4.386487583655850758e-03
-2.082916345547101977e-01
-2.606339250020854315e-01
7.687413695489839771e-01
8.350158579801085501e-02
3.640551328573937151e-01
4.728883684939403365e-01
2.521892862928696855e-01
2.496974537544252026e-01
-9.177282120111043828e-02
3.553213732731509977e-01
1.780419286593670769e-01
9.453626436369273744e-02
5.178895850184024596e-02
-6.318062258613498239e-01
-9.660202274730991245e-01
1.582936654098222873e-01
4.692194561962511057e-01
-1.959517903279600348e-01
-1.209035620177994347e-01
-4.397528754607185619e-01
-1.562855467464756287e-01
-9.430330612203096097e-01
2.291591469302438067e-01
3.570605325593310120e-01
2.410470854856619841e-02
4.297296954186255458e-01
-6.344534080516128771e-02
-1.416296617695425586e-01
3.208438409492756493e-01
3.887088298112842399e-01
8.885071057731064315e-02
-8.866197040953159580e-02
5.428617942702822496e-01
-4.046722481026082674e-01
5.603036247380658308e-01
6.086395838862851404e-01
5.313472471008199305e-01
4.323394224767562050e-02
3.995851683137267019e-01
9.845228498511002235e-02
2.330225835201720497e-01
-5.516890832269470690e-02
-1.036596648918433616e-01
-1.143895006474170695e-01
-6.002188411807650725e-01
4.220452246437841892e-01
4.756867733659027597e-01
-1.759567647860455497e-01
5.304176563604481864e-02
-4.012954303973804704e-01
1.659772052429934475e-01
-4.890762647795243723e-01
1.705147653802116525e-01
1.196518393256300328e-01
-4.028406727291149181e-02
1.741874370931799088e-01
2.685036496445817808e-02
1.974587538469621817e-01
3.341250344554156509e-02
2.895902218523881133e-02
-2.257231675807283844e-01
-3.984798715968800864e-01
7.241858420267869301e-01
-4.050570687879870846e-01
4.141766750066443459e-01
4.945464428255720857e-01
5.150186949661130775e-01
3.735336858623513612e-01
-1.756411014353611300e-01
2.306483689765005396e-01
5.015748937684072484e-01
2.035452837274035198e-01
-4.133774353660207151e-02
-4.475296698097322445e-01
-7.625764004815844821e-01
4.955550547856476390e-02
4.905902724183163199e-01
9.639331798428545095e-02
-1.100313854880247272e-01
-5.114365386130657054e-01
3.202525494134761952e-01
-7.405109816400022860e-01
7.645832935189443569e-02
-4.125438449786230644e-01
1.198382304193126580e-01
2.800347916265171211e-01
-1.069411668900416418e-01
-4.658529346282290207e-01
-8.256890662533185321e-02
3.880257385728342889e-01
4.088196480230318723e-03
9.692062467882600618e-02
6.305434136993743888e-01
-2.049765402623774935e-01
2.669019071963417700e-01
4.195470832388737414e-01
1.612234862921999301e-01
3.724849868095535532e-01
6.921147357608239958e-02
3.822387419771814954e-01
5.936232915404959787e-02
1.492336480609655625e-01
-2.010744641800442656e-01
1.049583585678348502e-01
-5.722224297336404586e-01
1.547697406356710603e-01
7.147132248218931450e-01
-1.505352664372220095e-01
1.033561022192430318e-01
-5.665668729246229329e-01
-1.623914435166716741e-01
-3.814115379617337154e-01
-2.940356887473330461e-01
2.113578157463573415e-02
-2.937488744388976492e-03
5.672101310456644230e-01
-1.389434541386516675e-01
-5.167827976811357332e-02
1.196524887669730142e-01
1.464244025843313979e-01
7.455377594118814399e-02
-2.018307324167220029e-01
8.875513619184571823e-01
-1.560745651932865796e-01
3.881192156875871158e-01
5.330688505117008313e-01
4.289221866031505681e-01
3.015742474088388136e-01
-1.269876663996055977e-01
3.417734766420929549e-01
1.688792008502509323e-01
6.903424630208954138e-01
8.734416888391213774e-02
1.055496838493518996e-01
-4.426712089110083070e-01
3.034276392212423290e-01
7.679179096669164206e-01
-2.573162631433601466e-01
1.815619507751767281e-01
-8.016287973409131906e-01
3.282116849299200334e-01
-3.903196576076848334e-01
1.428042097008208333e-01
-1.137777281094718290e-01
-7.152724738409155236e-02
6.558905500533024346e-01
3.602579159276912413e-01
3.485813321592975411e-01
1.330040833241659393e-01
-5.838265255192192499e-02
2.570206214820154322e-01
-2.673375447113195968e-01
6.773648069594190302e-01
-1.721003296877179900e-01
3.883267881468737692e-01
1.802971353235238994e-01
5.959899207112580033e-01
1.628914556010965242e-01
-1.629835406285780330e-01
2.550925831187362824e-01
1.682772008145817788e-01
5.303857134796441386e-01
-3.207744930483354823e-02
-4.527418607458221222e-01
-4.589314452009749523e-01
1.925878055091310992e-01
9.563379598854579999e-01
3.325715291050834743e-02
2.044946335269069437e-01
-4.614454796943244785e-01
-2.409968615914860612e-02
-4.997392059127931385e-01
-1.833487636192194792e-01
-5.249233288326874414e-01
3.512136956947008865e-02
3.147031236083246974e-01
1.342208206757630473e-01
-1.011616609097486658e-01
-2.336670734071338851e-01
-8.668148638240458226e-02
5.663723778016697139e-04
5.088100787897642530e-02
3.109823221821532147e-01
-1.700331600614647110e-01
4.003486153032440042e-01
2.766792806994382015e-01
3.348166882413229906e-01
5.464761753712266135e-01
-1.617634078888225690e-01
5.310445190871161403e-01
1.830768830502377542e-01
3.767283249262324829e-01
2.312022263129702160e-01
-3.062181241694827277e-02
-4.611081519259680461e-01
1.635011992757627042e-01
9.994423671076518856e-01
-1.774303733385995951e-01
-1.436774590047499023e-01
-3.115844703636225232e-01
-3.853718986045825412e-01
-4.039344524526116142e-01
1.184025129988834635e-01
2.975731382275532688e-01
1.346965099752873429e-01
5.115079665838720979e-01
-1.610036412955098695e-01
1.342972169797789772e-01
1.698286821508723510e-01
2.273691882446892409e-01
-9.546817118267607316e-02
-4.612167653777838466e-02
3.895394171177921083e-01
-3.562834436977516672e-01
6.683246703998754201e-01
4.981017400658889760e-01
-8.796148634979276959e-02
6.225611131093587991e-01
-5.343926031739502924e-02
4.706413397030163592e-01
1.513433032033582315e-01
1.958523630502325141e-01
1.311045678094612810e-01
3.433166718705396581e-02
-4.941109557817562337e-01
1.776444812060651302e-01
7.919731186880907270e-01
-1.300667833669889306e-01
1.943866824255773562e-01
-4.044884742906418307e-01
-4.093040834103503500e-01
-7.758795777802079963e-01
-2.923952305398512808e-01
-8.794670695909101443e-02
-1.942696384880462368e-01
3.714105789655879342e-01
9.706194008689300601e-02
-3.639606788953916178e-02
-2.581665632548032496e-01
1.612979784208770900e-03
4.258390995217029365e-03
-2.053842312326953079e-01
5.385239398254690335e-02
-4.616541789416909181e-01
4.814161813139616886e-01
2.561678732744204212e-01
3.852317593029386256e-01
4.442551361576849711e-01
2.400246207354380656e-01
5.157022974168957719e-01
2.488019193840109444e-01
1.603265373831918306e-01
2.806441426156117136e-01
-3.845184428045694131e-02
-5.222723308832611933e-01
5.006782020462487992e-01
1.012090311310390067e+00
-8.865417824021008808e-02
-1.426188623892268685e-02
-6.720018994456237182e-01
-3.495610197167230981e-01
-8.818947130287247971e-01
-1.736242525945843884e-01
-1.853611254304345923e-01
1.097580981953307777e-01
2.326079878668558809e-01
1.917762339311393227e-01
-8.597846591119040482e-02
1.707442111716605052e-02
2.163401582999868455e-01
-1.432104069312301331e-01
-4.687705810567915909e-01
1.105966962363800904e-01
-2.936496797268244863e-01
4.778215595161967033e-01
-1.473066457337471324e-01
1.604042951637632275e-01
3.979501458360973354e-01
1.168288952411337955e-01
2.778897997468136039e-01
2.272050728064623770e-01
6.680433992608685728e-03
-4.492949359692738343e-01
-3.809259903942712189e-01
-3.315024350743717152e-01
-5.653459249296126365e-02
6.362988848758092120e-01
-2.092567585761517454e-02
1.648469424714487097e-01
-1.898688992694123612e-01
3.315093620803952201e-01
-8.900614244838979117e-01
2.845154432673608902e-01
2.816797698434504449e-01
4.408188973735892302e-02
3.074482484390844705e-01
-3.625798531286524018e-02
-1.003849176045388397e-01
1.242823367284951602e-01
5.190875879008242239e-02
3.881841650950514089e-02
4.522489808224070540e-01
3.147263711320727464e-01
-6.046869132554121284e-01
8.213962799672779314e-01
-1.361379473307409715e-01
1.639298725808358281e-01
3.294944361360528373e-01
2.289796456479628595e-01
3.770009826716321233e-01
2.479704984322093075e-01
1.044080886883963638e-01
-4.381785744607739896e-02
-2.706505160787621156e-01
-4.320711229773442630e-02
5.151733252546249892e-02
8.909489938472735515e-01
-2.410515183342282486e-01
2.897149288102825460e-01
-3.005754514694008450e-01
3.979845856065384879e-01
-7.852221908053060861e-01
8.016629578049859484e-02
-3.370429843017852534e-01
1.796660625045305160e-01
1.130522186313397265e-01
-1.826790426617269369e-01
2.836393021488866142e-02
-1.603214332437424561e-01
2.012010044945443943e-01
-1.621403495897462063e-02
2.872226524647024659e-01
-9.689724759680241883e-02
-3.321424950526761233e-01
8.991793732668689199e-01
-3.431257908703878590e-01
1.769720660620738573e-01
9.824062161641027024e-02
-2.279462139698200107e-01
2.604065100160953272e-01
6.320308344099781483e-02
-2.653232941409356394e-01
1.418900474353402275e-01
3.639102716125721532e-02
-2.764537256682189637e-01
2.414344669853331904e-01
8.621478161397243545e-01
1.959286665472160516e-01
7.690458971539830546e-02
-1.846001567931135345e-01
-2.064768813734498276e-01
-7.193012733713909368e-01
2.821180194833723398e-01
-7.499322167344725509e-02
5.613697163829217684e-02
4.149656805910751922e-01
2.778479679645196598e-01
-3.016267510302474142e-02
8.334281246821630129e-02
-6.865601189330999832e-02
1.131565965229272969e-01
-1.892660958104375180e-01
-4.930137233638995364e-01
-3.944712527531096802e-02
7.092731351814302032e-01
1.361228784370269174e-01
2.493167343783366310e-02
4.565254047815118787e-01
5.737036058675478722e-01
2.276601163693490470e-01
-1.743172962130246084e-01
5.145137324132710299e-01
-1.958114265802174125e-01
2.146714616271144516e-01
-7.661069471934487396e-01
-1.139531555038537786e-01
4.083251050635438584e-01
2.346362929193880620e-01
4.045257530569396076e-01
3.991586720230765051e-02
1.091374885864976607e-01
-6.544885668242440557e-01
6.470501041912883611e-02
2.516278146083585354e-01
-2.701409305585534062e-02
-4.435509378782359069e-01
4.481164790323019509e-02
-1.411439122806012469e-01
-3.317938114331616534e-02
3.193107625887378065e-01
7.838509002370463996e-02
2.743363052437210459e-01
-3.171232197630252103e-01
-3.404298044880010865e-01
4.075234805170395158e-01
-9.478728716690271172e-02
-5.467237208919761837e-02
-2.068452412739824400e-02
-3.933473735094195067e-02
-2.500240854864617113e-01
2.181282030362536109e-02
1.942839070955926228e-01
3.355831997143158274e-01
1.793287534945709194e-01
-4.068651754200683923e-01
3.474508192457086975e-01
-1.576959728900738100e-01
1.151974616657942263e-01
7.794876236071990316e-02
-2.510813153890372185e-01
2.781139140164633483e-01
-3.077529220347751115e-01
7.518845938067682255e-02
2.589680853492598578e-01
3.316790372263961340e-01
-4.700682367059434985e-01
5.386725722630588548e-02
-1.203571435084406227e-01
-2.274959391882332427e-01
6.530445285621579166e-02
-3.375098833256352515e-01
3.627417140939125373e-01
3.220216595588722419e-01
-4.031717208422132548e-01
3.273283019397169036e-02
-1.674905480288929327e-01
9.715362429204768557e-02
-1.004953721926192256e-01
3.195522772533450351e-02
1.851465418555097997e-01
-2.604882429394450583e-01
2.450174215287423685e-01
5.733862154403054912e-02
1.635019051787834354e-01
-1.361661151980181061e-01
1.655133841442048004e-01
-5.314032856778524438e-01
1.713107518463455048e-01
-7.145286767430249208e-02
1.286436495090139132e-01
4.893661331432575673e-02
-4.692321962027164450e-01
-4.017922859839069827e-01
-2.077087925688689274e-01
-1.956132868531898494e-01
-3.961430476450146232e-01
1.502466226814102301e-01
1.647794818684502477e-02
-1.993067228630710508e-01
-3.263936961278592341e-01
-2.651653924578661892e-01
7.890629941694394800e-01
7.721156183648233418e-01
-2.464927457514347331e-01
-1.531564397191217952e-01
3.190783436555491570e-01
-4.540696995370807620e-01
1.293166751915201251e-01
2.898109098644141568e-02
1.227822498489659492e-01
-1.914327740255786503e-01
-2.111143735175857392e-02
-2.797960992122581758e-01
3.847683504490767570e-02
-8.822946462241922916e-01
2.558562330245336969e-01
-1.500631654916950164e-01
-2.987903129156933013e-01
3.007559638977274630e-01
4.104869499570848457e-01
2.024912341732280074e-01
-1.236992348711121736e-01
4.487218935753268245e-01
7.426220015177611641e-03
2.161197945030065848e-01
3.080921737887192813e-01
8.495660522313413371e-03
3.993877589352823332e-02
2.324217099863314373e-01
-2.976341192464665442e-01
-1.572904817074889383e-01
6.747415979715253309e-01
-4.056646892855017006e-01
-6.655025170475269147e-02
2.466886895373982813e-01
-4.432821055747094841e-01
-4.712605088695939193e-01
-1.316955916328960974e-01
-1.541417811842113184e-01
-1.088534782373022473e-02
-3.767146050833949239e-02
1.889521164690498023e-01
3.071416834815910990e-01
2.286883534272440566e-01
-6.796698390103189658e-01
1.853629127775895851e-03
1.460131810152474341e-01
-3.506092279448744797e-01
-1.143219593430170600e-01
4.399501132893204880e-01
6.562039421862408961e-02
4.803144141917209953e-01
-7.897136585741354464e-02
1.935834232266682164e-01
1.790522009730225600e-02
3.563538653969579584e-01
3.946961901338294498e-02
4.348277292951886058e-02
-8.981270116177678120e-02
-8.662707736825052685e-01
6.042174746744084085e-02
8.449285134971576405e-02
-4.827239208396642001e-01
-3.234668964717271056e-01
2.235850782214181542e-01
-9.533748979288061420e-01
-2.783187734823549531e-01
-5.916769307098246333e-01
8.412138777226203790e-02
1.647167329058333018e-01
-2.028692644496790931e-01
-2.965496170371920148e-01
2.666638598286837428e-02
-5.834439437477199506e-04
-8.020748043506188418e-01
-9.740723807928428069e-02
-9.503195733995875583e-02
1.617285718088318780e-01
2.656864723602807010e-01
1.671468230718656800e-01
-5.732889446083929558e-02
5.299294599724566623e-01
1.418239228617251997e-02
3.844677486910826752e-02
1.365236162036702616e-01
3.746316858333383348e-01
-1.089699040013147741e-01
1.114406027128742732e-02
-7.633783385138885602e-02
-1.202266724951700505e+00
6.642314142585349634e-02
1.906079093882842579e-01
8.589266233245541615e-01
-8.791745475102921703e-02
3.659111853037897988e-01
-1.745291472561633084e-01
-4.953151293777479647e-01
-1.072737059466680742e+00
4.951121236834091568e-03
2.241372954669106632e-01
6.602094458000218324e-02
3.246236180056611409e-01
-1.087612784844677882e-01
-4.046891875697545271e-01
-4.290066059222403805e-01
-1.307329809263947651e-01
2.334760269416327749e-01
-2.435446152870983649e-01
-1.626481476192280784e-01
3.490065755862472030e-01
1.818584085347794699e-01
2.708947022758120271e-01
5.289604635582542680e-02
7.674504045423143073e-02
1.982985894767241575e-01
3.681440427302029583e-02
1.628942250375819412e-01
2.638423251004769488e-01
1.533261947606395781e-01
-7.995623842098600331e-01
-7.312200747646539767e-02
-1.992003964171414343e-01
1.057309583214035564e+00
4.066653607251913272e-02
6.845408916521690257e-01
4.003120032789263538e-01
9.692288471687604545e-02
-2.043421912222647685e-01
-1.724021065585715773e-01
-2.312750892869628039e-01
1.005891580672517854e-01
-2.474019959703846125e-02
3.860318492231364362e-01
-1.009917949945525473e-01
-2.593129857797362159e-01
-4.099304428965627189e-01
-1.037304302553053725e-01
-2.463812069317011799e-01
-2.347447500957765831e-01
7.904267163640955607e-01
1.076430407461721056e-01
-1.668840582853926557e-01
3.839856551620959291e-01
2.783827194660176696e-01
3.075991486951566434e-01
-1.281949894422683978e-01
-9.996881650810036934e-02
1.766694295236166390e-01
-1.354660395382428772e-01
-4.352730097176232271e-01
1.549717357001388907e-01
1.464119825983909162e-01
1.764445263358884464e-01
3.400617035786905606e-02
1.036459425561178094e+00
-4.410770763636828740e-01
3.912660175527351014e-01
6.216687871276981303e-01
2.000856502828157468e-01
4.067992916218519661e-01
-1.102083486975278560e-02
-5.280178437800121527e-01
3.109016256842614401e-01
-9.083208750572124845e-02
-4.928338948658260166e-01
-4.166592816255967335e-01
-1.044871495238028469e+00
1.832721003389604086e-01
-3.273746717746544438e-02
3.884928418613537437e-01
-9.932576587388676492e-02
-6.277152398310437142e-01
3.169597595473355178e-01
-1.089470181207023158e-01
-1.798080437480465144e-01
2.270492722835713295e-01
1.838958758169694785e-01
1.718303103497263729e-01
3.654157518492361367e-01
-5.573365642125630570e-01
-1.687819720386767308e-01
7.840582457035283337e-02
5.577310764755484540e-02
-3.642851185273432990e-01
4.417289083695157270e-01
-3.904281265513959154e-01
1.338920917079633732e-01
-1.218700746922381922e-01
9.419385998082054068e-02
3.867477676189783331e-01
-2.910924024722305603e-01
-5.183275148824353362e-01
-2.665010428331404668e-02
1.794963073316834801e-01
-1.053528348216508509e-01
-1.824493042946575827e-01
-8.226615232171541336e-01
-3.125184304623535719e-02
-4.191826722898837065e-01
-4.463818346233703882e-01
-6.212660859501769467e-02
8.562784520838032098e-02
4.582546772907353794e-01
-2.991616543180877219e-01
2.166070743477037375e-01
-5.216111350663682478e-01
-8.521210559672988405e-02
-9.007883073831750298e-02
-2.326905243101430876e-01
2.797777364109103049e-01
-2.039673602307023326e-01
2.026009811744901301e-01
3.772038811519391466e-01
-1.846801477490085941e-01
8.399073524998685869e-01
-5.678125220013157115e-01
3.373711380012487937e-01
-1.272748396326735254e-01
-9.183649251647464651e-02
7.410157488820255656e-02
-1.579496074805989692e-01
-4.086321589638451934e-01
7.889819333248962452e-02
-1.650845706194346285e-01
-2.016094189459982089e-01
-1.316861966424739405e-01
-1.132203322771873744e+00
-1.991013338757196549e-01
-7.008851548841818491e-02
4.726444833900355635e-01
-1.110397424585520820e-01
-4.183959974452254316e-01
-2.756994801116007254e-01
6.022749161054062605e-02
-1.520871272338223112e-01
-6.252923260879110767e-01
1.345516009258468371e-01
-2.802908229475271629e-01
-5.750325517185829183e-01
7.898303256014309603e-01
3.901470721577139644e-02
6.611036420287507154e-01
-7.138323110311189934e-01
2.328331881788771596e-01
3.508596832666544540e-01
-4.842127834059521962e-01
5.059029644183826724e-01
-3.290644611059543867e-01
1.840631184202216053e-01
7.713418103504381396e-01
5.114954458723434960e-02
-7.766728269641079985e-01
6.047628082694003065e-02
-2.193456042844479092e-01
5.788590093122930602e-01
-5.229006806472200758e-02
6.857287939890545081e-01
-1.482696526948704685e-01
-1.313211202892889395e-01
-1.716339572583285566e-01
2.524486378427344135e-01
-2.791695918293161660e-01
1.014430946281200535e-01
-2.771869134789218259e-01
7.966701066694756306e-02
-6.965444787243761926e-01
2.154932370704868705e-01
5.542582080796373822e-02
-2.816121793459608891e-01
-8.436835592683447627e-02
-2.353879073770495378e-01
3.998288973430598747e-01
-4.509168109655639078e-01
-2.180228831068573292e-01
4.985185932421839494e-01
6.408573917116910934e-01
2.553798651346874116e-01
2.884623254224532030e-01
-5.187636461929806542e-02
-1.960830622889120078e-01
-1.057410565935367197e-01
-2.373064964909703534e-01
3.365731659400378883e-01
-4.134851988228644554e-02
-4.567024481669771374e-01
-4.144863853281757771e-01
4.673454747910311124e-01
1.618025253772820415e-01
2.835877155249115211e-01
-6.288758551832316357e-01
2.622126875910454347e-01
-2.682884971918257921e-01
1.141988131180638466e-01
3.162848626228462745e-01
7.157658901792721129e-02
7.867330365134121706e-02
-3.196398363911405194e-01
1.701388405136557147e-01
1.797180818664348145e-01
-2.254004266227059572e-01
-2.639728305858494162e-01
7.496052524251730631e-01
5.700503854900962342e-01
3.233664262345009033e-01
4.098875313797424869e-01
5.933293357199656004e-01
3.833254186246994322e-01
-1.005771040011320117e-01
3.715001352482601438e-01
-3.773440104329704031e-02
-2.499068698331864246e-03
-1.905023752503270107e-01
1.061042214499179938e-02
6.596347367923012517e-02
-4.971408344653132083e-01
-2.314211916157076776e-01
-5.669820634632470879e-01
-2.712519183390872946e-01
1.450516202591536075e-01
-1.291143154769175232e-02
8.253465374680868383e-02
-5.220197460173255921e-01
-3.726709960525809162e-02
-2.307184293188643473e-02
1.367921617142548452e-01
1.088716287002964994e-01
1.879652274763623510e-01
-1.288163047992840204e-01
2.468565022340717952e-01
-5.995889233221198822e-01
2.322743193018527164e-01
1.780624440229565952e-01
4.652275631236638676e-01
-8.899091904956150934e-02
-5.093398067731883666e-02
5.467203079795466270e-01
9.456442762931309420e-02
3.918316611993487575e-01
1.700166623126233567e-01
-8.512325678414048302e-02
2.779636308720450158e-02
-1.544773508939947249e-01
2.159681748715961205e-02
-3.703344766424156165e-02
-6.910808488881832190e-01
-9.755960238729845246e-02
7.692040964761089894e-01
2.817299273580221031e-01
-5.587827858661242875e-02
6.096822251346016575e-02
-1.974256271017248709e-01
-5.960735013440827956e-02
-9.687185111473299581e-02
-3.206620250669001138e-02
1.116164228919516721e-01
1.917067464074343197e-01
-1.805308502346951727e-01
-9.799786011635584770e-02
-2.184776610032994892e-01
-3.153892754680261423e-01
-1.231738039785543470e-01
-1.635809015864211069e-01
-4.931735517441956373e-01
-2.003565910343486911e-01
4.455012138125640786e-01
4.509543894923331853e-01
-3.986478421494685925e-02
3.694258184404545786e-01
1.411495543253621365e-01
7.657347163225057540e-02
-4.175264270085440876e-02
8.374210856599700881e-03
-2.758656352901392994e-01
-3.980805622873012095e-01
-1.214403536465216982e-01
-3.693811512373789546e-02
2.626065654452660603e-01
-3.209883248085763918e-02
1.700790648727026344e-01
8.787513074206582120e-02
-2.570342501156069881e-01
4.399967389875934498e-01
6.388268318038183360e-03
9.273936384999922899e-02
-1.009538676175616712e-01
2.819856089045075787e-01
3.515447118800255066e-02
-1.029832871681138629e-01
-6.197294116883241694e-02
-5.422015667043169618e-01
-2.668304230332164129e-01
5.329280249551247017e-01
1.992048910406163664e-01
-8.628634376994222255e-02
6.900576952977001133e-01
-1.941776958374015483e-01
1.719162030223735371e-01
2.569830425353329950e-01
-8.384335016513952410e-02
-3.682152433299960559e-01
5.330576876014552629e-02
-1.677763281883420388e-01
-2.067029238506956912e-01
-1.298611763816710230e-01
-6.949058520117229465e-01
1.695221041539377582e-01
1.147480390009616852e-01
-8.267144612004895254e-02
8.456254494603381022e-02
4.405832491724531036e-02
-1.213692286545377426e-03
-1.511115390285298621e-01
-1.750873031839378369e-01
5.136633338451959685e-02
1.408839599585190727e-01
2.457060802047169312e-01
-4.604346648806155184e-01
-3.877522190334506957e-01
-8.129771513360281587e-02
-3.043377653413555373e-01
-1.316991779123156785e-02
-4.248111290935843165e-01
6.176893726834261633e-01
-5.603138226291435320e-01
-1.436549637033317228e-01
2.919447470230553954e-01
4.474689591658027044e-01
-1.634787074041212651e-01
-1.396500882144303679e-01
-3.924007691116284942e-04
-1.496637325911669980e-01
1.749000641161391478e-01
2.909914501686237664e-01
-1.319136244208541087e-01
-5.608549736400423313e-01
6.713886792533405035e-02
6.947990722363229787e-01
5.488854496069931616e-02
1.629045851091688313e-01
-1.151483212928602201e-01
-1.488209625415384540e-01
-5.189795595677096918e-01
-6.566270698592695243e-02
-1.009991598356130837e-01
3.720239429096820483e-01
2.446132174404871962e-01
6.011946931191729931e-02
-6.908192286690474637e-02
5.745706900186448723e-02
-1.720734948290575106e-01
-5.250394825685883449e-02
4.905485980615236635e-02
2.978524937081651336e-01
-4.740699288185680760e-01
4.208699809147078419e-01
3.766422431708002505e-01
2.886285305758545805e-02
4.463204185802995272e-01
-1.123386351062012484e-01
7.476044928961270153e-02
-1.333418248841468090e-01
4.075779906946806475e-01
3.071640064195983039e-02
-1.294887151610130682e-01
-6.926490588683011929e-01
1.653639522448887567e-01
8.933363970236077867e-01
4.235710285789057866e-02
-3.166129805890629395e-02
-5.687593263682444444e-01
-2.452935156040479125e-01
-7.331374511383812465e-01
2.084962148073331578e-01
-1.043336178447557550e-01
-1.930674210270325875e-01
2.207633029871141350e-01
1.409804850626188849e-02
-2.775013100730064006e-02
-1.800069291942179572e-01
-7.832906739308728716e-02
-2.828513149088612844e-02
-1.830504871118788790e-01
-2.095983021356292719e-01
-1.892519817572561047e-01
8.602922877783776290e-01
7.125180743977340692e-01
3.874974032524493572e-01
2.544388269039985634e-02
9.583814299602713693e-02
8.762184669436232087e-02
-4.312862354920332653e-02
4.354665544140871036e-01
-8.291276271613563786e-02
-7.712134608083655307e-02
-5.938098196196055500e-01
4.211568875595541050e-01
4.561136590745243358e-01
2.084482048551691002e-01
2.015572730903629484e-01
-5.435205634931227214e-01
1.259047122026482335e-01
-3.294513970800697078e-01
1.527833553386972187e-01
-9.861651011400016098e-02
-7.113604272670702444e-02
1.188586799758855339e-01
1.706819446109950067e-01
-1.484410995289951740e-01
-1.025944487702628999e-01
7.665239587143979350e-02
-9.960935578372195898e-02
-5.125635620804616099e-01
4.077330934182475941e-01
8.164321423552152110e-03
6.561794064413628558e-01
8.025308954028536057e-01
4.672782339444246369e-01
5.488108467663560530e-01
2.385935603676342387e-02
3.938041249309986308e-02
-1.579046320515775925e-01
2.239411710315617199e-01
1.910315988784401231e-01
1.915444230554872729e-01
-6.932363189122244806e-01
4.526425449477457508e-01
9.861412965931097840e-01
-1.783268289624544700e-01
2.858455179623768938e-01
-4.760156748651457326e-01
1.755019702934385861e-01
-2.129683020999681153e-01
-2.424460235385183515e-01
-4.358816247043690306e-01
-9.902870177779933558e-02
5.740729163151533365e-01
7.570352044123209237e-03
2.225449924621843937e-03
1.176945540690248621e-01
1.001352035831456211e-01
-5.701116124573357008e-02
-9.651295866611801777e-02
2.245973147463713182e-02
-4.973526557800155845e-01
5.863247724163908048e-01
6.626688355281395992e-01
2.263203662342998801e-01
4.472374901565743799e-01
3.663517855214400848e-02
5.784093913551062727e-01
6.673680682272344067e-02
3.648147159131314710e-01
-6.458277588799957170e-02
1.408511083933290109e-01
-4.560445325419096307e-01
-8.462869151842583593e-02
7.269003287111621692e-01
-1.537110886126246689e-01
-3.376906305080509818e-02
-7.206020706059090841e-01
-5.882803540151775729e-02
-4.632145062628062471e-01
-2.113712817829270507e-02
-1.697822259961964952e-01
-2.002589762809096341e-01
4.788837710246184876e-01
-5.849612699832545254e-02
-1.801405469182054131e-01
-4.611039811450166059e-01
-1.981451349068513168e-01
1.124008743442437286e-01
-3.605883353141591252e-01
4.589057121535565220e-01
-2.652566794499974789e-01
4.462282494706634184e-01
4.250210413444519553e-01
4.229570253962353643e-01
5.875439605576240343e-01
-6.110206996857720646e-02
-1.030244165315844299e-02
-2.760680841628407323e-02
6.207409148843308078e-01
-2.317416986579401428e-01
-2.189264164830695414e-02
-4.999510474941132321e-01
1.142381314431878264e-01
6.025172268145607690e-01
2.899088963729515300e-01
-1.963266692804838121e-01
-5.601815336369528886e-01
-6.666676503556458189e-02
-6.513628920652299037e-01
2.735517975432384327e-02
6.133733420878054177e-02
3.504340421606547684e-01
4.172037260275872628e-01
7.473855382773514355e-02
-5.674516142440226563e-02
2.030164090396487653e-01
3.256620933037580878e-02
2.656926249448186561e-01
5.814991018951779639e-02
6.949630560273801771e-01
-2.418740147312100630e-01
4.178835018821513425e-01
-1.702152658778149641e-01
2.506275284591709118e-01
6.638214720362877186e-01
2.711313033022376071e-02
3.569683572222908663e-01
-7.866750916713320663e-02
5.115288774281849804e-01
-3.747449559091514670e-01
-1.336826125113274866e-01
-1.027261001238493066e+00
3.053322132477473416e-01
7.741970232809960439e-01
-5.951767666614378883e-04
-1.776564659364092136e-01
-4.244357542094761016e-01
2.834822767436867563e-01
-5.366760210095999906e-01
-7.636465039212912698e-02
-2.076370070408869728e-01
7.358837733842771289e-02
8.445822383374843034e-02
1.696560598313082840e-02
1.361160706681615803e-02
2.868757849450033759e-01
1.961615991326834743e-03
8.062170389130947357e-02
-4.640995453363319090e-01
3.011506408642455335e-01
-1.305468392155584301e-01
8.682149783835459989e-01
1.753859108944365308e-01
4.739228562662907152e-01
6.232929563343927448e-01
-1.544180102266058674e-01
3.991706944820590519e-01
3.691821225163877673e-01
4.550275428880135031e-01
1.900281084538898435e-01
5.715762396180108507e-01
-5.203463232061130705e-01
1.175589936918173400e-01
9.320060504586719086e-01
1.894664420888900747e-01
2.695915736120441664e-01
-6.125560961397578108e-01
-1.188137511067494934e-01
-5.706003065952390818e-01
-3.005375449991699588e-01
-2.426095742132876598e-01
-2.121709736496696086e-01
2.506484698395455291e-01
3.984751273679548733e-01
4.509483172527125050e-01
-1.732522719058500194e-01
-1.806484458270531390e-01
1.133253273702069658e-01
-2.411160622381973706e-01
3.165182730656247723e-02
-1.189430097937297787e-01
4.975567115355147285e-01
4.119939960215603936e-01
-2.254262372667568681e-01
2.020774791380223756e-01
-1.126096905358374978e-01
6.446761312537357957e-01
2.241049934749220485e-01
2.268368695976006322e-01
3.962846308033727422e-02
1.720616047494417933e-02
-4.575058652987744612e-01
4.555902137410602903e-01
9.663473078444884123e-01
6.983042403878500504e-02
1.366490312302060250e-01
-3.527263799048315773e-01
2.829416867305020733e-01
-9.470212951408529811e-01
-2.969165663375871247e-02
2.482387155545262222e-02
2.000772436470327209e-01
7.635509334170810236e-01
-7.442894729719999602e-02
8.101635179188869385e-02
-1.227266336461437096e-01
3.481324700483645063e-01
9.986124945101804151e-02
-2.128903721995413223e-01
3.265516426570436725e-01
-2.112114348920188789e-01
5.787118460986424573e-01
1.779421479718033550e-01
3.096606199285958372e-01
2.318637930854269558e-01
2.124124767030253491e-01
2.841856754887531200e-01
1.517146012208357986e-01
-1.585588366585908571e-01
3.960576672356357353e-01
-1.035996605541985721e-01
-6.101673564558980356e-01
3.788881129089696209e-01
7.067135070561155752e-01
-1.899539841189337996e-01
-4.623911691325375412e-02
-3.064600104990048979e-01
7.367540182373463753e-02
-3.163634666103503079e-01
3.809894756456685266e-02
-7.646358548443259184e-02
2.485212118579585294e-01
3.105566847568613231e-01
8.429965669827259311e-02
4.675488120472887782e-02
5.087651746633518185e-02
-9.370248180597769150e-02
-2.354344072130729604e-01
-2.856003314487340350e-01
3.215243858516996234e-01
-6.037558142125817318e-01
5.040665769173067190e-01
-2.930805454201515503e-01
5.614530455780608609e-01
1.453747447469987408e-01
-1.883604698326565852e-01
2.413436714221507129e-01
-2.663464767904418773e-01
3.997518734216267133e-01
-1.736737683540789390e-01
-1.395389650090230471e-01
-5.633276055095517432e-01
1.475679924357455319e-01
1.099335977686639820e+00
-2.353673316476093680e-01
4.275717021745298330e-02
-6.680198649707643765e-01
4.137320038087408114e-02
-6.725000424270702881e-01
6.141174967831601605e-02
-4.972348825062004180e-02
1.468296912489949202e-01
5.179642901785922460e-01
3.530096921535166299e-01
-1.180322829883551777e-01
3.058690428265585237e-01
3.463347544845924580e-02
1.687867986396213160e-01
-2.723672542705756205e-01
4.517066321906222370e-01
-5.111053205477886774e-01
6.413361181486320062e-01
1.541244139544344638e-01
2.878749550959991965e-01
1.236721284788264846e-01
-6.320415185978685013e-01
3.796880642668010730e-01
-3.311649746256020710e-02
2.293629402338618617e-01
4.715059891072131970e-01
-1.225884476116625849e-01
-3.860669132151564598e-01
5.744398358707948349e-01
9.630945372479382538e-01
-3.920904998583981532e-02
-2.987350140176282531e-01
-6.666927014386601069e-01
1.140667015619229452e-01
-4.553108327424507107e-01
4.416114015374984075e-02
1.484081179156541141e-01
-1.632187248406136715e-01
5.212708945845379027e-01
-1.883101464685266735e-01
3.718737448155305658e-02
-1.854891839535477704e-01
3.983545868744697294e-01
-1.217313529985608045e-01
9.341049099815508516e-02
1.988132468784417906e-01
-8.417080886673597440e-02
8.183699175887010346e-01
2.342955730312284157e-01
9.686493217514671739e-02
-3.174693982349104382e-01
-2.881237391273920936e-02
2.229936281035330148e-02
2.070774620343031683e-02
-3.014445671225867568e-02
-1.345575162287785120e-01
-1.539211045030469127e-01
-5.078151615364964178e-01
1.964118573778927679e-01
6.783003044413674076e-02
3.913921629380998080e-01
3.639371340319331322e-02
-5.579571518888027937e-01
-2.350558105986596258e-01
-9.192577803891377464e-01
-2.084137537747942637e-01
-1.492455978315288256e-01
2.362106853068178802e-01
1.697558970973705728e-01
-2.990324255361694744e-02
-1.781555174597189706e-01
-1.297307102063189888e-01
-8.470846282567620969e-03
4.057478815295700175e-02
-1.178941155875418145e-01
4.532792092529593919e-01
-3.799618782745808974e-03
6.350157611784081890e-01
-2.239647038874754970e-01
-1.780132374922274718e-01
-1.118893961567121592e-01
-1.902031267150543770e-01
3.492930483520732543e-01
-3.289282726740156426e-01
1.072093753289533012e-02
1.073576006546277661e-01
2.865374154199506473e-01
-3.027605562528334904e-01
-7.145123481541240662e-02
-4.819400622053684469e-01
8.297835730488327399e-02
6.477372258593015741e-02
2.738007327029027826e-01
1.394781584435141331e-01
-5.385871280465875932e-01
-1.109643716324854382e-02
-8.595950480299449636e-02
3.214874144558643732e-01
-6.370944704935684877e-01
-1.736144948865396276e-01
3.050141692657661330e-01
1.258199192908083519e-01
3.307258629641684489e-01
-1.612244403173856630e-02
-2.494647190571638862e-02
-1.743283481424086345e-01
-3.707882576936823993e-01
5.728454305274653935e-01
4.079348153635321134e-02
3.943210886820852634e-01
-1.311538974530490897e-01
-1.529800265330428233e-01
1.490668628326939915e-01
1.229370736794636182e-02
-2.869012653681868863e-01
3.475388777233306276e-02
5.920130273180500280e-02
-2.190627530102043918e-01
1.201216071323117224e-01
-2.126876790881351009e-01
3.590874526468633143e-01
1.226289528261765294e-01
-1.669973312709750746e-01
-9.352970882061083235e-02
-5.022269422531955296e-01
-5.879762360091522061e-02
8.246342906001484160e-03
-1.932005314635766302e-01
5.462125082197404335e-01
-3.466368102954851538e-01
1.395491327394191537e-02
-1.057185651325009412e-01
3.243267146282512170e-02
-3.786860264120232578e-01
-2.704028641267942068e-01
-1.683777643427665227e-01
7.069392443898946110e-02
2.907730530895125121e-01
-1.008733637532327698e+00
-4.730766772372907436e-02
-1.131483792425394402e-01
2.534458452136843509e-01
3.005676856351919835e-01
-4.065790883539997097e-02
-2.006677387479249564e-01
-7.775267901448584817e-02
1.245717262192451436e-01
-2.655809672657641896e-01
-1.815867432220450439e-01
-3.750071185923883887e-01
-2.157406433752339092e-01
2.935075831845181393e-01
-6.800015145125790084e-02
-5.436210567239516123e-02
1.440461938646395712e-01
8.227339174026077062e-02
-1.484850392097910310e-01
2.793858682623187595e-01
-1.168168706547240698e-01
-5.991473953730331453e-02
3.075014477161858162e-02
3.184098266279190327e-03
-4.047332318567343767e-01
-1.465894297716100469e-01
-2.702926105631739961e-01
9.121318345964253282e-01
1.018503261997766446e-01
5.687387123893508090e-01
-5.745503037331867180e-01
-7.700599674397966554e-01
-3.362825339271228731e-01
5.749235809872656460e-04
1.855030068316334754e-02
2.682773994500586845e-01
-3.084572657561190923e-01
-1.233646754085314795e-01
-1.299817025595286502e-01
-5.912685528025937165e-01
-3.306079822770074950e-01
-8.397777347540016368e-01
2.700093966418640884e-02
-1.397365708705465004e-01
1.193996714091419276e-01
1.995205742328148013e-01
-5.308474811068085719e-01
7.636300308651682023e-02
1.911323981711886971e-02
9.987175922603495903e-02
1.111793931301544164e-01
2.701262737829729019e-02
-9.088178457381761166e-02
7.425322897216751761e-02
-9.296575944754854604e-01
1.994080282752576649e-01
-2.376664202051629107e-02
-1.085151234412576049e-01
1.238185859864330413e-01
6.120590354134699540e-01
-1.332733360267069456e+00
-4.104972862220898078e-01
-3.298812087074850519e-01
2.314396269024303621e-01
2.335748793633246612e-01
-3.269893617973181343e-01
-1.864678015976914405e-01
-7.030720046672954415e-02
-3.737333560647093100e-01
-3.884270684580014010e-01
-6.146608300248664059e-02
-1.256498581403009851e+00
2.321510775917403624e-01
-2.057283054459577987e-01
-1.338475171524785290e-01
-7.767290828081555021e-02
-8.839985835806973835e-01
-1.087782458467763530e-01
-7.662256731351325956e-02
-2.325634152889154149e-01
-4.825160888214759525e-01
3.798628082097527808e-02
-1.472021988172833584e-01
-1.989965751554680917e-01
-9.633358430253173843e-01
-8.992274627313749658e-02
-5.448044625782931805e-01
-6.446819909735376219e-01
1.067138450574163927e-01
5.498314501204063648e-02
1.695028336246815481e-01
-4.669885560553835302e-01
6.886831725592359454e-01
3.550060287500761413e-01
5.211122968570254532e-02
1.473507185483453608e-01
8.666145217355042396e-02
3.087607982447421618e-03
2.604104135643532936e-01
-4.486736255587032984e-02
-3.821879628545480356e-01
-2.036855428402671933e-02
-4.322740751171719187e-02
-3.762381364801126171e-02
-2.248778796591883317e-02
1.993611111279314785e-01
-7.534913586285563181e-01
-5.053654526157603799e-01
-8.085907320194959946e-02
1.145382736053970341e-01
-5.914839036473474865e-01
8.458638324871042835e-02
5.026226623681649686e-02
-2.809013078389170359e-01
8.531071187088070662e-01
3.130832376765785297e-02
-8.121987557931885648e-01
-1.580694519696543010e-01
-5.246813852498892761e-01
-1.957238431440004867e-01
-2.194486855339507492e-01
-8.892377240144445638e-01
6.821284720241753696e-01
6.738503527994220421e-02
-1.967717965902548161e-01
-1.293804598809767670e-01
1.256720101126937439e-01
2.394565452789719773e-01
-8.445066914807985992e-02
5.853789877184613077e-01
-2.303512358588525877e-01
1.568106579532024536e-01
9.648023746609971085e-02
2.888203443933358150e-01
3.085581830095922573e-01
-1.722272564360440295e-01
-1.404406165801340978e-01
2.967372192207950315e-02
2.811383540821579125e-02
-2.464493251442178845e-01
-9.050737986527292167e-02
1.472028568963217876e-01
-2.486968688749158565e-02
-9.452834443985060064e-02
7.952251936336927063e-01
-9.406601879768772267e-02
-4.916305270265795002e-01
3.532940364067447825e-01
-2.368859925270446476e-01
8.170977037234323781e-01
-5.723820118921651989e-01
-1.120384716868330521e+00
-5.376954976138927922e-01
2.400608812655945451e-04
-1.139983975466238655e-02
-3.245163857792900640e-03
-4.076803335158729613e-01
-9.055244516256309717e-02
1.175141204946480349e-03
-6.389677288643609565e-02
-2.965434108837250449e-01
-6.422401254305930562e-01
-9.020368592718405742e-02
1.800448136021156054e-01
1.545439245866362943e-01
2.234642637033577017e-01
-4.732953807280016953e-03
8.016190189962149604e-02
2.191985503103967281e-01
1.486468114833336684e-01
8.625907360460476070e-02
1.971701839991798766e-01
-2.609066601028416366e-01
-1.652707922175206123e-01
-3.055065595014949120e-01
-1.565812681664070227e-01
-4.732946674144207777e-01
-2.147893541664499528e-01
7.147526633928187600e-02
6.371386692457973178e-01
-2.563179031046498579e-01
-1.224534434147864115e+00
-7.517793055463865004e-01
-1.450107353186466108e-01
-2.860041423602430188e-01
4.688105856705766100e-02
7.728670191313188886e-02
9.865200590726423691e-02
2.624900601819474266e-01
-7.224140184499256989e-01
-6.920430767957888030e-01
2.921567001595727908e-01
4.213936231026677026e-02
8.523706230548772078e-02
3.605359649001748656e-01
-1.670304621932497402e-02
1.410783042613260818e+00
-2.199583663058815863e-01
3.633160057404125694e-04
1.556585477350289348e-01
-1.528500577562974527e-01
-3.660630368499768195e-01
6.221431473303277310e-02
2.261096157933197848e-01
-2.038309050365741115e-01
-7.734202275364940316e-02
-1.943672098228144685e-01
-5.230825437784109022e-01
-1.304301276015507605e-01
4.127165432249129684e-01
8.264229109531570638e-02
-1.442769986220071576e-01
-9.371031846041810720e-01
-4.394263365693430040e-02
-3.275860460030086685e-01
-1.005716644391221187e-01
1.415161965386594611e-01
2.455064746643448870e-01
-1.097256034204810854e-01
-8.820923899341569507e-01
-7.776058274338309637e-03
-5.198937237221706864e-01
8.180298515199621590e-02
-1.393825586361630287e-01
-4.326860282062227059e-01
9.056744201499120073e-02
9.612618824809074924e-01
1.983733673012670617e-01
2.084690010152830952e-01
1.004150153873848428e-01
-5.563936800640453262e-01
-6.407318641028572626e-02
1.747379162542556097e-02
1.186092519395369124e-02
-7.759572673774211005e-01
3.843064034348512847e-01
-1.816034733853738592e-01
-8.850676003008659531e-01
-4.177136213161838363e-01
1.076036406956175778e-01
-5.023690239040187189e-01
1.842681703320111497e-01
-1.170615281009540265e+00
-5.281251383859261045e-02
1.408387317224276021e-03
-1.818821366229700087e-01
-3.276784936913912372e-01
-1.512531491487354163e-01
-1.903977258415466556e-02
-5.231930273131719655e-01
6.457875052816187678e-01
9.111821168335755561e-02
2.225009546481326594e-01
-2.083061701961851087e-01
-5.040402027856765166e-01
4.510564296459316364e-02
3.522271190030720756e-01
-7.458029553302823744e-02
1.031660316011973333e-01
-4.400362788283744553e-02
-6.954520888070535589e-01
-1.158328683199725956e-01
-1.882984679030294817e-01
-7.974961645593672821e-02
-2.863134062108624311e-01
4.476425285783571795e-01
-7.671474166496358715e-02
-8.165081802413146073e-02
-2.128867945321354094e-01
-3.827633808375009439e-01
5.283675725419486602e-01
-5.835749628952084933e-01
-2.349682523356505792e-01
2.400798209221505497e-01
-6.489875700883049325e-02
-2.231713602875809443e-02
-3.634680045590150121e-01
-1.845608137015765371e-02
-1.392852460414202298e-01
7.093751257624314466e-01
1.992760108619427428e-01
1.819989152712457314e-01
1.234300144642722502e-01
3.036382493828414519e-01
-4.349989884947137453e-01
2.401746235139037011e-01
1.100997216375352722e-01
4.430517733343086045e-03
-1.946650877006381453e-01
2.269386206604710188e-01
-1.341511613474079545e-01
-3.093274696414261352e-02
3.545867271645186669e-02
-8.132490460378963282e-02
4.111653582898682768e-01
-1.925726645356254929e-01
-2.846560424401032852e-01
-4.099147970056858381e-01
-2.151454767059584605e-01
-2.151102870505972736e-02
-1.361541920576999853e+00
4.349320753545005691e-01
3.793946421248409751e-01
-3.269907686261101787e-02
-4.379700050898863509e-03
-1.189006704986947660e-01
1.997483969928176561e-01
-3.101758132544640834e-01
2.034308939205305700e-01
4.791237257141817696e-01
1.382721789757402897e-01
9.403593272037483741e-01
-2.773689954025872553e-02
1.677389693421589001e-01
2.495162533811824679e-01
-2.172713938756059282e-01
-4.491080866665174698e-01
-9.203003736221902764e-02
7.291417669540140034e-02
9.778276451561419835e-02
-1.737808542413918356e-01
4.620549987717383345e-01
-1.235571052220523214e-01
-6.143484465565268726e-02
-2.217505323199475964e-01
-3.307987141915094687e-01
-4.204498251055691638e-01
-1.067462363727094576e+00
8.304820258229576868e-02
3.822237567065742136e-01
-2.279309995876757089e-01
6.020310524331319579e-02
2.596948657389283044e-01
-1.475567803287650137e-01
8.288045821050205042e-02
-1.857747793558535074e-02
-7.078179590067144866e-02
2.641804808960105388e-01
8.363772045966647029e-02
3.227189280907605262e-01
2.138404782833286388e-01
-3.817311171228076477e-02
-1.118222693941543777e-01
2.385749840447134451e-01
7.422014046837872858e-02
2.017549578064586069e-01
-3.117077010789980895e-01
3.262320932265904139e-01
-5.121720717975138809e-02
2.620616048622451122e-01
3.994948400626002205e-01
8.186895158435099698e-03
-1.251793627341182269e-01
-5.506254773452449319e-02
-8.736167152327207752e-01
1.603926585716961839e-01
1.575934744681879995e-01
-7.825658651610494232e-01
1.845330607268166612e-01
1.369186170494648414e-01
1.034679726619461615e+00
-8.696042712444864708e-01
9.321204995703546992e-02
-2.803251438475811916e-02
-1.030121742042516414e-01
5.371806218200742694e-02
4.228733263737568526e-01
8.490157404352545456e-02
-1.641065352625342977e-01
-3.413143952243038459e-01
-1.543486206650719617e-01
1.744341453474953368e-02
3.153535503641038268e-02
8.740903456217188894e-02
3.183469331144195280e-01
2.178623101271507656e-01
-1.489907009261267068e-01
-1.151229708930575912e-01
-6.164830466096626188e-02
3.168822054149926237e-01
3.851419504333110644e-01
1.233319858977121874e-01
2.137762735599167963e-01
2.129782424506967975e-01
-8.778358867039872671e-01
-6.861483865880410593e-02
3.629255042017626165e-01
-5.949864169643668266e-01
-4.591914482261369446e-02
7.796500654693235832e-01
4.611006204211277881e-02
-6.575628155381545437e-01
5.344751024411565909e-01
-3.887876402341607779e-02
-2.500453423439354030e-03
2.946847187304411086e-01
3.435769397095318062e-02
1.374347964691252921e-01
-9.608253609848868559e-02
9.870478457196692201e-02
-3.213901625055464173e-01
-4.038583893214021114e-01
-6.915500402556860882e-02
-4.214503526492817398e-02
-4.414018774777636600e-03
-1.313384058181163716e-01
8.632945433376177924e-01
8.587914049726003141e-02
-4.048075045457138338e-02
-1.197298399127642576e-01
1.182633832904123189e-01
1.147674426519628560e-01
-1.248492703324848019e-01
3.254173385986882105e-01
-1.451320435541375020e-01
1.706916338851403592e-01
2.072999697162729305e-01
-3.227276855091381624e-01
-2.967347362031820812e-01
4.814328938213360276e-01
2.385655976408407875e-01
4.448284464981283604e-02
-7.857456318837895831e-03
7.850681201539959353e-02
8.312330709702121789e-02
3.392180464903331305e-02
-4.781548369526356090e-01
-7.225064417822883722e-02
2.115123715487132461e-01
-3.093270012674090297e-01
-6.262941445994837930e-02
-2.826549228212950071e-01
-1.328735057456142954e-01
-1.601763684469305338e-01
3.851983533946186644e-01
1.376883032022722941e-01
2.765479849830781989e-01
1.590777579749275833e-02
-6.300969037812130524e-02
4.742259225083743091e-01
-2.977222866088219955e-01
-2.030850217256879031e-01
-8.238292434730179470e-02
2.174205463196081725e-02
-1.243540950192480177e-01
-2.633537980826305969e-01
2.548196619433573118e-01
1.071469747490709085e-01
9.653225816001111820e-03
3.123998731124461026e-01
8.530914411942583930e-01
3.079179176468917478e-01
1.568880259591699244e-01
5.388713736332371995e-02
4.283135995871135138e-01
2.408769202006966204e-01
-9.608734163980915677e-02
4.068671045232946648e-01
-3.433944779153919047e-02
-5.406307976443124330e-01
-2.092761184892790172e-01
5.723501090121392298e-01
-3.498223663861461663e-01
1.471702993409571281e-01
-1.963260900572723344e-01
1.212188506301420110e-01
-1.698620880485531837e-01
7.588602971634043903e-02
2.513744333031470712e-01
2.341239942378702255e-01
2.193714736369505314e-01
2.985551892329070256e-01
-1.103046562035352451e-01
9.257426383264279190e-02
-9.295324196221707580e-02
4.203456163025411085e-02
-3.465002115067847832e-01
1.732787891960630988e-01
-1.714107732997967037e-01
3.492148440939263909e-01
4.401110106908560637e-01
3.100250701387974664e-02
-9.577331098692598577e-02
6.315471234215253027e-02
-7.703742138168431959e-03
2.083299416584439290e-01
1.713120941739678660e-01
2.788960116802277067e-01
-5.814616158835991810e-02
-9.532550436940335770e-01
4.897150756538790062e-02
3.948459348867079388e-01
-2.577293285564370984e-01
1.440725098212772282e-01
5.993983492329389706e-02
-1.678358670398273633e-01
-5.258401446329676876e-01
3.432934840804234278e-01
-2.418013893846144291e-01
-1.472754314993858782e-01
2.064963621245199665e-01
-5.982907060530751747e-02
-6.919182380559230072e-02
-1.717723451557011394e-01
1.303657692361879714e-02
2.321685391387529884e-01
2.467515146560153860e-01
5.716355906721320990e-02
-4.955198220929014213e-02
-5.389231540563741568e-02
4.534439291136243555e-01
2.763728033332376599e-01
1.690288053575163263e-01
-5.461006905416008897e-04
2.377713864611898098e-01
1.005902811414181031e-01
4.571255841733314895e-01
-9.292232217639575728e-03
1.870799354569492937e-02
-1.160380125727641820e+00
2.659617946782508735e-01
6.159023981406454018e-01
-1.234105898947904234e-01
-8.075695074836634207e-03
-4.791094943848958065e-01
-2.819292777283459103e-02
-5.164068177009955019e-01
-1.727686359092281132e-01
5.347991798228192428e-02
1.402806965551817442e-01
2.612860608918625149e-01
1.722827044166676952e-02
-8.769589314890495479e-02
-1.874320432122595081e-01
8.691699558838708595e-02
-9.133158722962156362e-02
-1.458911104621549437e-01
9.058320952332189757e-02
-2.066849609416491693e-02
9.608327036775923813e-02
1.137433904144868446e+00
1.489714006851334815e-01
-1.864591728674729609e-01
1.889372136893809895e-01
4.308809929721863496e-01
2.568778865524707911e-01
2.003473688618965798e-01
6.155708147676905440e-02
-3.320614433825917755e-02
-1.156985240198645792e+00
2.739711882781268870e-01
7.924520408026756169e-01
-2.560026650136530413e-01
2.075324036020821661e-01
-1.147726330290465890e+00
4.180150312618585717e-01
-7.404177932075476365e-01
1.730407181512258474e-01
-3.140078538718370921e-02
1.533643397712941732e-02
3.841040081575990972e-01
-1.581315675768869833e-01
3.263707594688399771e-01
2.048973995479902097e-02
-1.381828887777547532e-03
-2.729427828039444615e-01
-2.342826526416052491e-01
7.914189527424255743e-01
-2.034967119065268781e-01
7.202610400996826145e-01
4.999816309825811933e-01
1.606656514754364884e-01
-2.711731589256304864e-01
-2.168842886359474420e-01
4.742824845260304456e-01
-1.416059117017251234e-01
1.485725508231161285e-01
-3.324885203496955044e-02
-1.519557659114375570e-01
-1.195253206197182338e+00
4.195643762999344273e-01
4.302378116514459783e-01
-2.352382200807770149e-02
-1.118601890088268963e-01
-6.659658290324511620e-01
2.250560522524180096e-01
-5.007963519519167406e-01
5.450172281185844403e-01
-4.264605436530647525e-02
-3.107068324357625255e-01
5.543809394788394851e-01
1.939345910003210660e-01
4.228975586234464540e-02
-4.166485592215248002e-02
3.635681625085189772e-01
-6.011216367890173662e-02
-1.760115809172473345e-01
8.509725704078837660e-01
-1.788293695701932140e-01
5.851759607039154210e-01
1.096726941303339364e+00
2.429524402142770878e-01
4.217956619786751848e-01
-1.586098563311914011e-01
3.817588584670986718e-01
1.817659039771990157e-02
8.003808770474081236e-01
2.172009007792423396e-02
-2.614379984601036822e-01
-7.889836263814647976e-02
4.175685129070658697e-01
5.466981040827784133e-01
-2.917972898715902666e-02
-4.981784283045682937e-02
-8.655645996949468124e-01
-3.930215755134244815e-02
-7.259359116823764779e-01
1.818812421181075223e-01
2.965059827483822463e-01
-1.861630606264787907e-02
7.227575753318034035e-01
-1.045076220868908640e-01
-2.947493385374950758e-01
1.066756438186355765e-01
1.439155062156109444e-01
1.472438568023012040e-01
-1.380028681196405205e-01
7.173351395940092967e-01
1.374817428560266841e-01
7.536411870694162962e-01
1.531772532341899307e-01
1.989931837659273117e-01
6.256122958105519993e-01
1.550300843194043765e-01
1.623310067205843699e-01
1.389571024200638716e-01
4.005759941059806040e-01
4.421950577239652791e-02
-1.389794055206993451e-01
-4.840338631749088738e-01
2.690769317786298465e-01
6.693278837858600561e-01
1.992358058736888315e-01
6.436853327674336989e-02
-2.057782225123608866e-01
2.345750638801020332e-02
-9.655152110644714680e-01
-2.210226759019598072e-02
4.328312241850807429e-01
8.646065561781599018e-02
4.563470809435423714e-01
1.809976487960298086e-01
7.246621388291808741e-02
-9.016367129775433586e-02
-2.550532922348906495e-01
6.235938615445664468e-02
-2.610575622582171906e-01
3.148069073212729774e-01
-3.008820864782806304e-01
5.359749830215498889e-01
1.379694588268082223e-01
3.193406878969957119e-01
3.727522284908330041e-01
-9.734566613874494345e-02
3.154039946122872973e-01
7.061143542126004091e-02
2.289057471460939353e-01
4.237871218448189398e-02
-3.215606761905299461e-03
-6.708274999868869548e-01
-1.503941002751540690e-01
6.066413989146984820e-01
1.401574588781056771e-02
6.449984269731608155e-02
-1.985223505988605031e-01
9.283983858758794450e-02
-7.854273503277211521e-01
3.971265555259553270e-01
-1.689065331441115814e-01
1.512377601904011937e-01
6.041789488951226916e-01
-1.484455717338745429e-01
-2.612243055024087712e-01
-4.472075130055896269e-02
-1.533380403287795679e-01
1.263318699895464858e-01
1.330983238182112567e-02
2.913884748961553806e-01
-2.965810719350877589e-01
7.172339605185459321e-01
2.441247597087782273e-01
5.319762997078975736e-02
3.432167933120052750e-01
-7.290672216127835892e-02
4.299422120891537025e-03
1.486748400502191925e-01
1.798959866904941418e-01
-1.694031859399194873e-01
-2.657066016417782284e-01
-3.190253794710507518e-01
3.874008732227681717e-01
7.880912294810047403e-01
-3.526017557872405950e-02
-1.891929640666834278e-01
-2.762340111264203202e-01
-3.120502769470285265e-01
-3.799077478435818334e-01
4.242805038804370321e-02
-1.070814242465192023e-01
6.259662293733093963e-02
2.232468876814232839e-01
1.425600057161063028e-01
-3.406694137039702544e-03
-4.959830387090441439e-02
-2.484756660652921167e-01
-3.094376340605310416e-01
-4.600073832778816402e-02
6.439785973157884369e-01
-3.122645898452555135e-01
6.428916916754009447e-01
2.444001143559143205e-02
-8.246483719976913790e-03
-3.504838741262132906e-01
-3.680284968947687696e-02
4.796525980613199347e-01
2.011610556492492707e-01
1.100281858089840505e-02
-3.960399211945962034e-02
-9.796036796689507054e-02
-2.441957190902444286e-01
2.486615644460060393e-01
7.834290154046079646e-01
-9.286574968571608898e-03
-2.736878369719299986e-01
-5.294599561088935147e-01
-2.661627401438284093e-02
-8.146185390109361713e-01
5.602555454193027668e-02
-2.569227730068077489e-02
4.279035353459722385e-02
7.839905967899716277e-01
2.753520929232877723e-01
9.373202284068060663e-02
-2.937855861106308253e-01
2.167471765814138751e-01
2.817401124041633495e-02
-1.834673212907733664e-01
2.763744470376548468e-01
-1.982670530861195823e-01
3.751490377360754414e-01
2.097275303710888494e-01
8.201344768170135691e-01
-4.324380957191081842e-01
1.411980187452537838e-01
3.581612163983813879e-01
5.237754077375596229e-02
2.086566008575536646e-01
1.566025826423700917e-01
9.627020192322092995e-02
-1.884486797287439341e-01
2.965464212625780194e-01
5.439307671217353812e-01
-2.291767566820408775e-01
2.960879493363697823e-01
7.561835834178541604e-02
2.824282214512323086e-01
-7.226577944738493686e-01
-1.599032507908107748e-01
5.628069434331356424e-01
2.054798203113198177e-02
3.087383651598946122e-01
-1.325962914188194564e-01
-2.021886832255921085e-01
6.229552409467482149e-02
-4.638515714325439632e-01
5.654077653321178815e-02
-4.536851727402020917e-01
6.967915054477208381e-01
-1.050597633591186936e-01
6.627660981180282240e-01
-1.990927538667499608e-01
4.922150302704242919e-01
-7.069536369887491345e-01
-8.987459926587183789e-02
1.328430728726929522e-01
1.088203499172604172e-01
-3.185878682972930753e-01
2.959828658474015772e-01
2.450670149889212224e-01
-1.452220091306999881e-03
4.771044859303220642e-01
-1.797295518151141858e-01
-5.535452610371606463e-02
-2.718176583646196298e-01
-2.508230193409659581e-01
-6.154245352882412035e-02
-1.018429543608185384e+00
-1.405833633959501228e-01
2.167425947548615173e-01
2.883450646305737997e-01
3.177830944074486741e-01
-9.036836880463500199e-03
9.078256542973870552e-03
6.793309586459171656e-02
-3.377254742839857493e-01
-2.174308960343922514e-01
-1.958071988858206547e-01
-2.620422385085632161e-02
-7.771867748068962689e-02
9.796701419437480185e-01
-2.928393148620428432e-01
6.062096453964863768e-02
-1.772808666225342555e-01
9.686692204865116063e-02
-1.706753207494725311e-01
-2.179231250638820061e-01
-1.798331118435022025e-01
2.136375120513382686e-01
-7.842533035967688693e-02
8.266512707973884544e-02
2.825613027359010279e-02
-2.367672743456999129e-01
-3.050777667234893520e-01
3.400991489407791390e-01
5.330333304176736453e-01
1.423346541257266007e-01
-8.816763298730125875e-01
2.248549205350015567e-01
-8.074649763999611207e-02
-5.233704935736412933e-01
1.040017302834084778e-01
-1.915139773320988503e-01
-1.391084357823835771e-01
1.347584006621284358e-01
-1.277795463820778632e-01
-9.212399711831814608e-02
-3.617534292821056874e-01
-2.111357464377323079e-01
-4.567592499201317269e-01
8.417524665035643894e-01
-1.852574425641662637e-01
-7.797594411724799723e-01
3.973686045353152507e-01
1.123491235100376046e-01
2.441595230526745486e-01
-4.276109411558463580e-01
-1.724595128339340144e-01
6.995471588497900739e-02
-7.279917872621398389e-02
5.691369760533450395e-02
3.717294251462855414e-01
-3.566988795584415395e-01
-1.912119420294410357e-02
-1.763354877751563687e-01
6.100130573674688028e-01
1.460817215828310034e-01
-9.972820140499969455e-01
2.370069398594684129e-01
6.241170488892778395e-02
1.317554420056748499e-01
1.866016510199254574e-01
1.105613659422859107e-01
5.043843983160638950e-03
-2.472621566649608679e-02
2.376145813482626601e-01
-1.543626973112418033e-01
6.752701715778282321e-02
-3.186186495357001824e-01
-2.178851759407817446e-01
5.577023608681783706e-01
-4.317638541737282010e-01
-6.218409114895390166e-01
-4.868812381990547666e-02
9.180598332744943635e-02
2.569405029442902166e-01
-4.166252206445703044e-01
-7.561010837461937251e-02
1.003257778460963923e-01
1.605618642399846974e-01
-2.061171247732916378e-01
2.353789780978296220e-01
-2.722869226137690779e-01
-8.977924021806911459e-02
2.429733933413004768e-02
2.025917576471298609e-01
-6.463216156844854565e-02
-1.123084464612377875e+00
-5.953536235965756901e-02
-2.916821116164273753e-01
1.008402045449154488e-01
6.238710126682893709e-01
8.385345661679406357e-03
4.766232730766815917e-02
7.536981176767958146e-02
-2.070567190692209139e-02
-2.168917946992424406e-01
-5.977557393272201480e-01
3.403861460077455270e-01
-1.575766874548769902e-01
1.251168734528713022e+00
-1.159284218316771892e-01
-6.264515641069771101e-01
2.723493800091116301e-01
-1.764857741565606097e-01
-1.221706788469479887e-01
-6.818409467834973814e-02
-2.549903011382613771e-01
3.610312216866978230e-01
5.944507890558849844e-02
2.694026147836480201e-01
-1.015882719844357074e-01
-6.014365958104105347e-01
-2.891581914860145153e-01
2.360513147335182027e-01
2.988783396674656867e-01
2.076333159488370217e-01
-1.436061374689501680e+00
1.384385274192603543e-01
2.069481674512322067e-01
-2.467485925385846657e-01
-8.352857995192004559e-01
-3.361495061999564965e-02
2.647786375555895577e-01
3.937912319998550931e-02
-3.240498492031451683e-01
2.654223472991197319e-01
-9.706983474733674178e-02
-1.164708211390716591e-01
-1.711805881764791593e-01
1.086684620487511799e+00
-2.173877419312219839e-01
-1.350960841083570729e+00
-1.344021533812530811e-01
-2.268028978520543470e-01
-2.557089607700874234e-01
-4.203105671691491352e-02
-1.224880593268934253e-01
7.229657996723196089e-02
-7.427910757314401535e-02
8.297253999809194314e-01
-3.501145853352150561e-01
-1.095506436732114119e+00
1.803800640546519285e-01
1.146243535698677207e-01
1.655319704217284305e-01
-3.134993850660799247e-02
-1.284386723455066770e+00
4.743179145331106669e-03
-1.499811342024262861e-01
3.333304227735709446e-01
-1.276512263927671587e+00
-1.306269470858954507e-01
-4.040056173253238625e-01
1.773592418303089058e-01
3.504142295619112057e-01
-9.074486882118094899e-02
-1.755418587506988315e-01
-1.114707525461223092e+00
1.410308161791999811e-02
8.084687286652175731e-01
-5.490717283255089898e-01
7.192520070693682321e-02
-9.591614452333693253e-01
1.810098189681587089e-01
4.559450247682320795e-02
8.084042579951623841e-02
-2.639492994901432854e-01
-2.079259642342563552e-01
-1.074169707793272942e-02
-4.873823209367482701e-01
-2.032124130050473043e-01
-1.582344251444576688e+00
2.319093214864515196e-01
4.423794981593257014e-02
-9.110331660109548535e-01
-2.411960834763681172e-01
-1.240020546780996012e-02
1.835488900607577106e-02
1.362168880905522683e-01
-1.590711714639725383e-01
-4.236544937528901045e-01
-2.767773193048846947e-01
-1.846638562771184267e-01
-1.174471612240038099e-01
-3.643089222831077389e-01
2.007253331921528550e-01
-2.671760950227700104e-01
-1.917161666338550452e-01
-1.681830034120619655e-01
6.098595978567149939e-02
-7.350102535530340653e-01
2.389386863200099187e-01
-6.760565524497723355e-02
7.921182570331944395e-02
-2.567015842522628044e-01
2.406648245939669584e-01
-7.532229131189831506e-01
5.489996293851495679e-03
-1.563426893060551881e-01
-4.469252206846349162e-01
-7.097180351360377060e-01
-4.301591086303676037e-01
1.779450135519161091e-01
2.319822295159215120e-01
5.201778486198749447e-03
1.637778306366606262e-01
-6.575447013414490449e-01
1.609759977512951745e-01
1.291198385015915606e-01
1.057014931170432159e-01
-2.903247732654897773e-01
-1.116191454610637457e-01
2.201811260063688269e-01
1.764950110016455798e-01
-1.460460406723184335e+00
-2.559654995644690678e-01
3.534558324961166731e-01
3.833188399191400642e-01
-6.598520649258042825e-01
-7.860487941352352070e-01
-8.096977190703500415e-01
7.633523167651076191e-01
-5.808397327034735547e-01
-9.498197777581322832e-02
-2.317971508898451216e-01
-8.696112614707962596e-02
-1.255822886575433672e-01
2.567670173308865197e-02
-4.572475719768991781e-02
-8.971547694457854272e-02
-6.424413599425197186e-01
-3.753642967898659921e-01
-4.592791676152722102e-01
5.032891618695625041e-02
4.070368457941427320e-01
1.122001655505416029e-01
-4.031174455572037463e-01
-1.846050528291774684e-01
2.589637026301996325e-01
4.817604769707712481e-02
-1.572013169229378726e-01
7.198445317051692383e-02
3.276668547489061112e-01
-3.107520246427734611e-01
-8.487034364570344991e-01
-2.115227343299281859e-01
-2.740424804833088701e-01
-2.861006643271258310e-01
-2.857510837637831647e-01
-4.949453726174081192e-01
-7.284219244341775257e-01
-1.251750082228420546e-01
-2.474590525243475052e-03
1.010935029856631501e-01
-1.059331501959219768e-01
-3.274851181981150439e-01
-2.298292300250644737e-01
1.853684536784728706e-02
-3.186937870245040022e-02
9.092293580676518161e-01
-2.636940845899528041e-01
-1.058983897816867970e+00
-1.529376510607541317e-01
-3.456530307890352538e-01
2.455295340408115978e-01
-9.557149764008894544e-02
-5.180020752557257246e-01
-8.443766767158626674e-02
-2.078855711712032650e-01
2.427740661885165463e-01
-2.929392252405073616e-01
1.491273673671792144e-01
-9.173144476543777792e-02
3.373808351514312465e-02
1.101896656204703229e+00
8.844823291625851513e-02
2.206621902059394680e-01
-1.247298466887960672e-01
-3.107647041723749504e-01
6.220702543443974546e-03
3.340159374042696999e-02
-1.276884903792334436e+00
-4.160544509492603710e-02
1.693379558926860484e-01
-3.619960253707729114e-01
-1.893647865280733977e-01
8.053497917597202127e-01
1.493931259473229023e-01
-1.766298888579402870e-01
-1.268204694936232446e+00
-8.094868464760926474e-02
-6.753776491312079022e-01
-7.647916137047558460e-02
-3.810471448699781494e-01
-5.748429038914424360e-01
-5.755804411345584459e-02
-3.305274259199734166e-01
2.673694312388374406e-01
1.557669740516640366e-01
-3.083215368737278125e-02
6.827820503639916300e-03
-7.918593627339899632e-02
9.194913186572856167e-02
-2.645893623042452347e-01
-3.529143235579814131e-01
1.725755934455792395e-01
2.808183188086442739e-01
1.158901686808021525e-01
1.674753176436203847e-02
6.438700200093546711e-01
-5.132806382601046505e-03
5.235158229760882020e-02
6.447533024428928616e-01
-3.301243791535113936e-01
-4.214492115151524110e-01
-3.648909847272810980e-01
2.727025272138571821e-01
-1.403002309198025654e-01
-2.546363299326516172e-01
-7.161017256116711804e-01
5.374247401244814926e-01
-4.039489586605435334e-01
3.684947585981816071e-02
2.101323325283372123e-01
4.042247617699416540e-01
2.133068546875648355e-02
-5.079617411490919832e-01
1.154305657031781812e-01
-8.091721157825064459e-02
1.477006336450313595e-01
-5.200554781476863786e-01
-4.669710130580114610e-02
1.029958038621629629e-01
1.378579806818659020e-02
-8.373320174399304650e-01
4.412422151779215040e-01
-5.131484740378944309e-01
-1.217561373885053255e-01
2.818875301484330964e-01
2.580142938896906046e-01
1.415181511804675552e+00
-8.669657174325845483e-01
2.743106662987015998e-01
1.179584503988579669e-01
2.102534996014121527e-01
-1.206661433439666919e-01
-3.895822823080251074e-01
-8.273886323089033046e-02
6.366683146919178797e-03
1.932809895125324751e-01
3.248466029433158542e-01
1.081945031155197690e+00
-4.188113698226421100e-01
1.556315007426174735e-01
-3.450079118229443242e-02
3.075392821289487655e-01
-5.964443268831611800e-01
-1.087262196745910209e-01
-7.344658094820437355e-02
-3.830886703119178865e-02
5.856856328391629729e-01
-3.360875022361147213e-01
9.875003582707032879e-02
-1.422325061573292415e-01
-4.439690033868194663e-02
2.995539187238243153e-02
-7.148101007247416039e-01
-1.075316135305986742e-01
1.986977987978435500e-01
6.602183630787457069e-01
5.371859376349796822e-01
-1.175809835867982933e+00
-2.184996826841416051e-01
-5.939115140755215488e-02
-1.112557243295754367e-01
-2.462451521276706468e-01
-3.183005042840686416e-01
6.684057467311935175e-02
4.876870205369558675e-02
2.448012060067614737e-01
-2.842133674146543609e-01
-2.936587975929284555e-01
-9.243931701427499786e-03
2.294205143479076947e-01
-3.925678196247822105e-01
-1.894173907378160840e-02
4.640791417960267173e-01
1.142143245403131752e-01
-3.451249484820215901e-02
-1.666360570952242492e-02
4.330002517984236077e-01
-1.391501740754824412e-01
5.261930708569003551e-02
-3.226127726046610356e-01
1.470935434361477778e-01
-3.432281755598470818e-01
-3.511103257040820158e-01
-1.760578167898221025e-01
1.519305295773596409e-01
-1.272992056183869514e-01
-8.783341186861391980e-01
1.166432474716338485e-01
3.317839551850711166e-02
3.399273431229140052e-01
-4.569734062241744832e-01
-3.342649734041017173e-01
-1.983093501422545507e-02
-1.183024811400050502e-02
6.087182864268151500e-02
-2.291578441801720434e-01
-2.055768401285788249e-01
8.283163423896184874e-01
-1.221967829108313794e-02
-1.871388668749552342e-01
-9.414852688205375963e-02
-3.221526613855633658e-01
3.889876334248881240e-01
-4.420081886514819480e-01
2.908218579138442950e-01
-8.983374070383137733e-02
7.137513974791075411e-01
3.056246559373925267e-02
2.519532086675079635e-02
3.397805743269221579e-01
-1.000365757311465764e-01
-7.300098222941961423e-02
2.391205372616201363e-01
-1.614661402401549872e-01
-8.665015202100155578e-02
7.273659325033585143e-02
4.808911421210747272e-02
3.511254398357952500e-01
7.330656293464889173e-02
8.516352287265999133e-02
-7.835463513809345915e-02
-1.090776348952889885e-01
-4.445133317374074661e-02
6.612988422492560581e-02
2.754929174184151952e-01
4.028957367477834506e-01
2.226838965784702917e-01
6.401523454090067844e-01
2.202447131532176416e-01
-1.019845662829327315e-01
6.895083386241378232e-02
-1.038951847345463975e-01
5.630368831326606482e-01
-4.831166210007742934e-01
1.622244654305829148e-01
-1.681944413894736201e-01
-1.115618581252982577e-01
3.160230678022474815e-01
2.978284333987193597e-02
1.152641876793604470e-01
4.426542899499911754e-01
1.002682498406155531e-01
-2.365650813871225111e-01
9.268399697511510160e-01
7.522388723976689007e-02
1.576760618721830542e-01
5.207384855069152607e-01
-7.200650962506258690e-01
-2.153153160074588734e-01
2.636482656669982341e-02
-1.229211012360287014e-01
-4.763785599575681151e-01
1.567000603689313876e-01
3.006547499664770015e-02
-1.119494722040570295e-01
2.029451150026214956e-01
1.108899596663013853e-01
-7.920247807845073318e-01
1.472704983968306791e-01
2.417360977171102987e-01
-5.581934394866714388e-01
1.719628715026468024e-01
-1.615093427567923789e-01
-2.853359128477646681e-02
-2.000372257594233705e-01
2.484599674427392380e-01
6.975395614302319913e-01
-4.497299708684191627e-02
-5.030354915678698913e-02
-8.688368141792372767e-02
6.109123274495587008e-01
1.868316766749628932e-01
1.116708357493718246e-01
-1.673066611240886167e-02
1.107295470248225444e-01
-2.197467716577377883e-01
-2.006253836319148443e-01
3.091163765410096485e-03
-2.806388949418567313e-01
-3.375811929624851215e-01
-1.238524283088704575e-01
-1.377657677261598934e-01
-7.309176656761726676e-01
-1.346749538300214266e-01
1.353943041155953320e-01
-7.881418319543354034e-01
-2.104426616315029641e-01
-1.359911045968016596e+00
-1.662906968152047804e-01
1.521360493462143443e-02
-8.788597332945542462e-01
-1.578890732947176023e-01
1.739490042404993886e-01
-6.019431858798690582e-02
5.380907994190725629e-01
-1.004820063465908381e-01
6.231474908046411576e-01
-1.257565819472953872e-01
2.614413005722122096e-01
-2.810401406531692903e-01
-2.172816155952555228e-01
-3.575580290437905401e-02
5.545506468636306890e-02
2.909949573151897062e-01
4.281720107284260890e-01
-6.514662653415057569e-01
-1.470827227555573102e-01
5.467248072921131880e-02
-2.112801208413339071e-01
4.044679629377750940e-01
-3.791286281275145151e-03
2.969953688715248341e-01
-4.192088897645549483e-01
1.013624700079504698e-01
3.561828191410891797e-01
-8.302661064204731600e-01
-2.027018554287946528e-01
5.397017523792743132e-01
-2.320694859160055135e-02
-4.893893345782061172e-02
-2.120267302754055283e-01
3.899302245388527183e-02
1.134265377133315322e+00
3.507659108912361545e-01
-3.882673231552330462e-02
-1.070291285276143612e-05
-3.083275707453311254e-01
4.112495087179950937e-01
-4.229139733159406611e-02
2.716781711099207439e-03
2.222719980927968519e-01
-1.685176402053198685e-01
-2.095646307770442918e-01
5.886410709594921409e-01
8.752864155033296401e-02
4.383834717741701137e-02
-2.917826641194422033e-01
1.027295097008418812e-01
-7.284880922120827718e-01
-2.267382839175306752e-01
-7.789964096236060009e-02
5.125827076631936374e-02
-2.047599445912220428e-01
1.683007479253463834e-01
6.598894522184223232e-02
-1.170018137941711611e+00
4.949477454555800127e-01
3.847305490193988486e-01
7.886129114051194933e-02
1.326409201251869119e-01
1.757554497297981466e-01
-1.784553582757997803e-01
3.087533820446931032e-01
1.075742350537035874e-01
-1.088451306367530513e-01
-1.119308443371284933e-01
1.888937040698944470e-01
-2.295427020317815901e-04
5.646772861720434494e-02
-2.186597391690736636e-01
3.006484015751909392e-02
-3.219471385301989619e-01
2.514834309463736053e-02
3.609476771080957214e-01
-1.496891437284844362e-01
4.765721068977928354e-01
6.171926245491727858e-01
2.751112915686761418e-01
-3.650019696651651269e-01
-1.186079682265457902e-01
-1.065870846247093662e-01
3.746520919188000565e-01
-3.910649261499941076e-01
1.269583123687446913e-01
1.933264604782908014e-01
-1.293660080962870662e+00
3.937204163529905467e-03
5.863120347175027058e-01
2.540435728737283072e-01
3.789826311434091322e-01
-7.810884800955826268e-01
2.096918173782557904e-01
-3.829990661023623955e-01
-1.840673749015950544e-01
2.011609127850760570e-01
-3.616565956049528907e-01
-1.859466349653775274e-01
-6.348050959706978691e-02
3.455419797164942936e-02
-3.654332519027422149e-02
5.941300621503253776e-01
-2.786905704625718960e-01
-2.629478273714264680e-01
1.033521067712019015e+00
-8.748473911662868474e-02
1.716284719114195279e-01
7.422084666157716670e-01
-3.274962120588918446e-01
-5.404871725335484711e-02
-2.382228972307424142e-01
4.233043425378546498e-02
1.318117728047186465e-01
1.124588931885484172e-01
7.207732578057447770e-02
3.978498407650936375e-02
-1.225665865046200453e+00
1.628925395344760496e-01
9.749008839873618548e-01
-6.444083306955479540e-02
-7.981860665855210202e-02
-8.980056948297066022e-01
5.313489863974882321e-02
-4.061936786237115848e-01
-1.053907602110600722e-01
-1.468121301373379595e-01
2.434554473571051703e-01
-1.083600855366795984e-02
5.482334634594408090e-02
-1.163478210562336884e-01
-3.932736083449459019e-02
-5.790423452980591329e-02
-1.255123715148950270e-01
1.796586169283522286e-02
1.005782849167213611e+00
-1.588373428588963354e-01
1.290430535213351604e-01
3.959985691514238404e-01
-4.647071533839304547e-02
-1.730770186539537514e-01
1.103204416653103398e-01
3.426207218013361810e-01
7.818782202140213411e-02
-1.398030487827024715e-01
-1.350972562882879480e-02
-2.213488464827322033e-01
-1.006559469322930500e+00
-8.875240293125576108e-02
7.250791499282210895e-01
4.520370250307612081e-02
1.870980397060736655e-01
-4.440910118255250727e-01
2.152711279832364155e-01
-8.534709613064725975e-01
2.285074331246494672e-01
2.202394918893720299e-01
-3.057910171332239302e-01
3.756342828851133575e-02
-1.677762634519879559e-01
-9.924401838552616983e-02
4.031898698986415008e-02
3.499747872773158464e-01
1.263799154631529698e-01
5.512564987183291021e-02
4.691400456676651509e-01
-2.626712003054221256e-01
3.887089331054522923e-01
5.953657783497205980e-01
2.815908070237422428e-02
-1.837455977533093698e-01
-1.976132772036789942e-01
4.318599778535604505e-01
1.212053582897759801e-01
9.618689573866091858e-02
-1.788399445050546099e-01
1.642588512419309588e-01
-8.223049947447297336e-01
-4.860074472298532566e-02
1.210783655413803395e+00
-2.650784454536793122e-01
-1.553801835344316082e-02
-1.110716067627535386e+00
-1.557882605917893792e-01
-7.900575347047278374e-01
-3.039889896010486425e-01
1.314169201988206470e-01
7.073668803353753975e-02
-1.227542730984945568e-01
1.151927092320925196e-02
2.529802540888118068e-01
-1.542898272934183912e-01
2.707736991289955153e-01
3.370700864553809878e-02
-6.815382844437725685e-02
7.376052046853760480e-01
-3.675699601053258880e-01
-1.117684283199203710e-01
5.397273299525510160e-01
6.148792020970341721e-01
5.347748164610930388e-01
1.735141950942580558e-01
4.489541585040509597e-01
2.795670429886837893e-01
4.303062386529539207e-01
-3.296500850296702478e-01
1.478681033677329559e-01
-3.046677446106852427e-01
3.000169954929706728e-01
6.653600642670224330e-01
-1.508195465406441706e-02
-1.881930282052610495e-02
-4.111229631791767369e-01
4.491293800245992757e-02
-7.599531458031083542e-01
2.925903435484032977e-01
-1.140006253495003258e-01
-2.801200436657110826e-01
4.620477528224201103e-01
-1.299126635105825670e-02
2.417746787926056684e-01
-7.373700186895042197e-02
-1.645435862905696434e-01
-4.136517509457610653e-01
-1.128973036001495733e-01
4.288277418811970443e-01
-2.233383250852242208e-01
1.072847065145644097e+00
8.820074142328036826e-02
4.697549188235801698e-01
3.513170244895553740e-01
-1.504842152913798969e-01
2.788232128826924616e-01
-9.875117472134120611e-02
-4.126344387240022532e-02
7.582107299239437825e-02
1.732364901130847845e-01
-1.750169797890972212e-01
-8.135338903618477557e-02
5.000236985464395767e-01
-1.257179679003125050e-01
-1.829629403430531598e-01
-6.247786743082277272e-02
1.243294685290970147e-01
-6.594143753084171777e-01
-1.230633185450326871e-02
7.794739742699324792e-02
1.740450950418807874e-01
4.403677449757361084e-01
-6.384648465198528022e-02
1.021523714089173501e-01
-8.938034842161172999e-02
-1.979758690879504790e-01
-2.299922680836631039e-01
-2.271946337262879811e-01
3.031430315150211025e-02
-3.671784727845872620e-01
6.212072853610162149e-01
1.737298436017280234e-01
1.980139850160843873e-01
1.651135815603679002e-01
1.379757809072767669e-02
2.716331564094146001e-02
6.194869850261328081e-02
-2.153538562102127463e-01
2.121565395555168043e-01
1.132915439966886845e-01
-2.216651451494235370e-01
2.328921418549206312e-01
3.562230676395521378e-01
-9.195503143090155013e-03
1.062184440035803812e-01
-5.703762544116160182e-02
8.056180845777982658e-02
-9.184735338311379449e-01
-8.774590814182314791e-02
7.799144416693137849e-02
1.681387163817648356e-01
6.149834662855323958e-02
-3.800462859301381724e-01
-1.181190532350777922e-01
-9.155783080571761046e-02
-7.969562820751970034e-02
1.451680361363767158e-01
-1.603361171531488272e-01
-7.372677391829299265e-02
-1.133886347400673567e-01
8.843039963989443031e-01
3.087063920216173707e-01
7.534387436065718147e-01
-7.658713321394963747e-02
-1.439901737399366111e-01
4.135538712532420558e-01
-7.472337465543424373e-02
2.273302109706490104e-01
-7.993041445732369799e-02
1.259301167150253878e-02
-1.065070308429704737e-01
2.123415021111255685e-01
2.742047614925328114e-01
-1.427577471084652827e-01
-2.062902378776565460e-02
2.892484573638388623e-01
2.275927579462073691e-01
-1.119982944576671136e+00
3.583622625824536834e-02
3.898054266574044191e-01
2.319837258665666813e-01
-6.234890187865765182e-02
4.524312646695347051e-02
7.065389003097541365e-02
-7.479160385918626197e-02
-1.970726939633912211e-01
1.374399033071980192e-01
-5.465956449609138401e-01
4.197846638466833924e-01
-3.207164452527792031e-01
6.946572690879883050e-01
2.877003929907986368e-01
6.253242302623687188e-01
-4.012148779087191253e-01
-1.296112135260938658e-01
1.816805464598857112e-01
-1.323260847538622331e-01
-1.483690842751849148e-01
-9.860378597625597819e-03
-1.000293812171202112e-01
-1.965166939520848199e-01
2.779954918548992460e-01
-1.012532621916365644e-01
-1.345188427089818728e-01
-6.484578231953498639e-02
2.723291231182873098e-02
3.813957914615294376e-02
-1.446608876251195497e+00
4.171813861336487461e-02
6.917443444589781165e-02
3.381078337660731181e-02
6.197389635367280825e-01
-1.176414487442504486e-01
-1.137967623228232084e-01
-2.663158854966243272e-01
-4.192129726228742137e-01
-2.478208108310349378e-02
-2.456268220313775064e-01
9.403963079266497438e-01
-1.935322095613126736e-01
7.112445359497083786e-01
-8.279461648298966359e-02
8.330295578674333790e-01
3.115033327082912251e-01
9.058729143187042865e-02
2.079315784384972166e-01
-4.806127512780347666e-01
-4.483610447353895134e-01
-1.631114059088237533e-01
-3.167038155097189750e-02
-6.215768286896270478e-01
3.993553803407093317e-01
-1.316504353317061171e-01
-3.004904732068487960e-01
-1.191851442951785273e-01
2.785722699382160439e-01
2.248680491656151470e-01
-1.191370680884789035e+00
1.849788498620107968e-01
-1.155052683735412894e-01
-1.930549586095546208e-02
4.437860489536140651e-01
2.216639000534254833e-01
-1.036121318392645985e-01
-2.398288901118054151e-01
-5.385009320448121972e-01
-9.487034015989104230e-02
-2.217648721838288151e-01
2.632112455390991368e-01
-2.122362047062961998e-01
6.233219289793398010e-01
1.957161116457515060e-01
-3.393971527853004155e-01
2.857223213280341567e-01
4.597290781140885019e-02
-1.127230064447745372e-01
2.426805769564603643e-01
-3.286973704784089123e-01
-5.236876478539857771e-02
-5.406880671811827022e-02
-2.201171023023416190e-02
1.028334864195869086e-01
9.819567986350441480e-02
-1.524942211297448946e-01
-2.046823372913994243e-01
5.329452267074049621e-01
1.965026185828893657e-01
-1.223970579536945991e+00
-5.768240500632048490e-02
-1.237870391651117591e-01
-2.148319493661306374e-03
3.639634836001882229e-02
1.596733892466794535e-01
2.185665911989239374e-01
-9.202971330554304830e-02
-5.331901893948467336e-02
-1.319417399495906029e-01
4.227643376095695515e-01
9.408561016232330765e-01
7.352044654710716831e-02
1.737917473642197064e-01
4.688295074204020668e-02
-5.092374174951178611e-01
-1.948640121776007150e-01
-1.287199156622852725e-01
-7.655215749733758346e-02
-5.043015946501000490e-01
1.232583723395659636e-01
1.781201911814889530e-02
-3.918193793294555416e-02
2.192183351564369609e-01
-4.487035348326023909e-02
-9.694618607610464012e-02
1.475935296947763209e-01
-6.668255880134739064e-03
3.847529347405296424e-02
1.408815445179709136e-01
-9.211491650731288283e-01
-6.765537371399032995e-02
4.223101905305002429e-02
2.009330349094268220e-01
5.059377727499383415e-01
-9.393153743925038157e-02
-3.186321727200247533e-02
-8.104740091092767218e-02
3.337226405306521482e-01
2.058354251984986227e-01
7.652581338005395861e-02
8.654467696743732841e-01
-4.721256859596529298e-01
6.011799701127047424e-01
4.168988774455522489e-02
-9.873773661027531734e-01
4.900498384212745306e-01
-8.830832953081819980e-02
-1.150332868765522321e-01
-6.333162535544940575e-01
6.672852382144138783e-01
3.571826696921616140e-01
1.701051547609472858e-01
6.868290716023830456e-01
2.876336661173627962e-01
-1.973577225972628080e-01
1.072261128125737289e-01
-6.024510102806484094e-03
5.824625077950500440e-01
-7.184869941577728958e-02
-5.264976433069670225e-01
3.755724842504318262e-01
-1.261868884121507273e-01
1.321363480051001293e-01
1.861178864660851806e-01
-8.378496838060842111e-02
7.665050668301013996e-03
-1.288859184928685120e-01
7.992595567139918478e-01
-2.053095899265097724e-01
4.914225235624680027e-02
5.759757292965120845e-01
-1.117858750660105926e-01
6.247329632529279309e-01
-1.506381103582067615e-01
-3.970366585123674130e-01
8.342086609252447049e-02
3.998914076419148728e-02
-2.394330526905395218e-01
1.023843633260214658e-01
4.602509985640330648e-01
1.610298783783015442e-01
-5.866989967114573379e-02
1.233214582546356131e-01
-4.874343386380032284e-01
-3.373668033872190830e-01
1.267684777851829370e-01
-2.555145081077451336e-02
-6.287202807552300099e-01
4.476151934534548099e-02
-6.870176833008815320e-01
-1.890184687090814830e-01
2.635336467131045857e-01
1.835158043191215949e-01
3.969059067665877127e-01
3.646323765096338293e-02
8.253123668793270473e-02
-2.965795901311258365e-01
