-6.421293589959424786e-01
-1.106200113952347852e+00
-6.610113289262742331e-01
-1.412936028008425549e+00
-5.693696737149871873e-02
-3.549798653061961295e-01
1.791866323796997493e-02
2.604071516649051787e+00
-1.037383383895755573e+00
5.341706148005935517e-02
1.048206742724746343e+00
6.568296474741412705e-02
-4.566119295808517692e-02
-1.508600854013729231e+00
-3.555597907507769273e-01
1.111345289103305767e+00
-7.722399206400942795e-02
2.432077886725537985e-01
3.816338242817089998e-01
-1.931186844746123565e+00
1.753445464505402951e+00
3.442303338869587975e-02
1.350205030231153680e+00
5.548641961715072846e-01
1.214282567251142364e+00
-9.299487754981926591e-01
-4.633660112128432096e-01
4.267189771445006191e-02
-1.689717461293824552e-01
-4.139240021728783636e-02
-1.645011202189717192e+00
-1.203573074442476076e-01
-5.106333085733325561e-01
2.364547443875195110e-01
-1.762102554920284558e-01
-2.986051970466800654e-03
6.756730548790143009e-01
5.928823642656717574e-01
-5.050670178744931516e-01
1.028399970003974762e-01
3.427160406135741355e-01
-1.889610881713520985e-01
-3.122599284566859867e-01
8.183582245723137749e-01
-4.811881295322463226e-01
1.136358534165159195e+00
3.056117663644388957e-02
-1.307387910250919771e-01
2.299774733213203470e-01
8.121014053829178625e-02
2.019935066648041733e-01
2.912825786198657840e-01
6.350776897736770676e-01
-1.647537951032163606e-01
8.946810804075301382e-01
-6.947711191538048503e-01
-2.781127569003912781e-01
-1.591801566437018312e-01
-1.758980689450711371e-02
2.209305388568245584e-02
-1.827403758418205404e-01
-4.682479199468913555e-01
-8.691574858347637100e-01
-3.600232832467430422e-01
-3.132920782290253836e-01
-4.764028782316214738e-01
1.942900438478786795e-01
6.374853399003133081e-01
-3.718558335817630511e-01
6.144136784980782640e-01
3.712156203622676287e-01
8.562368955289577366e-02
1.075511114700915816e-01
-1.405252035856841830e-01
-1.109524451008318674e-01
1.069382874852850662e+00
-2.532666887497582106e-02
2.443121084660530573e-01
3.296389119847258353e-01
-4.161418429049497658e-01
3.234278640090098578e-01
1.124900335448771049e-01
2.495287220556346441e-01
-4.709503426448974905e-01
6.681120344536979339e-01
-5.185582950067179064e-01
-3.852231071882571967e-01
1.186524161772493091e-01
1.381551416890375861e-01
7.028124051529591187e-02
-8.185366965739041545e-01
-1.675755282309294644e-02
-7.055189802614925121e-01
-2.508948510192302028e-01
4.802484873632106854e-01
-2.587984886978582089e-01
5.527435950607639814e-01
5.783763991921140324e-01
-8.025724542230732172e-01
3.482635080605346323e-01
1.854939334358963743e-01
1.987060306795094544e-01
8.144395114106936506e-02
1.975193384250443218e-01
-3.718308584694678953e-01
1.153137720641036701e+00
-2.076393602944447414e-01
1.458355498567976416e-01
6.341187856190390326e-02
-1.516434371533821601e-01
-8.322424348468077104e-02
2.938353933886873534e-02
5.463678303347795362e-01
-5.083814736396786715e-01
5.085371501476187994e-01
-7.621445731545589686e-01
-3.033372126055545182e-01
4.257050186154451854e-01
2.916670397822251903e-01
7.414362406712605991e-02
4.636700776688244645e-03
1.179052415953274063e-01
-6.999405071598316930e-01
-4.260115695797274116e-01
-3.266052979413068269e-01
2.652876875629239239e-01
2.040212266248617179e-01
8.127905724630407613e-01
-6.606987116043048225e-01
6.799111992978157382e-01
6.994025993877416303e-01
6.308983867138988344e-02
-1.644356768817520076e-01
2.453661060620201673e-01
-6.619026663759096651e-01
1.336162704236700360e+00
8.965010484668410606e-02
9.916028827303034754e-02
-9.644189431608810037e-02
1.612720938950387151e-01
-1.111776835515065898e-02
3.127984710430613963e-02
4.903290022552284633e-01
1.231270423483074063e-02
1.269104196374546412e-01
-3.639792150936204118e-01
-4.501812356665190196e-01
-7.925653824029593730e-02
2.492932759961127009e-01
7.430847713079227757e-02
2.249052596960706904e-02
2.275094820647803606e-01
-9.017402422872181633e-01
-2.263791128561152000e-01
2.376324641644156632e-01
2.817418426587496860e-01
6.198564919946498719e-01
7.152121444276045015e-01
-1.722538217769286895e-01
3.504241625001824900e-01
-5.121217939284498227e-02
2.326485460142493078e-01
4.369576128091206060e-03
6.715494877267550455e-01
-2.312994080270448505e-01
8.727409716303813347e-01
5.319372605256800571e-03
5.106495175119566549e-02
-2.192074843706787735e-01
2.419636779682712846e-01
5.533159515062593403e-01
1.683656738313585310e-01
3.734085076556606930e-01
-2.092351320225044053e-01
-1.669034950857919419e-01
-2.510437373099784764e-01
-1.733510163864427078e-01
-1.225344059732423260e-02
1.362153605582195615e-01
1.863306887534477430e-01
6.638198367991079984e-02
1.290329450850780657e-01
-6.683490149836364136e-01
-9.815693821109020556e-01
4.584038072455416668e-02
-4.374604469223662973e-01
5.011604045897272153e-02
8.064259024254869512e-01
-1.932060111788897472e-01
3.933919288797801395e-01
5.252080097855738039e-01
3.269106736280510961e-01
-1.314592852382036325e-01
3.708952121926768486e-01
-3.566860696748605508e-01
1.250222562915024982e+00
-1.095165248412820480e-01
3.004051801746421835e-01
-9.717141855218298929e-02
-1.956537984615990544e-01
5.452959378488455577e-01
-1.742445880799383950e-01
3.089200313724416724e-01
-2.748781368774880218e-01
1.510558104839778149e-01
-1.638379042195436675e-01
-5.808892307301078556e-02
-3.237060914532622347e-01
-2.149863399475379355e-01
6.210579881339198249e-02
4.506363933731994537e-02
2.927035298356098214e-01
-5.901216182374551256e-01
-5.381149474837668700e-01
-2.539443781783632947e-01
-1.588228320685159678e-01
-8.069783055897616908e-02
8.132237663008851092e-01
-2.935558726802734442e-01
6.419916731679573552e-01
5.664860686019513869e-01
-9.956608250130805082e-02
-2.910223860802113247e-02
-2.114101545741579602e-01
-3.281784851147874771e-01
1.358563899220160742e+00
1.633547777609310747e-01
3.581206721673377280e-02
-3.088953899563972594e-01
-6.738411072647921829e-01
4.338249784535911924e-01
-7.955568568058880852e-02
-1.192159162922167524e-02
-6.414861024501256059e-01
2.801930089509289123e-01
-6.593711663408342583e-01
1.332158858385839965e-02
9.360849977991526905e-02
6.894256607715920637e-02
8.568616422417305034e-02
-3.961321648946959928e-01
1.430678474187523641e-01
-6.958560403577498388e-01
-5.175953954336175444e-01
2.626290568822127192e-01
-1.003650794811849906e-01
5.263122121228087646e-01
7.768580997114319375e-01
1.409616224849430943e-01
3.917116420317829917e-01
4.119688458986456303e-01
1.862244860217986409e-01
2.051789908402204821e-01
-3.720941754222147901e-01
1.743929913135855159e-01
7.970157523624700202e-01
2.108892235297882278e-02
4.661772494332271782e-02
-5.846431222763976560e-02
-4.108265645823471202e-01
1.906280819899549561e-01
2.553401361697819616e-01
-4.836679787041109346e-03
2.466066229176160085e-02
2.275826863331347621e-02
-3.691357516304057951e-01
3.248283711510655675e-02
2.132077302079992409e-01
-1.848948299469980738e-01
2.558190994332204538e-01
-1.191177445069421248e-01
-1.488485469597513877e-01
-8.509846065394944814e-01
-5.156194259990459772e-01
4.355325806292141277e-01
1.941891985906307183e-01
1.210149738675347919e-01
3.203290473763242274e-01
-6.497623745459666367e-01
6.166229772359206329e-01
1.828402237649185552e-02
1.289067644099907706e-01
4.065187264309008675e-01
-1.429174587022288556e-01
6.802597178522114263e-02
7.469620874784036468e-01
-7.185504135137951720e-02
-1.296784112586543691e-02
-3.160682769578782580e-01
-2.408736277327524766e-01
4.801280318636297340e-01
5.485081841120806878e-01
5.291955084610765470e-01
-2.212685006502652652e-01
-2.641142188017163873e-03
-7.123591140370785224e-01
-3.546656741030168036e-01
-2.596325946061831536e-01
-3.548263625185917314e-01
7.666246219910578807e-02
9.957989676703365989e-02
1.008943296793334415e-01
-5.184242749329535105e-01
3.745521852960451703e-01
1.054195118914238588e-01
-3.682404788339647128e-01
5.086336480511780556e-01
4.614649487337308398e-01
2.902336154000471624e-01
6.154684076445466889e-01
-9.237512667106029252e-02
1.487359231609726717e-01
-1.501774488482769121e-01
3.922111235750642133e-01
1.415354236865495330e-01
7.998589598952640101e-01
-2.782711918131083872e-01
-2.121789014500074233e-01
-4.338485682936805976e-02
-1.509806818156743946e-01
1.738508912380797855e-01
-1.338786090123138262e-01
-1.836813893851098611e-01
-1.858931217319752527e-01
-2.270241869177239691e-01
-8.415001611675326787e-02
1.201313356004450605e-01
2.334274239620978408e-01
-4.280886997859619791e-01
-9.424074771492579883e-02
-2.408095878651272392e-01
-9.056379366592945956e-01
2.578562163819176356e-01
1.186602520040902053e+00
1.166380761035081398e-01
-2.778314896873728679e-01
2.218104196833628750e-01
4.224471625917284867e-01
1.074750332062343779e-02
-1.055744430658975622e-02
1.077842312208304870e-01
1.960686349133009543e-01
2.862584200454275640e-01
-3.318048097240138272e-01
-8.416485798301202859e-02
1.331792470074039392e-01
-3.300543230923681098e-02
-3.024992508736789459e-02
-1.015500251969471551e-01
-8.075069406278626016e-02
2.121414320265029296e-01
-1.145747903184675953e-01
3.865987589791666235e-01
8.316842776474537846e-01
8.019050898641433278e-01
-6.561999637452503586e-01
6.548347556224336508e-01
1.995771423168621050e-01
-5.208955060698935435e-01
2.146862880431839871e-01
3.166306639322394867e-01
-4.490444916926572549e-01
2.121813304899436148e-01
9.118366604548236998e-01
-2.451749778375924421e-02
-1.617037270932719373e-01
6.101030836921288170e-02
5.094246503614138083e-02
-3.069998247607138575e-01
1.974468442663536438e-01
1.194825366209685200e-02
2.550173942058311938e-01
3.546099732041780306e-01
-1.399206240054341244e+00
-2.157608994235012678e-01
9.032938595646565760e-01
1.415907991948009599e-02
1.020439055668393852e-01
-9.657073964354015438e-02
-2.910513737693091185e-01
5.241371303734322362e-01
-7.586996330244637557e-03
-2.275923939688127562e-01
4.745466278339349198e-01
1.500773782656915412e+00
-7.327925909886102707e-01
4.616829354818890452e-01
3.782482527851022819e-02
-6.994889646963273755e-01
-1.969409578461755184e-01
1.110073800896405727e+00
-3.152688071235829580e-03
-5.726424884947241001e-01
-5.526665812036029024e-01
2.085072282468943550e-01
1.393534691765219991e-01
5.242127791293756944e-01
2.728767680333357148e-01
-3.299999393383340474e-01
1.671722486700109866e-01
-6.082415306450573711e-01
5.184867037914688004e-02
-1.697554198072827314e-01
-6.474656621267580459e-01
-4.529761617708051302e-01
4.617282089332793772e-04
-2.432818243565672001e-01
-2.084681571455686624e-02
1.656736633384111035e-01
-5.611220273753998455e-01
3.423636996017533907e-01
6.970717791953987496e-05
1.574017824298453716e-01
3.642964370562185583e-01
5.621712396597222661e-01
-1.052561013889031116e+00
1.402838713696699831e-02
-2.159672711083337332e-02
-3.427911699689346059e-01
3.138871398195697271e-01
-9.618760155028454051e-01
-5.870353980297249308e-01
-3.068267816249934526e-02
1.419915901514025025e+00
5.757095296035498466e-02
-1.627042340476182736e-01
8.095722133901784856e-01
1.901092577215903190e-01
-5.476968746881385464e-01
1.069734000099737958e+00
-1.152762478481043733e-02
6.510057913760199100e-02
2.665026304053017547e-01
5.401057173553383550e-02
5.125204394283649351e-02
-1.604435865244776827e-01
-3.349630305234849170e-01
2.266158858984806262e-02
-1.283199663178014593e-01
-3.973340562565096934e-01
3.928506926391686638e-01
-1.425628049571442124e-01
-9.294364749663945602e-02
-2.692615755964208879e-01
5.262127566201988405e-01
-8.331369653161500022e-01
2.056264126643582990e-01
1.618251281430432564e-01
9.605226590123344677e-02
4.087293886822311317e-01
2.680032964603802359e-01
4.174641721085454726e-01
6.004915898903953053e-01
6.827360019993812257e-01
-2.241642291985517232e-01
2.791512170444960389e-02
9.358953293618706981e-01
2.184094756945667848e-01
-8.247450643790783520e-01
1.108320643496693236e+00
1.766091393208783222e-01
2.130705884496727001e-02
2.894165392782910851e-01
-8.698238742843882321e-01
2.135070679142999084e-01
3.159374322615439157e-01
-1.880100955178534983e-01
7.641283210608092180e-02
1.711801023800746044e-02
-1.995523255526817641e-01
8.498794379984478953e-01
1.034400682046835024e-01
-1.129093838915292691e+00
-8.268896347783307732e-01
7.319808766350517359e-01
-1.131145766154232790e+00
7.194662417757573536e-01
-2.212268250232884634e-02
-3.197643355993446540e-02
-6.103556665302754813e-02
-7.020184296439628824e-01
-1.068726295597686310e-01
8.491883287904996580e-01
8.594112859033878893e-01
3.345266026018549055e-01
3.133068203631111243e-02
1.207819169900989476e+00
2.549242574887055079e-01
-1.218160706169118646e+00
1.703928495499995588e+00
-5.193032760725842939e-02
-1.186852320531213006e-01
3.144456916204926289e-01
-2.765550676104195499e-02
-2.446236371628627837e-01
3.923594688642034756e-01
9.914571085934867356e-02
-3.542787076123841278e-02
-2.302641332054470857e-01
-2.387211447270305431e-01
7.501823091210282346e-01
8.901839165226063666e-02
-1.281267466721616843e+00
-2.445486442636716495e-01
2.508092482296234715e-01
-9.820547561083384780e-01
5.370207246385733102e-01
1.327227070560944161e-02
3.617491600250765105e-01
2.277368403579629330e-01
-5.363364826590742984e-01
8.383780136658933180e-02
5.641520789216378784e-01
-1.393171774115756767e+00
-1.858172716842610983e-01
-7.375606121580867425e-02
3.289084668104564346e-01
-6.864554330024817685e-02
-3.800871291357379445e-01
4.557454082994626399e-01
-1.000648543009928504e-01
2.218830783302207510e-01
-2.723662985614116461e-01
-9.994978344473802456e-02
-7.311812635493758483e-01
-3.957887014146336258e-01
9.113498049101502463e-02
-2.136155973968686395e-01
-5.686823385768315087e-02
-4.959586178022441783e-02
9.360715436498293629e-01
1.594331508565204059e-01
-6.831605084120196958e-01
4.437488965643967553e-01
1.488552460580261083e-01
-1.252655026607059296e+00
-3.529681730276287149e-02
-2.135677791751856014e-01
2.408142210858179866e-01
1.362280682589274983e-01
-4.102220066216751837e-01
1.303726341939154543e-01
7.490547973897186962e-01
-1.240079365556297386e+00
-6.074632681694734637e-02
1.954066980049336266e-01
2.811320421242732848e-01
-3.172173694912417408e-01
-9.591837905457745173e-01
1.654287231247829060e-01
-1.745883287156719255e-01
2.151458703525221672e-01
-1.315992586814102860e-01
-1.084910729565539800e+00
-4.521023223580575290e-01
-1.211472221771913382e+00
-8.245161970932337117e-03
1.037626820247259246e-01
-6.162577363739984992e-01
8.042699108718114331e-01
1.013193395251046791e+00
-6.668988700731307007e-02
-5.844300778980484612e-01
3.382418867135800200e-01
5.470603459214736647e-02
-7.080056760565729412e-01
-7.621922263220361204e-02
1.592857355441022194e-01
6.491894233976603923e-01
1.089374592028988925e-01
-6.167483504692387042e-01
6.216942230333776243e-01
-1.959250270544487249e-01
-1.403553787026595945e+00
-8.205135124686772918e-02
-4.318800003915108238e-02
2.488732873109539556e-01
-2.635085802107703379e-02
-7.320749685588611166e-01
-1.682133038021209614e-01
-2.224914844566336369e-01
-8.557465082474295659e-02
-7.631914006912705606e-01
3.325778847366148150e-01
-3.160125045528863197e-01
-3.234556845609146917e-03
2.763599797346897105e-02
1.001201661112539470e-01
-1.003905469388561567e-01
2.995757908250047952e-01
1.271909553878252941e-01
-1.803658575259836916e-01
-6.330073130862896857e-02
2.601166848377495788e-01
-5.316927796628831970e-01
-1.143624103754299348e+00
-3.269660176562709797e-01
1.004051608644055127e-01
5.028175356710014032e-01
5.584359890061640908e-01
1.535966508556586563e-01
-1.298398218992137705e-02
-3.918175752914210830e-01
-1.067109481161972351e+00
-1.413524145684261768e-01
-1.471009259095197030e-01
3.201321144258371665e-01
1.137914137121185526e-01
-6.530558310805453237e-01
3.250343476008213384e-01
1.232957793174114559e-02
-5.867885329569324376e-02
-5.107734444300113807e-01
-1.333091109359700599e-01
-3.594144682601334573e-01
6.375978114049893897e-01
2.331425373922152711e-01
-1.042273118338530175e-01
-2.366060552020990415e-01
1.206831474543179211e-01
7.708562319412857189e-01
2.494785334155390916e-02
1.990859973449378983e-01
2.297863435715641334e-01
5.508024067710432653e-02
-1.093745627578076363e+00
-1.277240849560771219e-01
3.116742780459693107e-01
7.575764418396379041e-01
-6.341187576136622650e-02
-7.554354717959713694e-01
3.602857773544315134e-01
-5.532770691435239252e-01
-5.694879045964417186e-01
4.133429123022418911e-02
-1.313481661029312630e-01
-1.408013097861001151e-01
5.757587164750048725e-01
-8.678100250340613497e-01
1.466749060918850767e-01
2.976262092190992692e-01
1.048556166013600854e-01
-1.450459058217342181e-02
3.547501532975830818e-01
3.784399749696606419e-01
6.774531801084359151e-01
-1.809090992425587130e-01
4.060157805555215937e-02
-4.730797520141435258e-02
-2.681841317213996545e-01
3.602186379446132292e-01
3.579378749199758625e-01
3.203879215936942249e-01
-3.021649430759312804e-02
8.993264560104469174e-02
-3.631280200421042603e-01
-2.531709721365443255e-01
4.044470598868071809e-01
6.202932444712319082e-01
-2.513193691622085668e-02
-4.498120062222921156e-01
2.149050510388792468e-01
-8.197819233731319377e-01
6.112156456583200254e-02
2.395909123959990839e-01
-2.495237351506066764e-02
3.892994515180346338e-01
5.772915476690216874e-01
-1.082038676590096005e+00
-4.209835605739383202e-01
-4.950647060242855946e-01
-4.791991610061858975e-02
4.515098852601394652e-01
4.694244733440151585e-01
2.967902926937419639e-01
7.653933462494713069e-01
6.316847185310016377e-02
2.211605026802178631e-01
-1.823928960115535694e-02
3.289532999516868728e-01
5.391248740586225274e-01
3.178661584178613109e-01
6.621598768141842006e-01
-5.878178005229418579e-01
1.147447394757903222e-01
-9.681775314902602014e-01
1.453680265789092929e-01
-4.824557401496743503e-01
8.441999946562417367e-01
1.987050980235768594e-01
-8.914526670359858018e-01
-9.404760887278550141e-02
-6.085194721414202146e-01
1.246404683358979804e-01
9.538455808486238918e-02
-4.964051587879745875e-01
1.977285748216534300e-01
5.885867348383331255e-01
-6.318028818898240306e-01
3.005121381336107664e-02
3.773955496774255014e-01
-8.345047128622760935e-02
1.473363175924981804e-02
8.383940763649447847e-01
-7.150814098953962583e-01
9.654756532455650575e-01
-3.376254138589359077e-01
3.070217589184923712e-01
-3.924247990868390268e-01
-3.208364580024141155e-01
-7.436940752299401325e-01
2.879433533192488071e-01
4.938347074887680099e-01
-2.377663525318652327e-01
5.370054241164963216e-01
-6.705863246399823563e-01
-3.785920294384640533e-02
4.271801591653234115e-02
2.804103468622195020e-02
4.462783288806506654e-01
-4.681798024758992427e-01
-3.713056932252121189e-01
-3.690131785304017753e-01
8.340054271737721292e-01
5.698567009483421208e-02
3.442141597399624251e-03
-1.116206241433416180e-01
1.423122562393792090e-01
-8.156077853707726089e-01
3.853629479285374249e-01
6.635435568290890332e-03
1.254043677600690521e-01
3.274931549852325707e-01
1.127860085403548540e+00
-5.361688455614330717e-01
2.466980438453146851e-01
-1.094777350588904546e-01
-6.442200034065893866e-02
-1.656470371722603210e-02
5.468352460775445234e-01
-6.823448656954464453e-02
-1.317964859981174686e-01
4.571626129696799816e-03
-1.394702156292494388e-01
6.767332228979671127e-01
4.191948626279701773e-01
-3.325118242626159959e-01
1.238542229334025635e-01
1.149093904567714299e-02
3.172997821295548415e-01
-8.814300964009086359e-01
-7.272583182809799762e-01
-1.947439936250204399e-04
4.443652137605551000e-01
2.962188022639903884e-01
-4.405453045758067621e-02
1.130861885330955025e-01
4.856471470212770924e-01
-4.534959158545021629e-01
1.017457976342375447e+00
6.505048026528652549e-01
2.246650504611037019e-02
5.536425373230751124e-01
4.793083408826554481e-01
-4.337311523738414665e-01
2.301124181298727922e-01
-3.574193127203916243e-01
-1.171734725892062817e-01
-2.533676413124446580e-01
-1.903581997106247939e-02
2.874608371780639771e-01
1.902584665137255771e-01
7.459243168707976324e-01
-3.549628315025666475e-02
1.062643385301352161e+00
4.549217527175668518e-01
-2.104120674733750071e-02
-1.793417491756467974e-01
-6.955218849435564413e-03
-1.857293379905703146e-01
-4.690188604989494782e-03
-9.874038486191470954e-01
-6.224514771865154172e-02
-7.908722982364527199e-02
1.127439941016241190e-02
1.809991889023483402e-01
-1.997617415451869438e-01
5.179997013110120285e-01
-1.127581127897649693e-01
2.066471393420477587e-01
7.741574027648236156e-02
-6.399980729179183259e-02
-1.982188126549310273e-02
1.629934395449405271e-01
-5.549335994214863454e-01
5.396188294680149822e-01
-1.339564726254493798e-01
-1.189053316026090698e-02
-2.122230385928938479e-01
9.320592351249464003e-02
6.011260102738306133e-01
1.856534440665650043e-01
6.167345836227636768e-01
2.558837039318524464e-01
4.062646945172104784e-01
-2.760549561816929010e-01
-2.768557333057752312e-01
1.051665917650091014e-01
-6.755131061233364542e-02
4.843627962619613259e-01
-2.979863483822529080e-01
-6.024923729857105670e-01
-5.876503302753965929e-01
-5.600689132406717619e-01
1.053411188426870010e-01
-1.615294911031396330e-01
-1.982218937800512282e-01
9.185384453799035898e-01
-3.143269316370297939e-01
7.147824424994838610e-01
4.263268034434869458e-01
1.197654804892067382e-01
-3.576201016404185196e-01
-6.700124072014608523e-02
-4.651440944066728700e-01
5.621242073786103521e-01
-2.248822116385785774e-01
2.230993128131672498e-01
-2.893151662982039116e-02
-1.663870130200175712e-01
4.500822484837285198e-01
-2.034254928893832956e-02
6.814592516844120151e-01
2.046528096418880338e-01
2.661752946491861005e-01
-2.232768717188180208e-01
-9.573225005215893479e-02
1.478800414471803382e-01
-3.544028240290831855e-01
-2.250590586136871352e-01
1.521834999415324630e-01
-4.759585803341424004e-01
-4.147677531643833571e-01
-4.567363860209776028e-01
-2.223734148184380588e-01
-6.391153163487836575e-02
-3.126166863786478678e-01
5.504622863919418352e-01
-5.177014726552281454e-01
7.993667993449209419e-01
4.519777817859485514e-02
4.112655729919892367e-01
1.239805456068086842e-01
-3.054175181345575307e-02
-1.679720351436726211e-01
1.126887264907940223e+00
9.052708538073796218e-02
3.601799239467161629e-01
5.865823972307709216e-02
-4.233426939040020875e-01
5.017259516606125125e-01
1.311107606304844908e-01
9.875527583673685550e-01
-2.373754542022439573e-01
1.394554439738932561e-01
-2.126571240406019414e-01
-9.744050234322110260e-02
-3.515610717243612404e-01
-5.221846957264072442e-01
-1.384341413001053400e-01
-7.388843392934826282e-01
-5.154205077445247474e-01
-2.456053614942447505e-01
-2.990871767423587957e-01
-1.867968490723989350e-01
-6.607510030318859695e-02
-1.418796033795278466e-01
7.499719633045408562e-01
-7.417432904852584441e-01
7.522397673550190733e-01
5.128386363387092972e-01
-8.356729894503206468e-02
1.674043815676954927e-01
8.566490624314598845e-02
-5.513206195745850025e-01
9.396071050510016454e-01
-4.704389381328859532e-01
-9.391438536214893884e-02
1.012703083501704376e-01
-3.743785530464618927e-01
1.124846506269409491e-01
-1.755084390575889497e-01
7.199385365542461113e-01
-6.033554946554751941e-02
5.325117357088070547e-01
-3.244850340290046375e-01
-3.880063003163584656e-01
-1.072306221320520198e-01
-1.606242903453116710e-01
4.314657138790319313e-01
-5.832180313500939794e-01
-1.012918120707511083e+00
-3.203326415765800905e-01
-2.286691729729013051e-02
1.991354454447603894e-01
-1.491372260775948866e-01
1.329723789379430865e-01
6.378946142918903162e-01
-2.997085373222045934e-01
4.097640804599696485e-01
2.646561673826672290e-01
6.872647433069303466e-03
4.530727821808523681e-02
3.244297541446768962e-01
-3.514148046353047228e-01
8.633737449167925293e-01
1.192071639167684854e-01
-3.661262339264283461e-01
-1.776667654201451868e-02
-4.991593164864903120e-01
4.315200659326198229e-01
-3.194861939659053851e-01
8.643218117026285618e-01
-2.592211535602721439e-01
3.932779420627818823e-01
-3.800435910958602226e-01
1.947175527084110125e-01
-3.445555759274741923e-04
-7.331434054338847872e-02
9.458838938997553292e-02
-6.253125030754627112e-01
-2.492965522053125493e-01
1.344215897789792849e-02
-5.738830778989144621e-01
-1.438657753091398261e-01
-4.864202634042347206e-01
3.394341072530630554e-01
6.051064054708139572e-01
-5.518054088175862182e-01
4.611808807063518256e-01
7.527022974884424178e-01
8.744014348521822466e-02
-1.998411623469310838e-01
-1.671110489664084930e-01
-1.702650339143646843e-02
6.109093912453364972e-01
-2.701088011673786204e-01
-8.490128861948371963e-02
2.305345251559884623e-01
-9.495045216244196729e-01
8.515259928709865145e-01
1.543318651343571768e-01
1.122515338246051098e+00
4.435387388147534748e-01
2.668622755177261774e-01
-4.430536648404038713e-01
-3.425820274194336101e-01
-1.631845265345975016e-01
1.367374135723885553e-01
1.024074103556245202e-01
-5.224845176455834572e-01
-5.221611504508129054e-01
-1.917070566182203784e-01
-5.998384601957401641e-01
2.073921189034007295e-01
-2.837163296481634567e-01
2.751554162925862190e-02
1.109857052088414342e+00
-3.297983464172146162e-01
4.927366071475329790e-01
3.227835480473229546e-01
1.665291496780718361e-01
-8.591787989738097764e-02
-1.210216080050604964e-01
-1.437565570783735924e-01
5.947548812122402939e-01
-1.885332264834168603e-01
-1.135461451410015310e-01
-1.048617219494448055e-01
-6.389331833965158358e-01
5.788810317755501700e-01
2.879873518892260842e-01
9.577603060717567729e-01
3.935322325019421363e-01
6.731564012730825164e-01
-3.764699789307714983e-01
-4.594157305909390421e-01
5.412418386864467634e-02
7.177509623535628658e-02
-1.387338744905906307e-01
-4.074292289158412683e-01
-4.715566546581891338e-01
-1.140130368604610894e-01
-7.540889876208048959e-01
-2.151421790835892078e-01
5.095603466053650471e-02
-1.106326298357564880e-01
1.122050240741689464e+00
-7.882960582993947529e-01
-1.204609374475461119e-02
4.489686645613673033e-01
-7.761251190988187332e-02
1.081035860673555254e-01
-5.180845071189643658e-01
-2.210331665180953753e-01
2.355661529659001940e-01
-2.779242645363556030e-01
-2.494353627854840605e-01
7.092345842454392257e-02
-9.098247973250407350e-01
7.461558882500184398e-01
1.108399121521593533e-01
8.784424846647085339e-01
1.205802995997795335e-01
3.570230549184273960e-01
-5.252953893612389846e-01
-6.905480818350066829e-02
9.528670091015493948e-02
1.843285639759363881e-01
-2.395914683030955783e-01
3.945470633698969914e-02
-2.499504180375040074e-01
-8.696167431790154112e-02
-8.433384808196148219e-01
-2.680853374030425229e-01
2.776675208464062239e-01
-1.462379874850515959e-01
1.052880376782545202e+00
-2.823602527343485047e-01
6.438904829779340533e-01
1.650050261152264663e-01
7.778401883364348401e-02
2.720056599686290766e-01
-6.711593910863694612e-02
-2.592244819010014467e-01
8.162709549750806204e-01
-3.833162971920963669e-01
4.468800654170122094e-02
2.300493132397348761e-01
-7.490436870206222952e-01
4.488279534432883522e-01
3.442300074828663625e-02
1.360268847690340455e-01
4.474084863735331985e-01
4.145796804153117909e-01
-4.098029819150123543e-01
-8.397441981181046067e-02
3.143071016468073076e-01
-4.168426766990204202e-01
2.476264963846237788e-02
-2.495435073176938134e-02
-7.706924007357310313e-02
-1.868344053443545816e-01
-8.145769646405847109e-01
1.291788881769836694e-01
3.430717098780314278e-01
-5.961710826350665737e-01
9.564456816175678222e-01
-4.406009116084231292e-01
8.150606405147597933e-01
4.832957293821171230e-01
1.921689262533504416e-01
1.955123028654002504e-01
-1.338213291168414976e-01
-2.844179738878737096e-01
7.293541952712250254e-01
-2.735150742062855689e-02
5.120788165918420398e-02
-2.560365871306825580e-01
-4.426249498688381578e-01
6.949289941076841615e-01
-2.158986441701276071e-01
-2.102796513503078779e-01
2.812015996047127486e-01
1.926444060215833365e-01
-5.672689202698805166e-01
-4.456423691481083416e-01
3.079531717559361170e-01
-2.661099068141913881e-01
2.497979505121308147e-02
-2.617154711728752470e-01
-2.040941560867201021e-01
-4.701452098810374736e-01
-8.268868998942019433e-01
1.444996244449807676e-01
2.513098906021234147e-02
-1.080398667415204128e-01
8.970910981070110424e-01
-3.087574807169333746e-01
7.148170922336986033e-01
7.461424128506477516e-01
-1.021233655458705578e-02
1.683308225312650508e-01
-2.351419079934029821e-01
-3.798002452799349449e-01
4.498733219234673508e-01
1.075082260017382746e-01
-2.990526207760239585e-01
-3.331877092687763886e-01
-8.068763183816233253e-01
8.016731736884377124e-01
-1.274379221233363779e-01
2.093100587483780473e-01
-5.425108364817239452e-03
1.988047411954373955e-01
-7.158001931624424774e-01
-3.716677321952500113e-01
-6.925520379177589614e-02
-1.435389557467260831e-02
1.260704984910201998e-01
4.644771105910338038e-01
-1.297263820102468324e-01
-1.198362074792314325e-01
-8.970143869345365006e-01
3.568620566959805618e-02
-2.399798683519982490e-02
6.029557571857215026e-02
8.209814067487882783e-01
-6.061637605842913334e-01
7.407904487769824131e-01
4.618928190067193573e-01
1.492827195964791520e-01
-2.620011238191117253e-01
-3.637535909082280638e-01
-3.554173149230627771e-01
4.771049160213451934e-01
-3.923723934006764086e-02
2.497696425456347458e-01
-4.053955796792145863e-03
-8.783388708069036488e-01
5.914465387518631490e-01
2.138203275152446015e-01
4.247591814588830283e-01
4.610573161040928958e-01
-2.831622058161743435e-02
-9.611157274417395646e-01
1.441643140927466038e-01
3.624003051995687563e-02
2.928388076950845520e-02
-8.693874981686855463e-02
-9.890710901700157376e-02
-2.084617650016105661e-01
-1.871088470879699595e-01
1.576430892361109504e-02
-1.552730751746088655e-01
-8.320713901580557154e-03
-1.737518647836546748e-01
6.937726979592919729e-01
-4.452927601394914836e-01
6.282438029322285900e-01
3.258255915236842881e-01
-6.184947089646177648e-02
2.242320110314883486e-01
-1.926224005301973574e-01
-3.887825467487709963e-01
9.316225354181904006e-01
-1.412214021962481525e-01
-4.254196010112239190e-02
-9.993443562662804314e-02
-9.654962059548826137e-01
3.860188770190243202e-01
9.165179192751651827e-02
3.143318079781723395e-01
5.270604595753651811e-01
4.555278421152469948e-02
-6.379701045669716741e-01
-1.705498378737923745e-02
3.141432143475830774e-01
-9.279125463922718864e-02
-3.327281395762037852e-01
3.720683536874416775e-02
-1.028838184999279370e+00
-2.954334266053849078e-01
3.109979677197595160e-01
1.758594434492441461e-01
2.366571821300988976e-01
-5.146163224549555881e-01
-1.147253216529003222e-01
1.613699268223222072e-01
5.827430995514502055e-01
-2.189749239439279516e-01
9.372017212043860790e-02
-8.464899118616452112e-02
-4.891508124425913984e-01
2.588174550441483812e-01
1.803148070197299890e-01
-1.048360102870780353e-01
-1.852884869591054640e-01
1.512776957333979988e-01
-8.005605249647854693e-01
9.066506436425829651e-01
5.163138738077577283e-01
-2.947201007088755959e-02
9.288503752338435060e-01
-1.702766045380330051e-01
-6.147316882085700485e-01
-1.957741210141272781e-01
-5.506153947052969122e-02
-1.623295571416013064e-02
3.213838513438228017e-01
-4.249562346271361646e-01
-9.931117026701896666e-01
3.061746986438007578e-01
1.561868007952910808e+00
6.378797890270375415e-02
1.774072853945694583e-01
-1.807708888045913842e-01
1.751471447855882657e-01
2.389267216195999077e-01
-2.346602189720345955e-01
-5.555265339578703276e-01
4.513726742106664164e-02
7.795236957124442034e-02
-4.313240803548392122e-01
7.770530373903541399e-01
3.974044929920091812e-02
5.265773485213835758e-02
3.329882957914886282e-02
7.858039575040712266e-02
-3.788934279117204817e-01
8.008859323583038536e-01
5.975026863232442420e-02
3.610100023904662114e-01
6.535128024760376020e-01
1.095026222679700845e-01
-3.387289320004975568e-03
2.898580410593947776e-01
-1.968364646017845346e-02
-1.960552384560222960e-01
1.450005133432733795e-01
-6.087775310596255096e-01
-3.533805193653863919e-01
3.058380598294020980e-01
1.245422468699500129e+00
-4.588103025013655703e-03
1.115654096620028318e-01
-1.057306487168494652e-01
4.256139324862788231e-01
-2.154955091886485430e-01
-6.691718643538951961e-01
-4.234872877763686261e-01
1.973832230069076654e-01
-1.721792103624111836e-01
-4.849491328478839347e-01
-1.846654678269053773e-01
-7.295617310289553847e-01
-1.369778001207331009e-01
-1.188196801314774925e-01
2.257168979326840130e-02
-3.592633775021469300e-01
7.051213129804229096e-01
-2.047629636269167885e-01
-6.864336043358236494e-02
5.693875132613085421e-01
1.061103921179982867e+00
-1.878507708430387363e-02
3.999376352846332749e-01
4.237503783539138258e-01
-5.704639177992555377e-01
-1.179332794297027059e-01
-9.645704043609566736e-02
1.454990589247197041e+00
-1.081331353445704524e+00
-1.194153505484131239e+00
-1.997441129552024811e-02
1.252742497828446544e-01
-2.584865696450694417e-01
2.303623850161402309e-01
-7.614165561950626826e-02
3.572833492497325958e-01
-4.673303161711817033e-01
3.676825934125473316e-01
-1.216823024105091050e-01
-5.447214745273670777e-01
3.766900564727554968e-01
-2.934438400106705314e-01
-8.557524277557587711e-02
-2.250130259547531431e-01
7.088570388486364893e-02
-4.904871082838066498e-01
6.304160362323485423e-01
-7.250848609376034370e-02
1.081043169200155002e-01
9.051216200865648265e-01
-8.950001546605566849e-02
-4.914184548546901565e-01
2.303635204767510297e-02
3.472060578467679737e-02
1.119094201623177381e-01
-1.710542180147365809e-01
-1.572000064130677277e+00
5.330238068883215163e-01
-3.086121698789416265e-02
9.052779507918786717e-01
3.013312375383656039e-01
-1.405043332020649433e-02
3.962565739235207052e-01
-1.888340541145248352e-01
-1.270275071569405334e+00
7.447592256778542419e-01
-5.798372490806387169e-01
-2.207654397928886930e-02
1.414243596335652553e-01
2.706709008560868046e-01
7.443546278407515704e-01
-8.515243330235435781e-01
-1.942778687814406824e-01
-4.042810516988287750e-02
-2.037031329988849282e-01
3.142724564189389169e-01
6.265415450137095110e-01
3.930228096614111211e-01
8.998316522657701100e-01
6.483990252611850913e-01
-1.115467007503049557e-01
-1.312452549960217763e+00
8.343406887009339190e-01
-1.860246348236542224e-01
4.783606633904858851e-01
-2.135307848563597344e-01
-1.976723450449809683e+00
-2.279702806139075055e-01
1.044347057304382709e+00
1.782086189010267274e+00
1.684044778863535638e-02
-3.885735337744142259e-02
9.488815459892419035e-02
-5.034663944744244279e-01
-9.573980978262982555e-01
5.258034105785311940e-01
-4.039978249549141531e-01
8.430300465859300041e-02
3.553757970683448231e-01
-1.311069107526375010e-01
4.924809282983765857e-01
-6.727121190014173635e-01
-7.655704417427236508e-02
-8.456063333623269063e-02
1.246740683490845381e-01
-1.672284306436586099e-01
6.299314417853787984e-02
1.369765943996511803e-01
3.048393819114369463e-01
-1.790695707101419287e-01
4.164024953265810236e-01
-9.224223576451788809e-01
4.453943037793368087e-01
3.062248996545469670e-01
-1.685698291455111075e-01
-7.459352365187056633e-02
-4.803003752706332952e-01
-1.260140439383788113e-01
1.797704377591109459e-01
9.762383987404880115e-01
1.655579346338026669e-01
2.252014893222349101e-01
1.257308640349490414e-01
9.028786476880412692e-01
-7.812720583862384771e-01
6.365199393628737656e-01
5.234140991515505714e-01
2.847359566833184696e-01
3.507771170742535749e-01
-4.647956816741791730e-01
8.864148912499276722e-01
1.116382091571611390e+00
-2.571136930799023529e-02
3.483660315367620441e-02
-1.745859118473913063e-01
9.241817691229306519e-02
-4.091627236863197847e-01
3.333675492519646011e-01
-1.182623434942324803e+00
-2.611651680023381883e-01
5.082419506951530996e-01
-6.761634916173173693e-01
9.553024663121818527e-01
-5.976198669200371433e-02
3.401018224917104482e-01
-5.542382488811975483e-02
2.304883935882277579e-01
3.477487415685860950e-01
1.411844602726336495e-01
-5.945835070325795613e-01
2.222952443570665737e-01
1.705746273021468140e-01
1.151444437963810852e-01
7.097224286111279978e-01
-5.372364813867965827e-01
2.771479184497815385e-01
1.043836561531022306e-01
-7.014638623185105726e-02
1.025611949299190806e-01
3.753936908997811406e-01
1.437793551111577584e+00
2.319836355043253251e-01
-4.522002791593653370e-01
3.316605565783808385e-01
-6.304182016597265070e-02
-7.765314771952813722e-02
1.264154970662146049e-01
4.003875892570805117e-01
-1.613568251438808554e+00
-4.695489828838756985e-01
-4.307020100596168910e-01
-5.586171600983277918e-02
6.990577407533764553e-01
7.053049127716205270e-03
8.878161008886059635e-02
1.611771892067014045e-01
-2.312243554231208087e-01
4.433963267047301704e-01
1.062166319222937139e+00
-1.121896018248597748e+00
5.920249679272512194e-02
3.417689355338410923e-02
-7.771980917042881076e-01
5.889769909948513321e-02
-4.020106961992909178e-01
6.112354918602742604e-01
-5.879114378921438400e-01
1.358314516771794711e-01
5.990218256799993979e-01
-7.223298048768399260e-02
-6.832597702588988353e-01
-5.634345449969281328e-01
1.043236150523623451e-01
1.237413061559237970e-02
5.053695817464739365e-02
1.464092343760464432e-01
1.753813548383222065e-01
-4.914296777581044981e-03
-2.010250657806671892e+00
2.433086859751094622e-01
1.139852759927334480e-02
5.203036320857344910e-01
2.303419909862381154e-01
1.164432038171969164e-01
-3.168236335171089046e-01
-1.953648500364316420e-01
-1.195134356537325360e+00
1.265059686588934362e-01
3.778476370433392906e-01
-3.927509500791953045e-01
-1.991435218327622658e-01
5.627363847599896329e-02
-1.111934994405475580e-01
-4.030413635730634714e-01
-1.350137308958489601e+00
-6.546364643658502125e-01
-1.983226759753764501e-01
-3.334366969651684776e-01
-7.681152912394527410e-02
5.125418395015917186e-03
-8.655407824448383414e-01
-2.305194539224754979e-01
-1.562899377202702500e-01
1.679508309964893378e-02
-2.715150379567876637e-01
7.786935718015366437e-01
2.996313614228992006e-01
6.908144692020891375e-02
-1.213897360728269703e+00
1.574294540237796414e-01
-3.015560811987439971e-01
-2.704329954686523485e-01
-8.315022842748610588e-01
2.075879428316483935e-02
4.620449948007208651e-01
3.940787305887149539e-01
-5.111403662624948163e-01
6.005686151063599487e-01
-1.185486518849215853e-01
-4.860693567855458586e-01
-1.334713747891398405e-01
-8.256864643004468984e-02
-3.992690149924836840e-01
-1.796198868277216198e-01
-6.245166777516890644e-01
-6.547974463641615950e-01
-4.110850038031165221e-01
1.112037974162647658e-01
-2.603029191033343626e-01
-3.942382771152831700e-02
-4.577464876766337842e-01
-5.302630749327877924e-01
3.489587374513972856e-02
-1.135443655350714676e-01
-8.897520958487262557e-03
5.128097771454577236e-01
6.890817087216138948e-01
3.514398242911597192e-01
-6.064426915166093446e-01
5.478037045964572194e-01
-6.900851040829512062e-01
-1.058540084665968051e+00
2.590966942596628075e-01
1.405111749327383752e-01
-2.007868312306026679e-02
1.702916255102868426e-01
-4.596791553290266452e-01
2.863703274489610151e-01
5.998549481479700241e-01
-5.572681128264560524e-01
-1.514670164874317160e-01
7.535794758399855242e-02
6.968695698364140156e-01
7.113775646704562083e-01
1.572625795203373977e-01
-3.999235943945129712e-01
-2.275545287017519402e-01
1.196133062045083018e-01
-8.507617518301534287e-02
-3.804313919208917039e-01
-2.580179288996812259e-01
3.950213776353004858e-01
-1.014687924488821419e-01
2.134911440851539055e-01
1.210985867669380489e-01
-1.577386973641614620e+00
-4.714778699884835111e-01
-1.071810837082162182e-01
1.046203180887561146e+00
-2.906975886032381884e-01
3.063784333344931610e-01
-7.289545067085214658e-01
-7.299855490779000311e-01
-7.095639236557783718e-03
1.376873230674243720e+00
1.461586055469152601e-01
-1.468241129184854721e+00
-4.543220064386246926e-02
7.573863744995816827e-01
7.499218808861682906e-01
4.769993777382817712e-01
-2.426078595397230045e-02
-5.942646993276919920e-01
9.295462737535763464e-01
-3.060102377294499076e-01
-6.947230211307464653e-01
4.387780767525030212e-01
-5.418173184462695205e-03
-8.866372256598723522e-01
-2.485949825843311867e-01
7.806868735417837879e-01
-1.213358166478298417e+00
1.935231189384318540e-01
-1.642134331488043567e-02
-3.259405201053700019e-01
-1.712870654451082775e+00
-1.037980447991371680e+00
2.310384264895571915e-01
9.636581386056102261e-01
1.540651179977776258e-03
-1.824508474221480867e-02
-1.119826670478359654e-01
-3.551237429945367508e-01
-1.504125710381059577e-01
1.257605364455959940e+00
1.303319080261630680e-01
-9.842946935632767014e-01
-2.057759990894382773e-01
4.201216370939294675e-01
1.159783907406228970e-01
-7.540407974575241701e-02
-9.311844364324543821e-02
-8.123569014988915038e-01
8.681497592048373901e-01
-4.274933010970856095e-01
1.141469277753653783e-01
-3.203147826068150628e-01
-3.374571809646927101e-02
-3.923017839294625220e-01
-5.225454328961073314e-01
5.174553646006625485e-01
-7.225921218790770650e-01
-4.148893905412511796e-01
-2.807155958953664286e-03
3.303641577035988652e-02
-7.953170408740305453e-01
6.050424724888751049e-01
7.250107400442691585e-02
4.307021211322443199e-01
2.811285802877216966e-01
-1.065683340179564981e-01
-1.516462245008264043e-01
-9.913866646656058212e-02
1.592664847442197829e-01
2.395733388476109227e-01
1.322809840625314461e-02
-5.461372512859089534e-01
-5.868260634682065380e-01
3.074835302725595909e-01
-4.309383870515676174e-01
3.789655056653870591e-01
-5.996607436432799948e-02
1.216969488585164655e-01
1.192324163011541982e+00
-6.351488114804129115e-01
-1.713571943181111668e-01
-6.586053691124011955e-01
1.826439399252033913e-01
1.775517967216297399e-01
3.438257531627377794e-01
-2.463439798903545308e-01
-3.197924006461850821e-01
-1.546528314547237215e-01
-8.304907970015383556e-02
3.559582170481059848e-01
-8.714439547822033783e-02
2.100509813925613145e-01
-1.475102589183225621e-01
-2.589545919256747153e-01
-6.956780851932602150e-02
-6.635548650807623905e-02
6.489585091820511131e-01
-9.301352028938655869e-02
-1.638219937527075551e-02
1.113070191642183820e-01
3.846372218065453874e-02
7.876161384281822331e-01
-5.312839684007155672e-01
-1.133449320530115212e-01
-7.425269811135232212e-01
3.863036160565636729e-02
-4.051740744913874363e-03
1.056809892381774807e-01
1.067982973546977021e+00
-3.372693123647111380e-01
-4.855010937746946920e-01
-7.588313505960091465e-01
-2.294168633831658588e-01
-8.461282909736385360e-02
6.243697205533151051e-02
7.761137140828520964e-02
6.688053390128738396e-02
-1.125118993950502966e-01
7.052814502476044412e-02
-2.319795177030543540e-02
-5.747707262365467917e-01
-6.884810413481813607e-02
1.483342409033094333e-01
-1.700062553910706431e-01
1.563964154312091070e-01
-7.661639798238466248e-02
5.426708752990719864e-01
-1.401353287344875853e-01
-3.036491945540025217e-01
6.470821032342615187e-01
-5.620285121190669170e-02
-8.936398126521385987e-02
-8.215459427642803902e-01
-2.739615013119979514e-02
-6.001555479357917333e-01
6.983824551717000839e-02
1.232062756662455072e-01
6.755124244439559243e-03
6.038209530458108487e-01
1.358581444031996543e-01
9.833851146245362052e-02
4.544859908447197450e-01
-1.444180708426665016e-01
2.843769770102669292e-01
2.525534440392597224e-01
7.812465170819753169e-02
3.055049807959877434e-02
3.515800411799161612e-02
-1.714675377769295239e-01
-2.941145102716704596e-01
-1.418713581381628730e-01
4.958783508200737544e-01
2.979942524750064242e-02
-3.418807775371049407e-01
4.146402155351183172e-01
6.224631704625190887e-01
6.066007869894544102e-01
1.926745178763448196e-01
-4.427502162548336839e-01
-7.346970185308145107e-02
2.422831451237006939e-01
-6.456774813583747719e-01
-1.123986887661173606e+00
4.965260037006114305e-03
-4.763050664809487800e-01
-1.438036052760520156e-01
-2.091828281191400463e-01
1.631739460596193236e-02
1.156891906864583319e+00
3.800965474784414599e-01
-1.805493473387309936e-02
7.668262470766319394e-01
-1.245499153231846984e-01
1.176147907300835321e-01
-2.011526652938738224e-01
-7.786305027078738172e-01
-8.807218554582228742e-02
9.832651857484933644e-02
-1.614773311342253825e-01
-8.514457286547966186e-02
-6.748293998150212136e-01
3.733767451719534058e-01
-1.996387621096093190e-01
6.069198734522304184e-01
3.199429589372500549e-01
5.854681571212045910e-01
-5.100122587361469728e-01
-3.064993101350390048e-01
-4.545792680222117410e-02
-5.438034898470357065e-02
-2.215637711423690814e-01
-9.421937614647556136e-02
-1.316699611795980829e+00
-2.401098218691141706e-01
-3.772306292635198011e-01
-1.859492706181483865e-02
7.465544783025535036e-02
-4.996761038030047009e-01
1.100370848242891775e+00
-5.042947978002300102e-01
2.668049929848594903e-01
4.262875811261797043e-01
2.509584715961353796e-01
-3.211922025573212824e-01
-4.754825017801793674e-01
-3.993206700421018662e-01
6.982758495424156164e-01
-2.747186970075692937e-03
8.738316712942401088e-02
-1.238207162644674730e-01
-7.618691008038699364e-01
5.334521660879777416e-01
1.170980015624518561e-01
1.029164000570270687e+00
8.901098491247010358e-01
5.358981416861405833e-01
-2.558816512658882991e-01
-3.045636504875041672e-01
9.674293702056580013e-02
-6.929168950675690386e-01
1.564936463950956647e-01
-6.259366162761498265e-01
-9.900354750031303830e-01
-3.112363634002157653e-01
-1.452492645300985652e-01
3.378780691902573130e-01
2.368463300473475433e-02
-9.293132548965765682e-02
9.163756443147212938e-01
-7.081191953063193933e-01
1.976425737285198436e-01
5.331966173687758825e-01
-4.655285790359839360e-02
-1.841871168947374904e-01
-1.242720014113747745e-01
-8.940307388932455801e-01
3.918169383278937157e-01
1.147203218744898834e-01
1.264831210218168300e-01
-7.327509390235233122e-02
-4.923892969740694125e-01
2.095090797901672797e-01
3.021038639700693862e-01
5.530032286041568490e-01
3.030454356761120294e-01
5.620493311874352749e-01
-4.237610144923320554e-01
-1.925907631616231297e-01
-9.751181575727313477e-02
-7.067560797363738878e-01
-3.251122524422065396e-01
-6.696858669833246624e-01
-7.093266650796330453e-01
-4.322170215244540703e-01
-4.808385451869852112e-01
-1.169947348908411261e-01
-2.116192533354765426e-01
-3.621081950164901642e-01
7.473683468554583875e-01
-2.647981755182396979e-01
-7.244886605086156561e-02
2.401562523958686857e-01
2.684176347159765164e-01
-2.399459260763619206e-01
-1.790218447456408124e-01
-4.369548527508916869e-01
6.260865107975257526e-01
7.776547163175603905e-02
1.227634235659664230e-01
1.148911968166543285e-01
-9.752515030710067201e-01
7.154326235484922414e-01
-2.148244268422407621e-01
9.232138649399100894e-01
3.791111266328858198e-01
3.640072943577569720e-01
-4.745866585552327432e-01
-1.739625403803332637e-01
-1.130325218179162455e-01
-3.448047556285223081e-01
-9.464446169329572556e-02
-3.726988190361423259e-01
-5.828746614983717489e-01
-8.188911501508168156e-01
-5.681555227768380067e-01
-1.003325057192858277e-01
1.674554527382429714e-01
-3.430537296814588633e-01
9.652850207651608727e-01
-2.140464995455324537e-01
2.663251473922753076e-01
3.192338528697196143e-01
-3.072979232953731380e-03
-2.012476709154392418e-01
-1.205357456706980801e-01
-5.236006039132087286e-01
5.760409220894332494e-01
-4.360293206703996227e-01
2.333158314272761602e-01
-7.649046069393027059e-02
-8.289880127659733366e-01
8.180300126650604797e-01
4.139938643741373769e-01
8.538234655460036349e-01
3.109048218894233662e-01
6.163548884947582795e-01
-6.230022000827971640e-01
-9.247460023850124014e-03
-5.357839306496549325e-02
1.287245666317207438e-01
-8.368836618907371516e-02
-2.092039221898438772e-01
-2.018594891137988068e-01
-3.942775028028748241e-01
-7.945479693183610248e-01
3.370430091364818859e-01
1.144469770122696350e-01
3.756858003708516414e-01
7.468851547445417571e-01
-4.367437661100252999e-01
2.462284655529992927e-01
7.690981117359212416e-01
-4.242516958784427888e-02
-3.885493195735253980e-01
-6.657138549650902792e-01
-3.450679680204452038e-01
4.277439674875966880e-01
-1.121908996788270191e-01
-1.739001311877114986e-01
-3.170696708242233541e-02
-6.816966629082205076e-01
1.084748069908143986e+00
5.001157912733407429e-02
7.047860600294629796e-01
6.549549036582006378e-01
2.691495604663771690e-01
-4.383481606693753196e-01
-4.202091453506272001e-01
-4.834396079853465339e-02
4.299859532695152198e-02
-3.496333878267555151e-01
-2.359945180667194775e-01
-5.159916798359981405e-01
-3.608042336477361722e-01
-6.521174419117246046e-01
1.776703280948588592e-01
2.753451894101118236e-01
3.721522071809195142e-01
9.827642859409505549e-01
-4.410760585209156370e-01
3.951085218132860954e-01
7.915669085267685867e-01
7.673944021027592766e-02
-1.202562186071976791e-01
-5.713749562769862012e-01
-5.384141818017842418e-01
8.279963324438142092e-01
-1.556169952123930000e-01
1.539263797275750578e-01
-1.169151310301709545e-01
-7.188299418243180305e-01
3.774001003293440126e-01
-7.341789094054393394e-02
7.064853641582440336e-01
-9.646071026328985332e-02
6.326248548241784064e-01
-3.052283231807658703e-01
-7.781335204054662391e-02
1.856492867407353586e-01
-2.658316613937520834e-01
2.408428029619448865e-02
-2.303210136058626567e-01
-7.896826032220151115e-01
-5.194692608336065609e-01
-7.413437090298771182e-01
4.612144710303222039e-01
-5.836978604454436115e-02
2.782619300414664876e-01
1.288967310596923710e+00
-7.322349973083995822e-01
-8.711204158361569860e-02
7.660188281557333001e-01
1.015696766812830970e-01
1.086838197135957806e-01
-9.356358712844187187e-01
-3.171024007305195958e-01
5.751268859240350473e-01
-6.543341325085447191e-02
1.067423748501351577e-01
4.329826760242372341e-02
-1.028887476154256575e+00
7.202938505491451870e-01
-1.611063376953844953e-02
3.141655160443205808e-01
3.499536106104462335e-02
6.972474578608809370e-01
-2.414232437965961320e-01
-9.346815518070641926e-02
-1.205273378874646695e-01
-1.935419805440797558e-01
-3.713969238684373675e-01
-2.871711105999498748e-01
-9.118848661738877537e-01
-4.289288359249662230e-01
-5.593082559626232353e-01
-2.599299440450539844e-01
-2.609745904944624911e-02
-1.593633111901310018e-01
1.180768060893430560e+00
-8.971330572030630224e-01
6.281446946254986008e-01
6.912203908930990570e-01
1.509055798025990824e-01
5.956671467812619560e-03
-3.514236185402543899e-01
-5.926307947350697436e-01
7.746442732168824508e-01
1.687793901459788415e-01
6.593118855709220738e-02
2.394781442057042076e-01
-9.939418194704200404e-01
5.987969309830737386e-01
5.505954536738925931e-02
7.356223176562367572e-01
3.065293802242650689e-01
6.406524738290784171e-01
-4.003719484953741636e-01
-2.359587223946639500e-01
8.747777666234919647e-02
-2.539335291806675832e-01
-2.798456034760831712e-01
-6.700320530527950069e-01
-7.090456722403281065e-01
-2.846898531420505862e-01
-7.431857507288534836e-02
7.166340144547429791e-03
-2.420784164751662096e-02
2.195799086775920561e-01
5.994012213012044343e-01
-4.863258155878358302e-02
4.348893812231626743e-01
2.573340005330654878e-01
8.260645036484363934e-02
2.108887699799529836e-01
2.726727676590220417e-01
-2.126424134538064115e-01
8.724270532597062644e-01
6.544544599359954085e-02
-4.577507366446733617e-01
-1.958736167331099620e-01
-9.077952303657275124e-01
4.710283374140483703e-01
-1.231112380112782123e-01
6.295775310497936372e-01
9.867851530840962559e-02
6.528972867206171982e-01
-3.176369938690423167e-01
1.430372069550630079e-02
2.691992530772349124e-01
1.555859589798046505e-01
-4.774400987856936701e-02
-4.491999077479887359e-01
-5.780803130639843301e-01
6.486253986862205436e-04
-1.779801303732679862e-01
1.253596459088230156e-02
-2.362889990542776097e-01
2.175609017272856494e-01
8.151798213613627997e-01
-4.850882065632092233e-01
5.202087731898650258e-01
5.635872776275152596e-01
-2.834855081885652717e-01
3.419236136622767486e-01
-2.492660824922382501e-01
-3.156682798815562685e-01
1.087938525251498589e+00
-5.096696510229790922e-02
-8.482728437583750281e-02
2.656683859551348115e-01
-8.803846182319738922e-01
6.385908519406193751e-01
7.540531832645358534e-02
4.083694778780686541e-01
3.775119508232726573e-01
6.654366855113615919e-01
-4.333782655124246985e-01
-3.412042220224719702e-01
5.427115087401330334e-02
-6.919334546286688703e-02
-8.254280620664335155e-02
-5.329044026156216640e-01
-2.439731026536142156e-01
-1.523671309067363977e-01
-7.481238680610617919e-01
8.340828212550034648e-02
-5.951952923489846337e-02
2.169497165978459541e-01
9.911033046732622420e-01
-4.816557911955325899e-01
8.897294272060939369e-01
2.859019067980401729e-01
-4.470181799604433515e-02
-4.192247580243400884e-02
-1.766498697452618394e-01
-5.030297957416451915e-01
8.479927282004759981e-01
2.768483985153694649e-01
-4.672118270228676762e-01
2.156580721807117018e-01
-1.120866609456346197e+00
4.638304140655672425e-01
4.385426752166135533e-01
1.239211019388863216e-01
1.985956444753740335e-01
5.365426740983121334e-01
-8.558579053810799753e-01
-2.824905523684426711e-01
1.583175126892961693e-01
6.644600011216798829e-02
-2.225455343618506360e-02
-2.337436880014342189e-01
-2.761261442415719469e-01
3.062679139814685203e-01
2.878665432320187123e-01
-1.451752876383532315e-02
-8.868938993496898460e-02
-3.971741695128400140e-01
5.282911910384520127e-01
-1.010230368371584225e-01
3.483098129864891090e-01
1.664184306496563626e-01
2.693565742180008549e-01
1.152868726128700727e-01
8.820584825693054964e-02
-6.699854996180461784e-03
3.615440314596957694e-01
-1.109609344560943817e-01
-5.554298330165041708e-02
3.466502530770467216e-01
-6.229904317367147559e-01
4.651456808670523246e-01
-3.090796605140523345e-01
-2.695948179049674764e-01
7.150049508326068448e-01
2.114371127108908566e-01
-2.171054573778092023e-01
-4.644411558751292968e-01
-4.085165933600502786e-02
-5.295168230227241812e-01
-6.703659071925799351e-02
1.879679948307190762e-01
-5.622998727027860716e-02
8.479577107620563103e-02
2.841643714241690044e-01
1.373893983666268914e-01
-1.971674673833097025e-01
-2.783826196598687686e-01
4.377789391593433499e-01
-4.984776723615174515e-02
-9.105479062710854221e-02
-1.303565785644054120e-01
1.206681222682270405e-01
-9.281223825532061711e-02
2.607754830531107682e-01
4.463026168021197448e-01
3.934556122301731684e-01
3.404874075310402454e-02
1.887477416356564408e-02
-1.332196185318425818e-01
-2.866264734662750113e-01
5.510518838934552743e-01
2.481575410879249821e-01
-5.721927438776793773e-01
2.056562233903538872e-01
-2.146452156484103257e-01
-1.894203600800365983e-01
-1.625813456263550949e-01
-1.356186335532549581e-01
-3.318995230826277815e-02
2.316204978590563901e-01
1.199441426246540821e-01
9.275775800118912784e-01
-3.194006951064849442e-01
-1.287268009988835615e+00
-7.323249713199858103e-03
4.928210429159326708e-03
-6.786223180984808367e-01
8.658364860073013425e-01
-8.166156088925524692e-01
-5.503028569632565370e-01
2.526671708175406428e-01
1.171220523573213296e-01
-1.839483969990236487e-02
5.418413490587645764e-01
-8.923323570166435958e-01
7.167126657214923924e-01
-5.596650758805191139e-02
6.605177782572178857e-02
1.260744510951379016e-01
-3.539767997916883346e-01
2.703150616411184037e-01
2.820857329832737737e-01
-1.025648031194742016e+00
7.009265197468887987e-01
-6.862721691024224746e-02
-6.831760464290655144e-02
-9.895623034785394623e-02
-1.585090701013477377e-01
-2.897269015401310321e-01
-2.976383928663766665e-01
-6.344487523696632492e-01
1.848456709594021585e-01
-2.737826293837478109e-02
6.483337566340453550e-01
1.557426844460086668e-01
-7.885417823179123598e-02
-1.056227096385295772e+00
4.753943438593504767e-01
-1.512655102823606601e+00
4.156838919290756218e-01
4.616673162477656356e-01
-1.335249579453587077e-01
-4.944551891670531663e-02
3.826868775607404904e-01
-1.419586097028089633e-01
4.564843821392034484e-01
-2.455202230677470954e-01
9.538274976993399434e-02
-2.542851012098705232e-01
-6.979674796071287657e-02
3.061732947822876638e-01
-2.980900364378054057e-01
-3.576754176121517137e-01
1.339552564654798994e-01
-1.122504808094361817e+00
-2.487836678967188520e-01
4.088133306322089267e-02
-2.978430257715572460e-01
-3.688130782703199495e-01
-1.591301708336819720e-01
8.332340504750525012e-01
6.097546284857885412e-01
4.220870803418643735e-01
-2.784317213170494076e-01
1.803368322621572428e-01
1.278146281762687630e-01
3.055928549653184195e-02
6.221547293502052156e-01
-8.745579588884521138e-01
5.262188756576532400e-01
-2.084761996459162381e-01
-1.292486878876323575e-01
6.173080890348382477e-01
-7.319984799530372399e-01
1.301527523926235552e-01
-8.744851489023382218e-03
-1.624397027338910782e-01
2.837774646282977820e-01
3.692940401572532005e-01
-1.500730639346008199e-01
7.577008046860764234e-02
1.764972827739615668e-01
-1.331743353368330274e+00
2.136782406724545627e-02
-1.487849868792282981e+00
-9.530651858959802158e-01
3.258995394238738963e-01
-1.665829897763249773e-02
3.315393048519202791e-03
-1.814337930949374289e-01
2.875961825154109697e-01
-4.721206482317732989e-01
8.532533059234160833e-01
8.346097344011055297e-01
-8.062912621105415567e-02
-4.914732057232815837e-02
-1.313582654589957044e-01
1.987113485481775965e-01
-4.922928456736168634e-01
2.398274804554697548e-01
3.443557306371047844e-01
-6.027846867715071916e-02
5.445866019531966362e-01
-1.047914687769400943e-01
-1.153152111377735212e+00
8.576097409748277556e-02
1.337412871997924191e-02
-1.042998198970624402e-01
7.638216238772138622e-02
-2.626247964725460515e-01
1.653888455688761749e-01
-8.089430666505796619e-02
-1.432164493061945265e+00
5.812564728914780821e-01
-1.580114537390651108e+00
-4.343861304859401029e-01
9.846107474985198449e-01
8.821960025362396429e-02
1.724926249271540590e-01
1.852949388554313848e-01
-8.040668785959665943e-01
-6.752307569572267854e-01
-7.553766224072716584e-01
-9.849396698997688882e-01
1.952355363409462030e-01
-5.606757604389327188e-03
2.944655594807524257e-01
-7.169831770955572559e-01
-4.129112414199748726e-01
-4.002213204704439531e-01
9.379168217812261510e-01
4.861019207220398236e-02
1.449058927115632334e-01
-1.634218576351541330e+00
-4.766723676202357374e-01
6.232457803222917203e-01
4.045703308685399957e-01
-3.257382792904062185e-01
-3.529677148695216649e-01
2.174769729964395881e-01
6.648988059215031887e-01
2.128384110874567969e-01
4.226777035952382633e-01
2.675128812093579556e-01
-3.423665480114843063e-01
-1.679539392443597734e+00
6.097689892133185963e-02
2.917754428326107749e-02
8.645378162221637464e-01
-1.600647896790538191e-02
-3.168677899575537138e-01
2.120569801258801179e-01
8.222709280134508913e-02
-5.053680407182241652e-01
3.948666040389225279e-02
1.932250205721746661e-01
8.635564741165899783e-01
-5.546208818370763627e-01
-6.604729329042107189e-01
3.964261335968056743e-01
-8.602959765888253119e-02
-7.549113224422127066e-02
-6.012896494453844054e-02
-4.553002259400031337e-01
4.620781175403372854e-01
1.521760145867004699e+00
-1.194683567842304561e-01
-9.787118011514220339e-02
-3.506528289482201410e-01
2.184797785498144851e-01
4.496098370542452316e-01
-2.930550485840510699e-01
2.955555760210229477e-02
-3.047979633188198090e-01
-8.458932604535230881e-01
4.390550826075801938e-01
-1.647345335649485487e-01
3.563885754136676687e-02
1.128764741754773704e+00
2.763804652918762095e-01
-5.355899781125272180e-02
1.087982834458360193e+00
4.714267774259081056e-01
-1.248997825016756824e+00
9.408198663122624428e-02
3.596359208533028706e-02
1.103176995236314850e+00
-1.673482771161562480e-02
-3.135399295609662962e-02
7.503257791170300228e-01
9.315159807040062079e-01
2.207584942105786097e-01
-2.054031855408984253e-01
1.416119336219903435e-01
9.610440176252693645e-02
1.742413991896908376e-01
-1.567572182713944662e-01
8.085677389243441093e-02
1.114200922395420096e-01
-2.187285180206761936e-01
2.107001286572719179e-01
1.223026828582229539e-02
-9.422819758327224404e-01
1.308982866433852921e-01
3.137331804764312976e-02
3.038387448333849106e-01
5.294859794684079191e-01
2.819379858552589213e-01
1.444933040410937286e+00
-2.293859672912065828e-01
-2.149213118362789388e+00
1.520452510739100926e+00
-4.720156146183031587e-01
7.540772419745842003e-02
2.389425241223778074e-03
-8.841776574037119030e-03
-1.122176663452835177e+00
8.872909504482331400e-01
-2.962480155398156678e-01
1.161269750229835529e-01
-5.249551129515397374e-01
2.401260394827291478e-01
-1.057926468312942736e-01
8.690930557319400673e-01
5.467017521532153701e-01
8.019424967495012435e-01
2.423222157573316771e-01
1.164062699683878210e-01
-2.563179384831851815e-01
1.195258114690025408e-01
9.763446554385234455e-01
5.725488459402942876e-02
1.772602419131294460e-01
-4.178196277473454900e-01
-1.924188519419900434e-01
1.388508062299454782e+00
5.625340345747803505e-01
-1.556565115707944924e-01
3.104773528011863792e-01
-6.625695587454533131e-02
-9.907976276356623702e-01
2.771697387585074779e-01
6.566106786509767756e-01
5.093856084416334973e-01
3.356748202905864703e-02
6.646854014282848125e-03
-2.009309789329967177e+00
1.097965305283995274e+00
5.031012283613514047e-01
3.899431618714996883e-01
-1.484754753839074015e-01
-2.925590357464909197e-02
-2.215605698974223436e-01
-5.583941302717464472e-01
6.902593669782471075e-02
-6.129883810371130615e-01
1.924262147299843906e-01
8.516951077348482169e-02
-1.434711284455884028e-01
6.560561640286564078e-01
-1.743675942176461588e-02
1.830657759108509156e-02
5.464410308885830209e-02
-9.970544270891366079e-01
5.857067322547261368e-01
3.159246731657680218e+00
2.713625508643770501e-01
-1.462309896556845869e-03
-5.755215820099653934e-01
2.152284694749699856e-01
-3.527572220645178724e-01
4.809479936184509752e-01
9.267633121738088064e-01
-1.055154883748710276e-01
-2.329242332727662346e-01
-1.904523718237518815e-01
-1.249988313407298379e-01
7.087405706740140809e-01
1.061315814555583437e+00
-1.380928914521409590e-01
-3.165939545500047747e-01
2.286788543496488108e-02
-1.517753413978635835e-01
-1.222229629720634758e-01
-6.399456678267132492e-01
-5.745219654881384974e-01
1.652649259399976422e-01
9.284044181153526532e-02
-1.266678001581078294e-01
6.058701136506238205e-01
-2.868579988578577877e-01
5.114250387009240395e-01
-9.157016910075472804e-01
1.643376076128248431e-01
4.489325308430253125e-01
2.088427332528012492e+00
7.386156669255213858e-01
5.783289129470014361e-02
-6.083151098489626429e-01
1.652307574206267338e-01
-2.651393234134480359e-02
1.083787446873959004e+00
-6.608772812476880754e-01
-5.331319354255256160e-01
-8.677921671724894703e-02
-8.284737363951728828e-02
8.468936156999318232e-01
6.184613999241205251e-01
6.130165161238354532e-01
-2.654553461842793505e-01
6.843085391161690678e-01
3.694822548224865194e-02
-5.951546766253953402e-01
-7.574624458079176614e-01
-9.024346308770987424e-01
9.518684713966822919e-01
-2.573438060143067863e-01
-7.439672332928187748e-02
2.389395113705461773e-02
3.408681077845693297e-01
-6.374381275204998865e-01
-1.472529697557312667e-01
6.698015535648979002e-01
-4.910875039382940344e-01
1.055342770047725393e-01
6.599023737741319673e-01
-2.771982742895677254e-01
3.622807915056252548e-01
2.540314380007464012e-01
3.787859141126301982e-02
4.468172251921811999e-01
3.704070108581124926e-02
-5.378411383226836540e-01
-9.282021412989590603e-01
-3.107241928952557686e-01
2.276492647156511673e-01
1.537468491989040231e+00
1.470786409647169453e-03
7.439879437115963778e-01
-4.262075610633572209e-01
4.671390784489417580e-01
-1.138963042605468379e-01
-3.656371061968414216e-01
-1.967560241103039897e-01
9.461027610022076928e-01
-3.914007700640109166e-01
-7.992936252305377076e-02
3.771405533586731362e-01
1.966629112041228533e-01
-1.159858539182170745e+00
-4.877395913869277955e-01
3.496602907429766094e-01
5.199019804914557785e-02
-8.131323001756015634e-01
5.052643648400205745e-01
5.559628997265698702e-01
-1.959895906971674540e-01
-4.760449405254549987e-02
-1.032079068869290184e-01
-2.320495965556858275e-01
-1.626485124247782077e-01
9.706153648290258285e-02
4.636894590953473672e-01
9.754282540933906231e-02
-6.084829494957678941e-02
-1.094043230144385245e-02
-1.447019603006657607e-01
2.109811595113045279e-01
8.223670551931088271e-03
-1.073622798187845229e+00
-9.818717578191277218e-03
2.576387249422970593e-01
-4.701903650369747556e-01
-6.417600603685533756e-01
3.660220505709651725e-03
-5.832500463001220048e-01
7.773282165315169301e-02
1.865013917345824113e-01
4.059217929337441411e-01
-7.816901778163191095e-01
7.601764588088979480e-01
-1.521394563272256140e-01
-3.607196298120104450e-01
-1.843419858159227043e-01
-2.054462627967440225e-01
4.226559074003966021e-01
-8.745188991833664494e-01
1.833718371978658168e-01
-2.816024731054252508e-02
1.230600082429133546e-01
3.315828343664439237e-01
-1.164639218164378182e-01
-1.930114901333149502e-01
-5.877715799365205475e-03
2.029178105587188530e-01
7.032080089064457473e-02
-8.358730692926098493e-01
7.497568515774525322e-01
4.264460461153510296e-01
-4.639243139900852131e-01
-5.894476930130427839e-01
-6.588023529219788621e-02
-5.522393299685256496e-01
-2.526107385281397555e-01
5.362316869429315513e-01
-7.027971348947008590e-01
4.417423563196344605e-02
1.150972767206676073e-01
8.451256278964014435e-02
2.332651960695408255e-01
2.485094745804008187e-01
-3.011455079005200819e-01
-7.197042150623267354e-02
4.505430138066229828e-01
-5.026014026469950435e-01
6.697162958311760894e-01
-3.631085001714852711e-01
2.760004662100806749e-02
-9.343441839572552698e-02
2.008479157255002312e-01
1.778474541615230609e-01
9.662810162244352963e-01
-4.052067151454224470e-01
-2.806068160506013792e-02
-5.586071638776377024e-02
2.579343424260643336e-01
-8.313876963759549987e-01
-7.530646913617083937e-02
-1.725176910491100779e-01
-6.063150876359632013e-01
-8.525829888952772828e-01
-2.619771152575756101e-02
1.869496040116904179e-01
1.539228274501676375e-01
2.222774248076358483e-01
-5.908161459471699128e-01
7.678494630825148659e-02
-1.405991328852990727e-03
9.244432802545347883e-02
5.594862993095235382e-01
-2.837407617866198883e-01
8.497630391516951612e-03
2.173241880147924743e-01
3.279677400456643688e-01
-1.449620100358473274e-01
6.606245927056990652e-01
-1.117438786676118040e-01
1.680454028580674053e-01
-5.928241168220129698e-01
-1.892993500419981601e-01
-5.713333954333817966e-01
-1.390548245327426491e-01
3.277739309089714448e-01
-6.724715627596840328e-02
3.969024879670592365e-01
2.328391193801152836e-01
3.130967847929978093e-02
1.139177694519746958e-01
-2.116943177643984542e-01
-9.474595449172011630e-02
-1.001922792692753195e-01
-3.700640893346522908e-01
5.943165153609961809e-02
6.486993202297632044e-02
2.708948389321658712e-01
-4.378192268314343161e-01
-1.181349813973815582e-01
1.418325158117945128e-01
-1.492255646742347286e-01
3.079617876787122954e-01
1.011076911980577087e-01
8.901114246344106473e-02
-3.911563408142504916e-01
2.699782428086439090e-01
3.445158089446891947e-01
4.714507812457656155e-01
2.687130912054696563e-01
2.766846863984919191e-01
-2.521911149560011056e-01
-1.230552550004901241e-01
4.363366374497197331e-01
-4.359419360208224847e-02
-3.224232015781125504e-01
-9.638509991002134347e-01
4.986905957707588044e-02
1.845121492691814413e-01
9.612393414602120323e-03
4.937162332800667519e-01
-1.305220279275099912e-02
-1.590131877739933419e-01
1.558387644473655832e-02
1.365114049114874439e-01
-1.279719966619244642e-01
-2.592336820880313808e-01
3.533726580261625227e-01
-1.700779426612316347e-01
-5.481644412339700678e-02
2.720654416444414636e-01
2.986258172357651453e-01
-8.963270638716044902e-02
4.486497653959242715e-01
-2.122107397777084348e-01
1.384091453455094933e-01
3.545622854192393425e-01
-3.974631664790613528e-02
-1.054333319784658829e-01
9.666923736523064248e-02
1.753051781675761256e-01
-8.114822876645788607e-02
3.035242455060704891e-01
-4.888919060099702341e-01
-3.364676634752334361e-01
-2.252552849551242298e-01
-4.721204263686846758e-01
6.400147360072963587e-02
-1.258040840143974104e-01
1.972576964428959523e-01
4.107151923362026280e-01
-7.708865426854522029e-02
2.629176399554907784e-01
9.596324590954616318e-02
-2.325954293728650923e-01
2.247777285067184272e-01
-2.951835588544912126e-01
-2.616950505615876499e-01
4.397009427980905771e-01
-2.421356714454450387e-01
-1.007396298541024526e-01
-2.375320787795017485e-01
-3.218671565749006702e-01
-4.194030153294083657e-03
2.600369382824497810e-01
2.969555512000072173e-01
4.371720188327945511e-01
1.982532117373040081e-01
1.522826945574763668e-01
-3.253810190368717215e-01
3.890203051519200753e-04
-5.138145559798013018e-01
-2.295731434075350963e-01
-5.684129506360436901e-01
-3.670396734825682183e-01
-5.272861206288020908e-01
-3.663518417559515350e-01
1.827699161507639614e-01
-1.643519537380775108e-01
3.379443583838029896e-01
5.568058826023272179e-01
-2.426341317826380961e-01
4.385600995251208167e-01
3.811986706179066320e-01
-3.723066962095659266e-02
-1.970685703753655982e-01
-1.621306366613436689e-01
-7.226479193352989272e-01
6.375430294055209890e-01
-3.507192844505763740e-01
3.227272746036992379e-02
-1.743045657308093382e-02
-6.572173557943664646e-01
4.222581807072041671e-01
-1.585006182174997919e-02
3.919926069637635346e-01
2.120750280408015831e-01
6.229479342356912357e-03
1.970837373137385717e-01
9.981731228281866264e-02
1.332771990776197672e-02
-4.174360160073716242e-01
1.281336517605404235e-01
-1.180963472716527463e+00
-8.903817146990623543e-01
-7.014015121668509822e-02
-1.543862080049783203e-01
2.128385191748810856e-01
-3.001945225393656824e-01
-2.189863270147271168e-01
1.252750631297021133e+00
-2.401745360063667067e-01
2.466908972114200682e-01
5.060782479365134590e-01
2.585783125883309164e-01
4.651831739735425020e-02
4.493202977398391001e-02
-1.226395813442591853e+00
4.422698862325584734e-01
8.876219278636281185e-02
-2.573092846733049735e-02
-8.509982076349423274e-02
-6.546859534450910623e-01
2.750068431446814343e-01
9.954066741204864455e-02
1.170568804740207636e+00
3.327949394561587892e-01
4.199409585989861693e-01
-5.909916137853008511e-01
-2.231934032742944884e-01
1.285862827044610690e-01
-2.763616980346730867e-01
-4.155020322406196565e-01
-1.118288766758720021e+00
-7.857728595693835860e-01
-4.114191094968908113e-01
-5.340044294245300804e-01
4.667237855053194551e-01
-3.555012703269919694e-01
9.808137324437321558e-02
7.808682506625088671e-01
1.422123291779063374e-02
3.221151625891141568e-01
3.272693016859096193e-02
-4.133923494528009973e-02
-2.548642578781299545e-02
-1.517193245589577681e-02
-9.828513212050185022e-01
6.228753552783443670e-01
-2.112664288179531280e-01
1.970154469044036738e-01
2.886355192847971790e-02
-8.295928568455033236e-01
1.935806513871633494e-01
-1.601185369634378075e-01
6.247385444101699603e-01
5.897110143997067455e-01
1.891113838455804885e-01
-6.318755176373890281e-01
-1.806360772785447766e-01
-1.246652817970858029e-01
4.395491893749440826e-01
1.962880140491556624e-01
-2.359223542676373853e-01
2.192296897083653440e-01
-2.633995570825013455e-01
-7.318946398071840553e-01
-2.540490191781782925e-01
-8.987251822715173685e-03
1.313080001675492534e-02
9.560055019740636428e-01
-1.939303457471753048e-03
2.012784997417822186e-01
5.550578872667145669e-01
2.291158426013959748e-01
-4.951040081352411359e-01
-2.796108540404989018e-01
-5.096423869065214163e-01
5.768049414407980802e-01
-6.444757726532436386e-03
3.308701035522931266e-01
1.673342096470565865e-01
-6.683669253011256250e-01
1.231530749645906475e+00
2.488790482272719706e-01
6.675002395734662697e-01
3.489845981077758785e-01
1.519887646144537918e-01
-4.778624972576770991e-01
-4.101656885279993947e-01
3.211712168965214498e-01
-7.536744353420687936e-02
4.243664377133556931e-01
-3.458798476785998055e-01
-1.608799821810545094e-01
-1.285671576429008867e-01
-9.204113294144129487e-01
8.089651695047415242e-03
7.099587063643114648e-02
2.339369871580763705e-01
1.294472590667860246e+00
-1.037332708719188812e+00
6.340506196132595917e-01
5.778746168124723193e-01
1.424892374349053525e-01
-3.227544697483455405e-01
-1.699677831580088394e-01
-6.893766080295592458e-01
9.416014728342796403e-01
-1.970566181142557605e-01
-6.047113394020808830e-02
3.696885205324750290e-01
-9.389098553097089406e-01
7.653764111862600972e-01
5.663939073869828783e-02
8.723552997542779464e-01
3.375579707420076625e-01
2.650013251469741093e-01
-3.340031607008689396e-01
-2.146179357130790499e-01
-2.104389530013087151e-01
-4.066100884568212281e-01
-4.722649276613346409e-02
-9.835259682335374676e-02
-8.980336513990432312e-01
-1.231569069741973721e-01
-6.448971355278632078e-01
1.671016827978147878e-01
1.066078775059816075e-01
-1.634675919801994656e-02
9.627068759282473298e-01
-6.154042687170709902e-01
-2.691662561232744943e-01
6.376425064133870446e-01
3.582025425449088529e-01
-2.554104264102209920e-01
-5.761180310103394264e-01
-2.952341697454949343e-01
7.744669365005597550e-01
-1.668082263546013383e-02
-1.053570150829909353e-02
-1.388460687113529379e-01
-9.582427068017538296e-01
7.346717274904991379e-01
-4.561873557542275304e-01
4.514402706974872670e-01
2.957346454946983005e-01
6.192438892590613753e-01
-6.481063235200205108e-01
2.785791770058668737e-01
1.113281840295864272e-01
-2.235188398273757204e-01
-1.627472625750275015e-01
-2.962293471934913103e-01
-3.719273272979815026e-01
-1.316183759655101537e-01
-6.311926630235553670e-01
1.211491297406368239e-01
5.091675146711726468e-02
1.445986741998660507e-01
1.229465133008136979e+00
-2.090981429118786705e-01
1.485808910107911385e-01
2.698964948635181882e-01
3.746060132582544611e-02
-2.316121279088972640e-01
-1.788841284149861044e-01
-4.519755091813263403e-01
6.437433477724960884e-01
-8.295670194323330471e-02
-9.760535376459110457e-02
-1.818027564436725807e-01
-7.623997925665206843e-01
5.051172950019305885e-01
5.980181563459939509e-02
4.391521199637150041e-01
1.864687643447516807e-01
4.795540641636046875e-01
-6.415400692366840518e-01
-3.471846513271235057e-01
2.643289389802030639e-02
1.616859611736618518e-01
3.624702111726486181e-02
-1.022556772084615595e+00
-5.311325255451363470e-01
-6.279640728726361421e-02
-1.546150124686334337e-01
-3.166940821170273757e-01
5.762978742016456463e-02
3.613745273979283024e-01
1.149488366805391015e+00
-6.050626923454474060e-01
2.741398928081474895e-01
-1.597236302186237633e-01
1.232645095378289216e-02
-3.217567362381869994e-02
1.325200356778203081e-01
-4.376230487895818033e-01
4.495842649576202166e-01
2.423583488950518117e-01
1.464748232941099904e-01
1.457157811087471666e-01
-6.990926021212467978e-01
9.034997190289666413e-01
6.804307034661441489e-02
3.878612324100870756e-01
1.929360604284409142e-01
2.842453006123039083e-01
-5.567435532946872767e-01
-4.452743303937770070e-01
-1.105474879641027003e-01
4.905327599022284851e-02
5.011652127192425810e-02
1.132379557418299459e-01
-2.451245411373745298e-01
1.777834721899330395e-01
-1.701948517658478377e-01
-7.995235091355236412e-02
2.203769098509877900e-01
-3.168502429124415154e-01
9.697944430815533812e-01
-9.706377515109845255e-01
9.364952458444421035e-01
-2.333438267084353424e-01
-3.377885701394374163e-01
1.014289960568421217e-01
5.988984926766734995e-01
-2.999921394390074880e-01
7.001949238767714023e-01
-1.510000418897344820e-02
-3.840519137893707441e-02
9.169885897604439229e-02
-8.056918447079699508e-01
1.097742833044294819e-02
-2.351665289475361187e-01
-7.865617855932501012e-02
5.787142699109926181e-01
1.234163596050882189e-01
-3.743936425981015947e-01
-3.512926753846077887e-01
-1.781553072853856723e-01
-4.278140248634288989e-01
-4.731959203353343635e-01
1.425213747992504443e+00
2.786155552125582080e-01
5.069014586753843865e-01
-1.889666064066459691e-02
2.036127726631925261e-01
-3.395508940076481519e-01
-3.618104184928807587e-01
5.477412896003552856e-01
-8.491277402582688705e-01
4.633854220744856311e-01
-4.542188931778951555e-01
1.317398377630195905e-01
3.502936385829303889e-01
7.290382084112783101e-01
-5.239498360566323676e-01
8.874414062040536511e-01
3.335285609497694037e-01
5.681320562596475082e-02
-1.434400187888687506e-01
-1.483670694389187805e-01
2.889633132481789768e-01
-1.002746228318974336e-01
-7.336599840331045064e-01
7.341493445859237355e-01
2.584803118806369704e-01
3.161428267004102732e-01
-6.706192550889712445e-01
4.435062221160940288e-02
-1.723954558400565551e-01
1.718080695328742455e-02
5.218347188070695530e-01
-1.138571239054593509e-01
6.136016142467496381e-01
8.464705698499809527e-02
-8.391948358346998371e-02
-3.946336529653131087e-01
-3.414305634132377976e-01
7.377221903394107771e-01
-2.549417157660778255e-01
6.856228373884344363e-01
-2.115403297954209227e-01
-1.235211816758483155e-01
1.809524784143816054e-02
1.102349786504107865e+00
5.610240672734639888e-01
-2.114542986718657425e-01
-1.967650145167903764e-01
1.375625888942803021e-01
-9.976203681573717064e-02
-1.640766723592355092e-01
-4.721107735978680858e-02
1.358240936195524162e-01
-1.002967701129227951e+00
3.809063876888417188e-01
-5.382602919542098796e-01
-3.825073261798579705e-02
-2.450067928015412511e-01
-2.863975422373407631e-01
-2.090135280958992925e-01
-1.388518637875733319e-01
-4.113288966490302179e-01
-1.102865637219012235e-01
9.642143435125972994e-02
-1.238095352075324174e+00
-3.954006028960002084e-01
2.113507794570492968e-02
-2.697265667858365634e-01
1.101334948979955763e+00
-3.001316079976807938e-01
-5.585398946944688525e-01
-4.261721273321374959e-01
1.283757399642919683e-01
-2.377765682468536701e-01
5.539809286765610130e-01
4.053231234253484305e-01
-6.836251980093741021e-02
-2.668660551587606622e-01
-1.062035697790105343e-01
-2.875066012516330760e-01
-3.344017062170078769e-01
-5.224104842957264516e-01
6.263075130881826103e-03
-6.805814300122602356e-01
-1.218540187414576259e-01
3.198790730287625061e-01
4.688799247174471607e-02
1.513688920513452107e-01
1.994899779588180100e-01
-7.385447508751540324e-01
1.193018884229005566e-01
-1.610474951783926967e+00
-9.228134723373783155e-01
-5.057674232502674672e-01
-6.852881175295356675e-01
-1.160783972705745071e-01
-8.577306264961474802e-02
-5.133932917600351198e-01
2.048533135799476823e-01
-1.903301438432677628e+00
1.418079373698004075e-01
-2.144390362432030683e-01
-2.202954244494740865e-01
3.750589662167445049e-01
4.897910558543270843e-01
-6.722112060364257013e-01
1.520187553889299215e-01
1.231814092770963098e-01
-7.743207875690945319e-02
2.445366734046973411e-02
-4.315031881045374718e-01
-4.626751516218201576e-01
-2.641951425437380832e-02
-1.201545619415978816e+00
-3.104290101619681108e-01
4.811134589259616345e-01
-6.379196740482021566e-01
-3.125335646705125203e-01
4.769712524734764925e-01
-1.535310371437863253e-01
-8.372403191002882050e-02
-1.318339113571698196e+00
-5.584414802668639932e-02
-3.495709875727874838e-01
-5.382589848978154394e-03
-2.191793541111992372e-01
-6.319423593784145865e-02
-1.853177019020147143e-01
-1.791634305146777018e-01
-6.486278075302870372e-01
-2.094599958248210825e-01
4.524324911744186106e-02
1.173997702537783218e-02
5.374297492823443267e-01
6.491587677975135806e-01
9.969137246232583072e-02
-6.013516997748136195e-01
3.436167434589449399e-01
-3.555743922703882148e-02
-2.804609637733124217e-01
6.346540521026682313e-01
1.545407860679839651e-01
1.451960730257249310e-01
-8.944374406252800780e-01
7.153010103528469887e-01
3.477917370060197300e-01
-1.661460845637745765e+00
-8.346522107997848827e-02
-1.550684630514920226e-01
4.689237847910025514e-01
-1.017247562795421841e-02
1.018000567217704377e+00
6.644875412259957370e-01
-9.967593008231039331e-01
-4.504096316217963691e-01
4.025720894148200613e-02
1.857500182561752089e-01
3.415840673114323711e-01
2.281538671695771681e-01
-5.404284384006233788e-01
-4.510012426066152824e-01
-4.431155771313094460e-01
2.044156653473171159e-01
8.205503571429588472e-02
-2.742400219484906754e-01
1.442656285457363019e+00
1.321277183390762999e-01
-9.688862905451997576e-02
2.810309821169158506e-01
-3.370049702953724635e-01
1.230866670172798161e+00
4.736860630058512545e-01
1.033675994339572912e-01
-2.164249249428475519e+00
6.011040835901846485e-02
1.028544871095608826e-02
-1.865794418173915670e+00
1.102308547949144568e-01
7.580622292308319965e-02
6.305352422475024587e-01
2.413171515180252968e-01
-3.180603523602217320e-01
2.277173477540866409e-01
1.382199627546800147e-01
6.987056835703467916e-01
-2.001875373334233710e-01
-6.141244463863506503e-02
-8.638961888285004997e-01
3.382553733978821420e-01
-5.764114701447226041e-01
1.238631550826439165e+00
2.865482543077186306e-01
-1.250524094196746316e-01
2.914748816411037724e-02
2.080032778626269285e-01
-1.512352470228976564e+00
7.353874976772896421e-02
-6.991995031025720342e-02
4.228964661820160814e-02
4.563513084178458246e-02
1.406090108610928313e+00
-5.178392581973328967e-01
2.964356778886804711e-01
-1.870765965156139687e+00
1.198471110959094948e-01
5.168261468194154662e-02
-2.348748846240950039e-01
-1.856758307012848386e+00
1.820151079914262005e-01
-2.696567583643030841e-01
1.097585989178373883e-01
9.060927624640301159e-02
9.198764175873637428e-02
5.171706340513015920e-01
7.574283994324482183e-01
1.080697302409484722e-01
2.387809522278190877e-01
2.289919378048035359e-01
-5.760627898132844038e-01
5.966482224362590348e-01
9.013617259206060384e-01
-8.924910281862870054e-01
-7.857753558107664904e-02
1.382182816311418039e-01
-8.513403616798949358e-02
1.088553021298652862e-01
-2.676469441979235420e+00
9.009144794232856746e-02
-1.230415977019896079e-01
2.671606326022360478e-01
8.602441447855647683e-01
-3.276613820608787475e-01
1.118796033029016181e-02
-1.118279514807469344e+00
1.019205072246335053e+00
5.149648169150832233e-01
2.025016771781061875e-01
-6.148121291720061166e-01
5.005007970718381577e-02
-2.584684977021322050e-01
9.780707944236115281e-02
1.052736398342197122e+00
1.058406477118112976e+00
9.618445583187453796e-01
-1.009761119725903544e+00
-1.095823050013504385e-01
4.578102622732511118e-01
1.066874821605758639e+00
4.582304337712418407e-01
7.664368684739287785e-01
-5.685845912802632574e-02
-4.306497223211361858e-01
-5.393491083802742087e-02
9.065782476548953084e-02
-1.059925112711626261e+00
-9.233091168876885746e-01
6.752784831965558121e-02
-2.215198982152271623e-01
-4.279060380235399919e-02
-3.333098594825554817e-01
-8.473445236248685619e-01
-5.200788706557429864e-02
-1.923716313288735200e-02
-1.107396483009433830e+00
4.173937424304339366e-02
-2.776738851215445614e-01
2.514794401240593724e-01
-6.596205382989765720e-02
-7.730332355888050455e-02
2.359510500585202952e-01
-2.588422245076069626e-03
1.043487125139960503e-01
1.255769526091648602e+00
-1.141436300154897859e-01
-8.618927749810348371e-02
2.054086398916401754e-02
-4.315090945304182468e-01
1.972240974686632953e+00
-9.703274312731851037e-01
-3.146887140256086901e-02
4.041118109155699134e-01
-1.851671980305266141e-01
-1.372556409081569229e-01
3.935138890558391445e-02
2.043002002932530758e-01
-9.225676094960172380e-02
1.313036463737742299e+00
-1.811135857018093820e-01
-1.453553213905213193e-01
-4.588739211837006837e-01
-1.144415629913752980e-01
5.100367288039466818e-01
-3.226377204978302937e-01
-3.445921499022216228e+00
-1.154930786367066364e+00
-7.460120440191042590e-01
-7.061333133537680551e-01
1.587012369981795068e+00
-1.023398649113471670e-01
4.161215680811217871e-02
5.026977810125089763e-02
-1.912793119442576684e+00
1.229417462996530208e+00
-7.756573131712569680e-01
1.190327888427811898e+00
3.655908314563379585e-02
-1.438661577041748241e-01
-1.581612676799289519e+00
-6.584058298387428509e-01
6.483068460939027666e-01
-8.879534651646152632e-01
-5.933555138604484913e-01
-7.695045406711069347e-02
-2.254223444885611050e-01
9.781016247079027393e-01
-3.938947964601612062e-02
-1.108473822313332358e+00
1.093887081879550832e-01
2.452459328675979378e-01
1.203640186967400022e-01
1.628137571701586905e+00
8.299117262487015756e-01
-7.117870963400355078e-02
6.115311102042728097e-02
5.492857032131651662e-01
-7.458071106088739466e-01
-1.091181636107554226e-01
4.481566824203275790e-01
-3.733933852829395272e-01
-2.395248154313470157e-01
1.432852905843374214e-01
2.828751468027278573e-02
-6.959455741540633289e-01
6.579030101458573920e-01
-3.937828370949398304e-01
1.606746738134675889e-01
-6.870462537330694619e-02
-7.381482527168778951e-01
4.578857691841159983e-01
3.499071944345749086e-01
1.122928898814382070e-02
2.691210449618328671e-01
4.176173060693445516e-01
-6.074323822040466059e-01
-5.387619833871126751e-01
-9.572313291990964812e-01
-2.778084203314645229e-01
-2.709975870043353496e-01
1.887447301850919690e-01
2.878761610680325989e-01
-7.883416560454449273e-01
-4.888861921718630765e-01
4.165152007799372558e-01
-9.738812265680286684e-01
3.670311211731072110e-01
-7.984481210164395826e-02
4.073103979392492802e-01
-3.349505657782509971e-01
5.068445004416234634e-02
-6.346112141826570907e-01
1.501503713421052932e-01
-5.310269299117019726e-01
-4.971780802662682103e-02
4.988182953638128914e-01
-9.737633841654332878e-01
-5.373854180783054213e-01
6.475939239453666618e-02
7.949098274521744223e-01
1.796158532413374864e+00
-9.873591686383683674e-01
2.187461722254039898e-01
3.369761491082274851e-01
2.737977043832897084e-01
-3.654546407268520758e-01
-1.128561521331581607e+00
-1.724710132375175675e-01
2.596224485903996237e-01
-1.024909978094540042e-01
1.119643202904305745e-01
3.477704201768663100e-02
-3.493476191257692820e-01
1.489166340612321504e-01
-5.031205091837209764e-01
6.469850531013522366e-01
-1.259870347148166037e+00
-1.459695507191361707e-01
-5.065172281859311454e-01
-2.483311221680279679e-01
1.699758972729235040e-01
-2.335442180254932998e-01
5.303342812434602010e-02
-5.999777401790878928e-01
1.837716820625134195e+00
-3.465560014924388976e-02
-7.418440054787553972e-01
1.364443436857765424e-01
-2.045026034252989903e-03
1.167406581330724252e-01
-2.780654905134526955e-01
-1.015087600393407063e+00
-2.307625620265307265e-01
6.783384540864523249e-01
-1.116280729112326675e-01
5.066447850529002261e-01
5.304487380855151812e-01
-8.204471588285523476e-01
-1.843614177070235921e-02
-1.261078283327519145e-01
9.520080049439375025e-02
1.756889510546863487e-01
5.514984352272968016e-01
-1.231570803917399343e-01
-2.164001114773638212e-01
1.613596898476289399e-01
-1.755376048104589914e-01
3.263688133376728695e-01
-2.137387960815636534e-01
-5.025773533498270051e-01
-2.437359208768837826e-01
-6.216235363266745667e-02
1.256852294299623876e-02
-8.085317710257108326e-01
5.373536837044805559e-01
-5.608165608809643210e-01
7.620074220275735444e-01
-4.774967464308189913e-02
-1.687891629478786848e-01
1.247502504260178169e+00
-4.568706809680198599e-01
1.493392487506432165e+00
1.003988429056666964e+00
-2.469784857230862274e-01
2.892135056317707634e-02
1.499656891666766023e-01
2.192470812046980466e-01
2.467497516708475752e-02
-5.069678246996566218e-01
2.058215281690666809e-01
5.423529504423278969e-01
3.208659661349195363e-02
-1.023428964792182372e+00
6.535297406203692816e-01
2.224279009780415761e-01
-1.183770982019987511e-01
-5.384575871925213475e-01
-2.180143593046879602e-01
1.859348173963841222e-01
3.492581507164466692e-01
1.852760291980547758e-01
-1.374047975423033696e+00
2.869897117188320856e-01
-9.657871447700363543e-01
-1.272514113190540419e-01
-1.615827346709820755e+00
7.796448577534074165e-01
-4.590042630654245920e-02
-3.195804615694987638e-01
6.374943061263119715e-01
1.803362663091356288e-01
4.408251820433776169e-01
4.793590571418040458e-01
-8.609421346523862817e-02
-1.750052247861810795e-02
3.768215075800096514e-02
-1.167165343318797177e+00
1.326160478159046363e+00
-7.770514442040197256e-01
1.477046220440108304e-01
3.835042315518336631e-01
-2.316445451316308801e-01
-1.107035250659222508e-01
-4.200274287718837596e-01
-1.575762407480024163e-01
-1.530100431601143507e+00
-1.243297883204741883e+00
-1.267970618970202246e-01
-1.667489958975114372e-01
4.952304766832367755e-01
-1.380374004569452917e-01
-2.372983249313900256e-01
-9.210913290588923497e-02
-9.310846134753228975e-01
1.180761648721991408e+00
1.010057819632535381e+00
6.521311669741700623e-01
-3.879316341313972932e-02
-9.672057174061249318e-02
-1.187633798525754791e+00
-3.512983826661082443e-01
1.345413941902132149e-01
-6.085921196973829161e-01
2.652395451116647609e-02
1.587173203476657246e-01
-7.775864832827193984e-01
-1.080219478804296251e+00
2.500361407518679191e-01
2.431717513571194367e-01
-3.579921324202403610e-01
-2.209977971629469365e-02
-2.899709330388662853e-01
6.336879928746114166e-01
6.981848707291636591e-02
-1.441465268913970539e-02
-8.354359416157487450e-01
-4.912077724218356090e-01
1.256953505745379562e+00
-1.827721697501331899e-01
-4.070842181398058313e-01
-3.510882759287202726e-01
8.259081824266531480e-02
2.432576657171039713e-01
-5.243672340164523549e-01
1.665714089945524501e+00
-1.168231029322097242e-01
-7.387318063384211431e-02
5.497002277205270682e-02
-2.351040624037202820e-01
-4.446524556009048140e-02
-1.040578639006379591e+00
3.880586952782800747e-01
-3.607131703036451364e-01
2.977666158153814413e-01
-1.190264696145537995e-02
-2.726783581855732330e-01
1.063788265907870789e+00
-8.366635867877943999e-01
-5.932527552671955640e-01
9.195942074643483066e-02
-9.581673624127641509e-02
-1.154296381793060017e-01
-4.006009562227109133e-01
-9.897135083629482466e-01
3.937651975900783446e-02
-3.759710661658346997e-01
7.593211867822557970e-01
8.532736734300959691e-01
1.030555015072255109e+00
-6.746341635678722026e-01
-1.839776247321862346e-01
-4.789585177339884120e-02
-5.708460128508113796e-02
-4.528940630737043338e-01
3.849944694436538972e-01
7.839275263751140921e-01
2.132049936060628759e-01
-1.063537483910370757e-01
-1.374959881530376238e-01
2.411997541871540029e-01
2.550862808463916220e-01
-4.505104794420290021e-02
5.765482386362046768e-02
3.261651117160943580e-01
4.996704228232835138e-02
-8.946825727745623125e-01
6.216440091669540591e-01
2.783209737165930897e-01
-5.908139955368016949e-01
-3.991268147192457150e-01
1.611965666853371615e-01
9.717550098012643633e-02
4.832642161267293179e-01
-6.483741252460162308e-01
7.589071503677317920e-03
7.509531782260422395e-01
4.734580531421222482e-01
-1.059800445071101965e-01
1.021487632417551250e+00
-4.584217022930544005e-01
1.461751095130949252e-01
3.237255285398958904e-01
-1.644035835403256582e-02
-1.016129495623696588e+00
3.819153759213931298e-01
2.418737096404506015e-01
-3.878814069110265716e-01
2.389023758238723871e-01
-1.469993052799965227e-01
-5.087552715955376281e-02
3.940452326040299047e-01
-2.247934709708566958e-01
3.321735110072876473e-01
8.198475828923378061e-02
1.401553281550072839e-02
-4.558217666508101451e-01
1.622813596001138614e-01
-6.561993291611789569e-01
1.290362152175632531e-03
1.407788595131269707e-02
2.726399416115363183e-01
-2.681044851892159797e-01
2.901414374635311599e-01
-4.191589667465131508e-01
5.791566694884626998e-02
4.867240798819792991e-01
7.410893782373043637e-01
3.804713863576314470e-01
2.944776035201340236e-01
-3.828463452071229622e-01
9.930890245304366259e-02
-5.103691293014794850e-01
1.832963246774335642e-01
-1.527688408854303237e+00
-6.095962215107988413e-01
1.317308219850103768e-01
-1.798072888100946676e-01
1.377658356942244866e-01
1.217897379763428420e-02
-1.964692573608534110e-01
2.182812321886025142e-01
-3.585768209623074743e-01
2.538617614280976875e-01
6.438335872758387257e-01
1.531093203064931574e-02
-3.234563234004287358e-01
3.980880846415794649e-01
-1.425724426548552692e+00
2.542224073321565081e-01
-2.084863366154690312e-01
1.218338060378949816e-01
-3.403311775159994362e-03
-2.390399661338896975e-01
-1.086838115594948445e-01
-4.369911557953780612e-01
8.751531912785698308e-01
8.016637998297998502e-01
1.028449375799149745e+00
-5.809084429055393350e-01
-2.007466935494334470e-01
1.292875436900659813e-01
-4.074171320339555202e-01
6.048442265244816096e-02
-8.331525792730118951e-01
-1.271638838553993622e+00
9.353939459935219818e-04
-2.810577734688670115e-01
-1.291326122739777926e-01
5.792843464033387707e-02
-4.185057503356863495e-02
8.132911305462977580e-01
-3.972577651006903299e-01
3.958098166414821262e-01
7.721271263803693163e-02
-1.113068872063716248e-02
1.313235902373203479e-01
3.630760564714967387e-02
-6.918014948366341121e-01
2.799760966096354053e-01
2.157232159194555909e-01
-3.847331590178204586e-02
-5.043370866446063305e-02
-9.612233061482326757e-02
9.130745759409790718e-01
-3.001394739802007994e-01
1.402566057630528773e+00
3.945106533393263337e-01
6.610461331402974761e-01
-4.549113897597942824e-01
2.772021416500019542e-01
1.630958383438905479e-01
1.442497461797765876e-02
-1.541946778863451384e-01
-5.259627420559664923e-01
-9.724459029423676570e-01
-5.184088860963264461e-02
-4.277960225013921480e-01
-5.507420863867881072e-02
-2.820999864063781226e-01
1.196719427511998557e-01
6.752357907453323538e-01
-6.417368782995936938e-01
6.273184181487018174e-01
5.018455806560787602e-01
-1.220016006861849717e-01
2.211451051712506194e-02
-3.411876106631983041e-01
-1.007980094328224219e+00
2.765964431737202855e-02
-1.034740090364098253e-01
-3.518651963458134524e-02
-1.004562119964212685e-02
-8.908563686328679898e-01
2.249950872310824135e-01
-3.545311124856608334e-03
8.865346471356000402e-01
3.153312195664788598e-01
5.395318860763155255e-01
-5.740696963821442234e-01
-1.924408088998730976e-02
1.394476870919529321e-01
3.145231992160388290e-01
4.296238313466192449e-01
-9.197957518456187920e-01
-7.434968068738728730e-01
9.701263268853235755e-02
-1.339445280716720366e-01
-1.461958277520919404e-03
-4.854910872989075254e-02
5.555217838667801319e-03
5.526454436906068635e-01
-4.286191110317479347e-01
2.868607324318356855e-01
1.033390020453355956e-01
5.706236898117514333e-02
3.640512337604732626e-03
-4.471485305809916322e-01
-8.276070996061499763e-01
5.061276473863836056e-01
-2.328037052269447127e-01
-4.163750277075168454e-02
2.033128977803408122e-01
-3.652453275551104661e-01
4.250094494299256342e-01
3.573765889859522454e-02
5.623543982320672319e-01
5.627467769385429142e-01
9.302031103826930991e-01
5.151345957248566754e-02
-1.152080825205649937e-02
-1.516619241486151862e-02
-2.733823122657030175e-02
6.983749762736078670e-02
-3.493569879093375574e-01
-1.949274301894350983e-02
-1.551020782804339304e-01
-8.135430576228176447e-01
-8.353021534055933561e-02
1.398243372660914752e-01
2.478701992915581243e-01
8.372849739207343100e-01
-8.671142069666872843e-01
4.925082687876827237e-01
5.592964736093231082e-01
-6.374736813964207438e-02
-1.532189511000240680e-02
-4.392161274227056045e-01
-6.165275099029444705e-01
2.336026446506371812e-01
2.015126290960256861e-01
8.239326995366554052e-02
3.338850187473053899e-02
-8.708414161952222621e-01
6.552940628155471403e-01
1.883613626388477569e-01
1.092636899772569947e+00
5.747710741581406602e-01
1.246222562317416960e-01
-2.001110714017725056e-01
-5.281220573318594624e-01
2.760173939544418031e-01
2.287482605369516586e-01
-2.841705464090783506e-01
6.482953240005294437e-02
-3.459526693498085614e-01
-6.109281901668430770e-01
-5.507213333950262690e-01
1.751610538534155159e-01
-1.384528136786244423e-01
2.932714454070217691e-01
1.305232574485517993e+00
-1.552401554838118425e-01
-1.526438293694896697e-01
2.218128926506348630e-01
-5.370725274405405841e-02
2.468541585225743074e-01
-5.446622016796138777e-01
-1.672034017752983825e-01
6.197705380397695585e-01
1.081180495823112590e-02
1.341876841625704031e-01
9.680857140928543492e-02
-6.779633299224081533e-01
9.348095312694566505e-01
6.945114617423712999e-02
5.075414688549174658e-01
2.979383874089578943e-01
5.580225958970508326e-01
-4.160898083338644970e-01
-3.057494528732128125e-01
-5.625130690309115833e-01
-2.059098616207213350e-01
3.909878868250873940e-01
6.422252994134210191e-02
-8.382728454702452758e-01
-4.873287304000020748e-02
-7.055561643841609110e-01
-2.472996844794174975e-01
-5.273273649129781721e-02
-8.545910498122931409e-02
1.174232493944940448e+00
-7.483666049365790274e-01
2.994396558701371003e-01
4.207317131173758384e-01
7.140688591606071667e-02
3.909026129187472692e-02
-5.630584430208606106e-01
-7.790742962649823689e-01
8.856523809281885429e-01
1.170558780561785639e-01
-6.335371479641517534e-02
4.405350315608497908e-02
-7.363871061611487745e-01
8.491237181293727065e-01
2.178909815999605371e-01
4.497925375882268484e-01
4.389190628196508737e-01
3.192084483467292344e-01
-4.050115535245016329e-01
-3.425653293463382654e-01
2.326423909158710779e-01
-7.322156468516231864e-02
-2.913770549961768319e-01
-4.977146139225672311e-02
-1.101081977170393467e+00
-4.438675872275115591e-02
-7.217733823862190756e-02
-1.537801185734937182e-01
5.428990090795998702e-01
-2.881290266939048883e-02
8.215504111647473628e-01
-8.675375892046113258e-01
1.827275120150879117e-01
3.441256397467285510e-01
-1.730839769545818307e-01
5.206350880138040788e-02
-2.383105405786765107e-01
-1.426402238313484727e-01
8.967092362882499446e-01
6.710571603958630227e-02
1.863195015408426469e-01
1.145315629883685710e-01
-1.328987159791649997e-01
1.717081570055373207e-01
1.567969388312728529e-01
8.336422034041450491e-02
5.021317947824286421e-01
7.393726154272096673e-01
4.845613553554421055e-02
-4.441295425913986405e-01
1.155261504449823784e-01
1.382706601814407132e-01
3.074587899992653472e-01
-1.145159163488216336e+00
-1.250620284424408313e+00
3.172179755967496351e-01
1.018478605085672006e+00
1.713065206245580896e-01
3.670860026260623910e-01
2.439092311466470320e-01
5.154881767645288493e-01
-6.844330301176493325e-01
3.485320992082695524e-01
-2.614452889699904747e-01
2.809191185919171496e-01
1.671025966123533824e-01
5.337080032650287631e-01
3.507078742164131957e-01
-4.536587370562492616e-01
-2.392413582845480113e-01
3.016897365638629425e-01
4.112908192604591839e-02
-2.477144148188003756e-02
4.013297804868461438e-01
-1.711687357582525049e-01
-1.315949667654731370e-01
3.890524223475562704e-01
7.728386611363758929e-01
-3.554001336337562766e-01
-5.727502491864878698e-01
1.652861605641997578e-01
1.030062076275842925e-01
2.264611581200841328e-01
1.114738578496911936e+00
-1.449657985265870030e-01
4.945226905696061825e-01
2.107430471421674056e-01
3.169609080593652761e-01
-1.995866307950525942e-01
1.209016297204496271e-01
1.999641287454120009e-01
-8.269989259791933334e-01
4.668091570470347396e-01
-5.257216227283755261e-01
-3.941222113427596263e-02
9.528943007486916084e-02
-1.065706374291875702e-01
-9.678410404586688942e-02
-1.019848644598732701e+00
1.924449670135364443e-01
2.415069574040621114e-01
-7.109222891759786611e-02
-4.908218063648166485e-01
9.194368584199612282e-02
1.234054554394783121e-01
-8.081853607403869377e-01
6.633014514433768216e-01
5.706919173570229598e-01
-3.703830805439964902e-01
-3.812249723944394209e-01
-1.509737615818352863e-01
2.544729746956358313e-02
2.094301537688044931e-02
-1.406895139921619242e-01
1.251933981300423077e-02
3.585034962670735070e-01
4.712761260356952975e-01
3.005145326702986924e-02
-9.018236539132157281e-02
-3.779878894444661519e-01
1.163618718857572926e-01
-6.194248868824976384e-01
-3.461093449068834427e-01
-4.493687249141298246e-01
9.617995876025516033e-02
-5.509336304937493406e-02
5.461302352671174587e-01
-1.554062816077477760e-01
-9.920427166477825409e-01
-3.727996144513539556e-01
5.979534532302026306e-02
-2.275703401908748050e-02
7.973906745988264266e-02
1.418429009197606505e-01
-2.057664179221657952e-01
-7.322210596299999485e-01
3.504181139206095225e-02
3.587138033191930586e-01
5.258491004631234145e-02
-5.162760339961144362e-01
3.086829672529600721e-01
1.623592250675456594e-01
1.109548165815827520e-02
-7.630852148620168585e-01
3.420853486760920270e-01
-1.011207925659643597e-01
-5.508648900405234139e-01
-1.573000792492184469e-02
-2.079241816509259239e-02
3.107579354972805352e-01
1.243904701128436319e+00
5.093521180173398166e-01
8.432752942843602106e-02
-1.052032790199798784e+00
1.483759849421655286e-01
-4.916659222061586787e-01
3.675483895650541455e-01
9.279747343664552783e-01
1.133666418261518372e+00
-1.721113025445726308e-01
4.261250716613806250e-02
9.902425465434545881e-02
-6.791989208082852558e-01
1.389702509284258092e+00
4.496375668011112769e-01
-6.530288815731830621e-01
4.684056356912618679e-01
-5.377598373911733898e-01
-1.115659986575590734e+00
3.686798212784656581e-01
8.760467902035447285e-03
-6.193785592050785049e-02
3.141476051174703632e-01
-5.591690995538046716e-01
4.995193831788649619e-01
-5.862537261792598597e-01
3.138043360771866630e-01
-4.245162696570300986e-01
-2.236284430504880683e-01
9.297460390288007914e-02
1.157556358392204388e+00
1.848182272923134042e-02
6.270424762234232119e-02
-6.365568905259267884e-01
-7.293727254759267697e-02
-4.473475073475096653e-01
-1.039993123589821461e-01
6.890151540935312013e-01
1.355002774896935769e+00
-1.606532114054573801e-01
1.482101826479520768e-01
-9.328325480814808612e-02
1.274153530990450867e-01
2.861730897618059433e-01
7.172947855572618658e-02
-7.176683238743305493e-01
-1.926994961171241139e-01
-6.565870217101719142e-01
-3.750868112553599754e-01
5.684061639765548568e-01
-3.601796264900126304e-02
-9.955636351046036336e-02
-1.566268639831137621e-01
-4.361969530363264402e-01
4.223083628335521089e-01
-2.823290213077089272e-01
1.078364535112741773e+00
3.396630947370593567e-02
-1.095263086829474097e-01
-3.924804949099983120e-01
1.273624414917674974e+00
-3.812397648809351391e-01
-5.264102046784255862e-01
3.578583108180607986e-01
-5.303947234419713330e-02
6.337715189911774516e-01
-1.389031377932343769e+00
-1.044929406494922830e+00
8.791432037078749095e-01
-1.304385538224254459e-01
2.672988731770018986e-02
-5.977469288316106244e-02
2.229679440501345852e-02
-9.733213348114473362e-01
