3.511140710619916477e-03
-1.528669292498332222e-01
3.472843435441996252e-01
-3.673310115623314859e-02
4.916751104312537257e-01
7.417643146932839660e-02
-3.526744063746106717e-01
-8.478977582783721323e-02
1.011570814247789857e-01
-9.212048024973439053e-02
2.585207347448111315e-01
1.248005446274026431e-01
-3.093747820409623039e-01
-4.855087983604649410e-02
3.377878502866332178e-01
-2.243299015472720592e-01
2.535600688039659767e-01
-2.040144328249974062e-02
2.666626960174369732e-01
-7.425421745832614384e-01
1.773872778279400597e-01
-5.251976729731727689e-01
8.088970101884015995e-02
5.799115881680581147e-02
3.110774264922686397e-02
-7.692330807038089829e-03
-8.798090564726600282e-02
-3.026873569574983214e-01
4.410326082497912914e-01
3.997776910728297883e-01
-2.017283563316541184e-01
-7.228530541031377710e-02
1.517897811871998792e-01
3.392080151496718599e-01
-1.894310534095585141e-01
1.134713231719343407e-01
-2.187145573717416969e-01
-2.381221319110896333e-03
2.866008200465537392e-01
1.143857048058352088e-01
-2.580362726606260648e-01
-3.414485911989801892e-01
-7.425421942920178153e-02
-3.261619202861792410e-01
9.801601113176137969e-02
8.557678636159232743e-02
2.601441297511702389e-01
-6.466111771871976832e-02
-2.687193025223988396e-01
-1.168030682943045073e-01
1.033977211390607262e-02
-2.657950584459471965e-01
-1.653424768191208150e-01
-6.316612538834073809e-02
-1.101105253255183353e-01
-8.166219745871045044e-02
-2.384797489487923139e-01
-2.130194764365565263e-01
-1.579098529076490842e-01
2.937208613799838219e-01
-1.027023376628913853e-01
1.704048247574128649e-01
-2.264294970523345607e-01
1.460790806342809611e-01
4.581310657901901257e-02
-1.825345324898597354e-01
1.352419707443565378e-01
-1.239391503943133438e-01
5.062642254880908022e-01
-1.080463993897504554e-01
-1.395528343132256821e-01
-4.806671774225558802e-01
1.066236050768788468e-01
1.808962958516643557e-02
2.465964483457745715e-01
3.353751529283818117e-02
4.553693093377859935e-02
8.877045962433192938e-02
1.145222446265505428e-01
-2.479515360532076607e-01
1.051096824960746912e-01
-2.497513974623294108e-01
-5.874641138024357806e-02
-7.862517347220007724e-02
1.758860878123803262e-01
-3.422015896583600197e-02
2.115347641179907145e-01
1.838677465358390661e-01
-7.596941486743143124e-02
2.173742970178839662e-01
-7.214477028551383175e-02
-5.947034883283628531e-02
-1.471461626560247593e-01
-7.776538869147939237e-02
-2.168686149597471025e-01
2.459026683425769577e-01
-1.630405973633769212e-01
-4.299889043000543198e-02
2.550165602805302134e-01
3.738532479167313571e-01
5.549304375256285116e-02
-1.804008956879214198e-01
-2.828697177476889313e-01
1.015291003594191721e-01
2.544669862675475597e-03
-1.045570259244818917e-01
3.738661597486696575e-01
-2.439540336832387024e-01
-2.028831641881576886e-01
1.123206747920516280e-01
-8.267829001628217156e-02
-4.364354488366286589e-01
8.293402377434253014e-02
2.442480808792667213e-01
-4.134767151316753181e-02
1.878015791254485922e-01
7.337174159686017660e-02
1.395372350492890198e-02
1.897632860824455259e-01
5.038168576013350997e-01
-4.641913011846682258e-02
-1.482808445976866452e-01
-1.762206700716524854e-01
-1.629711020494639395e-01
1.807244316380532123e-01
7.508027565757049993e-02
-5.589105334428513816e-02
-3.283501922122427086e-01
3.315775993274521771e-01
9.000465724723147320e-02
-1.208477665571473930e-01
-1.189564304645173570e-01
3.710253591891974831e-03
-5.887072508329731918e-02
-7.222999089677478723e-02
-3.569351646265812583e-01
1.272632727547649001e-01
4.724011563632655730e-01
-4.470637837101786305e-01
-2.127467895066513237e-01
8.652481829944826119e-02
-2.133107770867387343e-01
-1.008980000749728212e-01
2.588333371572404951e-01
-4.716738478408424363e-04
9.042705211756589534e-02
-8.123920663943236253e-02
1.256675700632190092e-02
2.415030401876090693e-01
-4.048479087394077358e-02
4.940008377997036348e-02
-1.592835566538428616e-01
2.142282368182149843e-01
4.426715302606834546e-02
-5.274400197020825271e-02
2.912502939283923564e-01
1.303001489247041789e-01
1.521009373824713795e-01
4.350668725705509887e-01
-1.621459431229691217e-01
1.285147482394680962e-01
-2.032998899420288830e-01
-4.314292028825339465e-01
-4.168679705466005192e-01
3.521570499941619192e-01
-1.574050968621721058e-01
2.000230648131008926e-01
1.236393503155218399e-01
5.822390171201623915e-02
2.799858247028557123e-01
-2.730103640407505194e-01
-2.318186925958756195e-01
3.968731965304646281e-02
1.271264785235659903e-02
1.473175570664393697e-01
-1.102007153063425532e-01
3.029229975420393017e-02
-3.335989823868147630e-02
2.869823486455271855e-01
-6.357322080489773153e-02
2.106736755098195524e-01
-2.062188990457096416e-02
2.032807293884702216e-01
-8.352944089297707764e-02
3.772544222138827230e-01
9.986152594353797651e-02
-4.700863048188226416e-03
1.547818903992169981e-01
1.612173712701185924e-01
-1.119768197411785821e-01
3.818828883820883369e-01
4.024331494641454343e-01
-1.224308678279739659e-01
-1.374002087154306273e-01
-2.686744399444977380e-02
-2.289524039957021445e-02
1.534692844929280986e-01
-1.365277615124654842e-01
7.452863909265447506e-02
-3.291487793397765982e-01
-8.257328031555687727e-04
-7.731025274218056992e-03
1.098365361641172461e-01
-1.212592370743338366e-01
4.920239580569500393e-01
-3.380531438845656433e-01
-3.255623016247894963e-01
-1.977394932151733953e-01
-2.971179118397933999e-02
-9.454981995332988054e-02
-8.700889618742095599e-02
-3.700884534030633027e-02
3.064618531876918683e-01
1.847441411470470418e-01
7.323075024871382368e-05
-8.571639556369391177e-02
3.370835917119795189e-02
3.567424191630065855e-01
1.553381978802893392e-04
2.221306585963062769e-02
-5.880645520780452412e-02
-2.551400285399086365e-01
-7.960484983655738422e-02
2.100422064618122364e-02
4.984464153833515626e-02
-2.846096947926655130e-01
3.197276618404967796e-01
2.238776502465746887e-01
2.706040920549340201e-01
8.692606504625471908e-02
-7.271579638296424286e-02
-8.884662925087270791e-02
-9.029753258252466719e-02
2.284616130533039802e-01
2.017387423581060713e-01
-1.186466381163152513e-02
-1.356767879641883889e-01
-1.623083541293957321e-01
7.303617428520500776e-02
2.987915641944862699e-01
3.550556547999703105e-01
-2.140072666244331040e-02
1.110160520905124071e-01
2.243672527386020993e-02
-8.437100997626365007e-02
5.696192893731423512e-02
-5.525267227186229924e-02
1.066583158264354236e-01
1.428896273320196253e-01
3.918253101370952618e-02
1.371215323889898030e-01
-1.001384708858807926e-01
6.083950244586425887e-02
-1.597661302918863546e-01
-1.860300692235576647e-02
-3.293265231965182838e-01
6.956286386681962419e-01
-1.907848398460577077e-01
-3.472499274433624855e-02
-1.651137614901802830e-01
3.109403338676369755e-01
-2.058407476253643065e-01
1.985377294689059657e-01
-8.264909363354365490e-02
-2.030595178353371971e-02
-4.409921533736852611e-02
-9.303617353564642978e-02
2.303376086012565715e-01
2.508219342880097513e-01
-6.245788102765342797e-02
-1.458064512412133584e-01
2.062568791760418241e-01
3.275673505480946462e-02
3.570823385419794604e-01
2.775867227633213585e-01
-7.253262569577710595e-02
-5.144215224060628977e-02
3.524065961243363354e-01
2.237076650453504942e-02
-3.231230061405163112e-02
1.101377447096876933e-01
-1.533941247892783855e-01
-3.913912376500703338e-01
5.573559683424440803e-02
-2.723909368554434662e-01
-9.183232032465853123e-02
5.291476307007794005e-02
-3.333649654021698244e-02
2.219086573267006202e-01
-1.464501722468619094e-01
-1.633714961408134214e-01
-4.658574079436465509e-01
2.538966889022500339e-01
1.052888189722876455e-01
8.125120173650840494e-02
-8.731039210399010875e-02
-7.388990891106500536e-02
1.201644235961462220e-01
8.028845821715525910e-02
6.738716651169113225e-02
1.674595586889282006e-01
2.354407249409979364e-01
-1.211751512937656039e-02
-1.122334187455154009e-02
-2.297296155655463232e-02
7.737058865431414856e-02
-2.568778479513014190e-01
1.223013632083409241e-01
2.746695684311715735e-01
7.744232988623918346e-02
1.223499074256463870e-01
1.984647732544088661e-01
7.891543280070978383e-02
-1.094894422984016152e-01
1.407249433363697011e-01
-5.001550173846506381e-02
3.718482413474108461e-01
-1.495931338854183945e-01
8.904435323862351648e-02
-2.321059890466411479e-01
1.112979121764318818e-01
8.735472524630660818e-02
2.098162522463410673e-01
3.534662872112490639e-01
2.511395276035925314e-02
1.160316173881048574e-01
-2.090333574969360231e-01
4.694382472627224301e-01
1.580713437561199475e-01
2.097445465767698303e-01
4.606272006314212630e-01
2.495581923523915724e-01
3.761077429242647985e-01
-3.330636606061430083e-01
-5.690644227899191443e-02
-2.254285888443473551e-01
-2.633517294286141230e-01
2.400753791906736628e-03
2.940584462622111150e-01
1.535235161388439351e-01
9.121900039074992694e-02
-2.882302946641244756e-01
-4.332876798360468795e-01
-1.185613312926735441e-01
-1.115357128714245805e-01
-1.482795104758984073e-01
2.182586125976009594e-01
9.305668652111125094e-02
2.760233459030166439e-02
-6.323555163453991046e-01
5.935529477363563761e-02
-3.096576614105076564e-01
-4.029991426621145068e-01
6.049547709420125680e-02
-1.856592278162330079e-01
2.634496311139872815e-01
1.814898351682260602e-01
-3.944561468185775466e-02
4.035426451026338235e-01
2.621639853778793272e-01
1.647783925606172428e-01
2.439596141612887792e-01
-9.556122279433892919e-03
-2.093465922707013760e-01
-5.404720714560119765e-02
5.046003937469191181e-01
-9.597699812288015830e-03
-2.682447230199918459e-02
2.957566398707158276e-02
-2.914683805882959527e-02
3.426986727603422156e-01
3.808405388113181994e-02
-9.141333152123894135e-02
-9.747651877957817790e-02
-1.319555029974126825e-01
-1.753995808509617171e-01
1.484340748058383119e-01
4.593843352761162180e-01
1.955859019201463544e-01
-2.469380591749334997e-01
1.528562185068170487e-02
-3.515836638944858095e-01
-9.747214163350051419e-02
1.471866030722691343e-01
1.844411694030820281e-01
-8.431538159033441504e-02
1.133413046434963017e-01
-2.683411520778711812e-01
-4.145017481282375904e-03
3.425647983587835205e-02
2.901363483345437491e-02
4.241807599818861463e-02
-1.134405031613049120e-01
-1.570396608831498564e-01
1.995708908812525439e-01
-2.476104558560667246e-01
1.540480029561403230e-01
-1.647626657260103655e-01
5.101076075653199204e-01
-1.853983307189431273e-01
-1.732284050049380242e-01
1.825716636433387940e-01
-2.496175833300201818e-01
2.507918012406622210e-02
1.337413989856097996e-01
4.081436387500284035e-02
3.632719362442972111e-01
-1.076257921551553032e-02
7.463182012117945685e-02
-3.242559894094866335e-01
4.077906023584340622e-02
-2.965248515995253520e-01
1.039419027017818159e-01
5.303974658646485318e-01
3.252083988403407511e-01
-3.914237869036553130e-01
1.543373521815938620e-01
2.267037233779401265e-02
8.136953014434346321e-02
4.352202656844538220e-01
5.196534540651059214e-02
8.223748697035472566e-02
-1.493201667948196093e-03
2.138736186188914812e-01
2.263836480139218010e-01
-2.175354285073356209e-01
-2.127152413876285675e-01
6.575531162584385969e-02
3.035734907066024446e-01
2.069959098829788138e-02
6.749771233888951505e-02
-1.216398014116068377e-01
5.231616823759754203e-02
-4.386978429196916607e-02
1.283273972004806140e-01
-3.675803971021017191e-01
-2.347419086365875804e-02
-2.712332382832463029e-01
-4.747892411707689553e-02
6.926026997470493413e-03
1.952211388807621184e-01
3.641556155124088708e-03
1.362941567109323543e-02
3.356589666868620842e-02
-4.304519324225187377e-02
4.096567542813454033e-01
-1.354574500003771949e-02
9.615938053850420220e-02
1.188087257176463629e-01
-2.913425331416776842e-01
2.689694380317690370e-01
7.555097176513105028e-02
-9.357279391028659743e-02
-1.823742528404809493e-01
6.747529289518852669e-02
8.342302579486809977e-02
-1.832175735908889852e-02
-3.366606463808158312e-01
1.904725852508510620e-01
7.612462766009497894e-02
6.791889756307299512e-03
-2.374378077563629175e-01
-2.711205146409390032e-01
-3.489370832983166304e-01
2.635187316000884433e-02
-2.779157342013042764e-01
3.653290637900875604e-01
1.836971595023895870e-02
-1.211297239102457068e-01
4.595612462960533412e-02
-6.410331190768925325e-02
8.286008673437782190e-02
-1.706840417774590779e-01
-1.322869883504544930e-01
-1.036690790685732555e-01
-3.874412030390926576e-02
-2.624040422836623754e-01
2.265955142615374771e-02
4.680730171415653507e-01
1.495686793351994615e-01
1.070129351526117739e-01
1.060439475891168382e-01
-1.979755784383891715e-01
3.842003951683971574e-01
-2.567293964873205714e-01
1.650451563181242476e-01
2.057641780077556215e-01
-1.397305727074863169e-01
-6.452346648544987628e-02
1.217600368097955382e-01
1.793814587870103949e-01
-5.270069182678044362e-01
3.918961173980878288e-01
-1.005571009704137320e-01
-7.400043198845378256e-02
-5.935029133467278895e-01
2.052865959817982699e-01
1.028484478965662335e-01
7.227586101885390135e-02
1.830218472033745269e-01
2.384049310761444107e-01
-3.962192705756124589e-01
2.535757397128398094e-01
-1.757454901928064139e-02
1.491506280710983012e-01
3.714088334179442286e-01
-2.110516342765885456e-01
-3.121848736445571610e-03
-1.729323284827372353e-01
-1.438376592037354240e-01
-1.819168598851497731e-01
-8.449138400110929592e-02
-1.122308703428273949e-02
4.143980995301048409e-02
-2.833924494055825027e-01
-1.904764607233374873e-01
1.375268123780968299e-01
-9.170444137371164262e-02
1.196101660168957803e-01
-1.288790168335311181e-01
2.107188019671157042e-01
5.888913647191931083e-02
1.177462185031150493e-01
-3.586932894094353452e-01
1.307176632619982404e-01
-3.114883306620092607e-01
-4.681698976447967600e-04
-1.854099203435626009e-01
-3.067339084461209175e-01
4.799018679959221045e-01
2.353270834936733447e-01
-3.724099741743371883e-01
3.121656417355905822e-01
1.087206192821917883e-01
3.531240818994736685e-02
2.989387540839765767e-01
1.054393522842521913e-01
-2.684444435853215460e-01
-7.201620030734437461e-02
5.912606311861599018e-01
-1.540232907439499088e-01
-4.179627608448929776e-01
8.214658930340414111e-02
4.197199826679229306e-01
-9.374694930659649428e-02
-3.325235986103525915e-02
-2.167016330328515594e-01
-2.205688711777444022e-01
1.198928135025889297e-01
4.320713109667787544e-01
2.096318628189824673e-01
-6.054120375951384941e-02
2.712681896448538854e-01
-8.946022453543536757e-02
-7.266383908449801018e-03
-6.643543366861594246e-02
5.310325497839045727e-01
-2.977471428420330746e-02
9.391787972172169208e-02
2.063870109950908804e-01
2.518399372073553688e-01
2.017202560394732724e-01
3.487103118015090208e-01
2.193541025270294986e-01
3.579091595867927023e-01
1.041174607323751139e-01
5.432127924620935855e-02
-1.030380178859949120e-01
2.334306923105576026e-01
-2.016831315540083824e-01
-1.145106970921181827e-01
6.084566173902034719e-03
-2.287634065174499465e-01
8.101292956319790239e-02
-4.060612556089339409e-03
-2.614052600641730839e-01
3.579765483802895693e-02
-3.836950813938254379e-02
2.687591496121500834e-01
-3.136881785689574209e-01
8.759095097621223333e-03
-8.165600958253865782e-02
-2.214862416518174892e-01
4.858430665384286945e-02
-2.158512217030385538e-01
-1.241680725037640765e-01
-3.242853827087515545e-02
-2.385039996689887754e-01
-1.042849408063075412e-01
1.440926159491072167e-01
2.649420437521844418e-01
-3.860370586199429743e-01
-2.457113071586555508e-01
-5.157578571390831340e-02
2.193571865750811867e-01
1.288450331000521032e-01
1.916350862946367417e-01
-1.475202519193560477e-02
7.050848695192918347e-02
1.837322553157000604e-01
-7.303047843005863043e-03
3.699119731773010678e-01
-9.821775299993390843e-03
-2.815050246508386533e-01
4.005195563455942187e-01
-1.239041443332084130e-01
-1.987588338916857489e-01
6.388602684032333723e-02
2.227509638316539087e-01
9.467738409714343550e-02
-8.926198698582744895e-02
1.674789186063522506e-01
-4.420928466017531172e-02
2.623239310430709736e-02
3.537710715201483006e-03
2.420302596510581425e-02
2.283533835039659177e-01
2.280417257271556974e-01
-8.643089711277633647e-02
4.084421807170335872e-01
2.473505597114985799e-01
-3.637051537355572850e-01
2.571812392078218212e-01
1.546841991936797611e-01
3.803736284731905615e-01
8.528558233002780931e-02
1.598160023533103102e-01
2.446604598587063806e-01
4.334020478790749920e-01
-2.240927320982800675e-01
2.295158474691924855e-01
2.962996474132272851e-01
-2.663731561770150136e-01
2.840460778075875048e-01
3.056495454048130389e-02
1.102557738886195821e-01
9.381242141325131512e-02
-3.656436817302759906e-02
2.248334911816927961e-01
-3.283619612787791464e-01
2.360589566913124382e-01
8.013612489066949951e-02
-7.717895711147691740e-02
-1.555507265046688348e-01
-4.675429713586192609e-02
-3.343068229581613315e-01
5.656340792519767152e-02
-1.239159129269887527e-01
1.895847193848085865e-01
1.004943982579174361e-01
8.233992065259926330e-02
2.870516904604712427e-01
2.205304871934772870e-01
7.501590506562891281e-02
3.688405464938935285e-01
2.454750472955806173e-01
3.950315726992976485e-03
1.330461997931327300e-02
1.469048582468664155e-01
-2.389603407255722900e-01
3.009902358753169943e-02
1.529965495933380548e-01
7.207374219124209561e-04
9.940978835302380356e-02
-6.513941131098917314e-02
1.922307755869109291e-01
-2.036128698698366213e-01
7.062283499418267607e-02
9.359676782376934179e-02
-2.548528091863540984e-02
5.897225912956534366e-02
1.122543842282725489e-02
-5.581982098963983452e-02
-1.456372006987172694e-02
4.050233145826633713e-02
-2.248355687057484453e-01
6.621193006928018099e-02
1.153920582015019458e-01
-1.872676501527951176e-01
-5.850119657390660810e-02
1.000049849694251286e-01
-4.017365511774637632e-01
6.946365138419240831e-04
6.979076427771603586e-02
-1.807229336858829152e-02
-3.885357045546463522e-02
1.085271897879105246e-01
-1.483790653516701974e-01
1.467722770463631976e-01
5.241174228453753248e-01
1.815769077617476746e-01
-7.515373347956794126e-02
2.664054582548811348e-02
-2.337755438924388751e-01
2.266226949041814931e-01
-6.708314915639516929e-02
5.000789565185029262e-02
2.456233269060538655e-04
2.496770251483566572e-01
7.575542913646435284e-02
2.440047427238830058e-01
5.910138853396658398e-02
2.628769081375469385e-01
-5.166857816693402883e-02
1.837381996749511692e-01
-4.891504579209986492e-01
2.158298325792676678e-02
-3.624533667512471191e-01
1.267491711293793621e-01
-2.723164752875031902e-01
2.454958930353699775e-01
2.755756970002304004e-02
3.763663959766158640e-02
3.166753517055823641e-01
2.900490868424814295e-01
2.210157911191974744e-02
2.611664143721995415e-02
2.760141339965242469e-01
-3.206327979421836477e-02
3.404950585449337819e-01
-1.484237250142130815e-01
1.404181339547882212e-01
-2.689766698265569911e-01
7.584328242886138882e-02
-1.046247559909099095e-01
4.012197811731459812e-02
1.777926750527968891e-01
5.528613025866713215e-02
1.610664744825732186e-01
8.402832798588689978e-02
2.462361637551520321e-01
3.038233182438792590e-01
2.396042538221203333e-02
1.314414130698951799e-01
-9.330690791460382466e-03
-2.032308914825587121e-01
3.688046566019718142e-01
2.065999022153918729e-01
8.774221101937092204e-02
-3.115769503041388999e-01
5.594885605724715140e-03
1.584172152050928317e-01
-1.794373372819428603e-02
1.764453093863139477e-01
-7.936209825531945206e-02
-1.398377060305014130e-01
-6.483657816642204863e-02
-3.030093634261603053e-01
-8.842179768043612054e-02
1.765948305508978911e-01
-1.727733669575601816e-01
3.176461312124866931e-01
-1.986858047121947135e-01
1.746809929970258579e-01
4.795802116645294516e-02
-3.982620881238864152e-01
2.001458588889188928e-01
1.498543102248732772e-01
1.955069459383806940e-01
-1.375916895507768578e-01
1.490209896365583542e-01
3.808186819737678364e-01
1.546407850267212669e-01
-3.414823256135522400e-01
-2.205677915944630474e-01
-2.424151020022216052e-01
3.172708227112595591e-01
2.113259917394889054e-01
-1.264771218465051139e-01
3.451659436078676618e-02
2.176142501632371551e-01
8.378381769469157511e-03
2.789242948303415348e-01
4.009340464150519256e-01
1.804982998748761724e-01
-2.078249201496392973e-01
-2.320644866429147080e-01
3.338986194249268097e-02
1.110731908339975815e-01
2.146622975329820771e-01
2.905046527094530817e-01
-6.197367007730353317e-02
2.976403085425721740e-01
2.205853951555664383e-01
9.420321645823058476e-02
-2.985653508288245717e-01
-9.291982577514008856e-02
-2.371787807353395450e-01
1.242706594537784648e-01
-5.644632514557824943e-02
8.306974435407633861e-02
-8.227052549208689614e-02
-4.606381752442776367e-01
-3.261084928184109638e-02
-1.956391016130058780e-02
7.303307459022774506e-02
1.125795166245347062e-01
-4.096046184932319173e-02
1.579020298338973949e-01
-1.831660098923369451e-01
8.614969870287657316e-02
-1.298384081870409545e-01
1.909752343243093786e-01
-3.532395535113569407e-02
2.358229317252991397e-01
7.194764214822459147e-02
4.960518164952989334e-02
-9.470486447717595124e-02
5.939153726488850815e-02
3.964676909349820755e-02
3.619625356233661106e-01
1.127763111001329199e-01
2.329439161952401305e-02
3.337496545523105373e-01
-4.899755053615214434e-02
3.376697709771981359e-01
-1.376634501983915460e-01
-4.564294590149604869e-02
2.701626012459605874e-01
-4.117287246776268894e-01
-1.417960312898064179e-01
1.293299452149798967e-01
2.479752468212257505e-02
1.441182721288348373e-02
1.225431359476030352e-01
-1.831528108094520324e-01
-3.507082648321357271e-02
-1.983970697710010223e-01
-3.612934820452891604e-01
-3.176737229308564947e-01
1.501254921797360309e-01
-4.620318034787925660e-02
3.157351676171669119e-01
-1.175098787089246949e-01
2.126749855554295118e-02
1.269663788249073832e-01
-2.168808880604378431e-01
2.980529387429446397e-01
3.774668366104705908e-01
1.619259661249699556e-01
6.719401141895288421e-02
-1.291770902902383278e-01
1.147204360246119464e-01
5.176296636240546728e-02
-1.757493635296105694e-01
1.637616705943101547e-01
2.774040944751125504e-01
-1.195526972981044572e-01
-2.800319509110141269e-01
2.420526420175174720e-01
1.302494875267539987e-01
-3.076667279419399992e-01
-2.826322904890292698e-01
4.641395810880406814e-02
6.913010413956709177e-02
2.559298713166456921e-02
-1.816366476301435173e-05
-4.156272222142429369e-03
-2.493212782054716678e-02
9.621689625995825945e-02
2.232092110126564222e-01
-2.652466788476126602e-01
1.757485962034162075e-01
7.828848285592103495e-02
1.673314097819074975e-01
3.762661845565198199e-02
-3.068394663061101979e-01
1.218045974599102493e-01
2.956543392950716220e-01
1.723409227221343598e-01
-1.186999991859680886e-01
-1.643611499993860303e-01
-1.828705338421295068e-01
2.787494750461160242e-01
-2.138258174969593362e-01
1.621185910536008801e-01
2.201012365851226227e-01
7.623029181614696115e-02
2.911936752396880324e-01
1.508467097299091564e-01
1.754385181627839130e-01
-1.336627853207578431e-01
-2.572916541346340069e-01
-1.273027105320276020e-01
-1.173022894603652083e-01
-1.082973691194586696e-01
2.337702900651385252e-01
-1.957562231038781908e-01
6.975202019129700393e-02
8.355545722094187555e-02
-1.527519471143717333e-01
-2.410991307135627870e-01
-8.755135615865027032e-02
-1.230073961679836562e-02
4.193516808878774982e-01
1.261588904513411269e-01
7.985829729199526994e-02
-4.248179424918837599e-01
3.147991046085386602e-01
-1.053477140352638772e-02
-8.786145475073285638e-02
-1.231627369762494928e-01
1.055728772557441159e-01
-1.603721704829772499e-01
4.094266299223069117e-02
2.640707402244057284e-02
2.810353493305781658e-01
-1.273910960041910395e-03
2.936764883995313102e-01
-5.549161167656835314e-02
-4.397085205413604758e-02
-4.492612335598822337e-02
1.970788458319353564e-01
-3.232361949581129545e-01
6.696637696620183489e-02
-2.652809475235675795e-03
-4.317899466964839061e-02
2.291951592921968317e-01
-1.406133446302950882e-02
-2.276416038868432357e-01
-6.866472386145149043e-02
-1.983849826116089454e-01
2.719363157275764276e-01
-1.964968016531553896e-01
-1.716666533272376838e-01
8.212057682180803203e-03
1.496447923126947022e-01
3.967496580332052769e-01
2.897000282130630239e-02
3.367223333715427813e-01
1.967968810718645212e-01
-4.457566580840333775e-02
-2.166315910203727713e-01
-8.322127236193239963e-02
1.978663665290496254e-02
-8.826852356212985806e-02
-1.735801844643350689e-01
-1.149869450593458131e-01
9.492187329400048057e-03
9.883295885360598998e-02
3.150389247135954723e-02
1.314644147875143054e-01
-2.114321686397429567e-01
-1.051863538822811889e-01
-2.112651629876820258e-01
4.780762370701500258e-02
7.286726843029317502e-02
2.852719550030355933e-01
5.504894778475161871e-02
-2.924642133839963076e-01
6.691398669277175137e-02
2.524161822164455171e-01
-2.059221388329615099e-01
-1.341248411468148050e-01
1.687354365640554021e-01
-4.136948591103731254e-02
7.359037416713866409e-02
5.499810639171339582e-02
7.249658076499335135e-02
-4.628033901024167923e-02
2.668401212962916505e-02
-3.276422774700207818e-02
-2.722347107008686162e-03
-1.227500705181987922e-01
2.526711883533800385e-01
1.152107988680912271e-01
-6.518165912437856591e-02
6.768980563518163518e-02
2.515113832939291361e-01
-3.352037245201037741e-01
2.265033700742728751e-01
2.845823964366290815e-01
-4.765005789563074301e-01
-1.756859644382560426e-01
2.829154238180605629e-01
-3.726860220416911562e-01
4.153840399390474336e-01
2.366790435217232536e-01
9.444085204962872349e-02
3.234577249840414614e-02
-2.557212527131142998e-01
-1.027115443915749410e-01
8.020009611715862852e-02
1.644022334009009878e-01
-1.219334709131052186e-01
-1.189424427586023847e-01
2.805819836838892578e-01
-1.598224683148701530e-01
2.908962804153191264e-02
1.313443436842091361e-01
-2.321858412283571080e-02
8.225945811194015911e-02
-3.925787513413637325e-02
-1.106845387173858025e-01
3.583889587654619235e-02
2.762731004237863885e-01
-6.652104739496321473e-02
7.000854080542492919e-02
3.236386077863009358e-01
1.274250183656092383e-01
-8.589524597176179110e-02
3.288122597404120606e-01
-2.326420736961767044e-01
1.912625529830309923e-01
-1.050390314278692658e-02
-2.399118306908252229e-01
3.159790402896416883e-01
-5.887908978223072715e-02
3.952215075691842827e-01
7.515217110685360868e-04
1.030888519410408100e-01
-3.328745701928441381e-02
-8.722614550885733620e-02
3.261648635788367834e-01
-2.575597602295466304e-01
9.026673976509816399e-02
4.927775694599956929e-02
-2.029818533325981056e-01
1.145837776490381127e-01
-9.797021836129192474e-02
-3.258658326943394967e-01
-2.467274678863731197e-01
2.036949325071289729e-02
4.116517893520749843e-02
4.256655057287662969e-02
3.501994265227249825e-02
-2.295052315816056843e-01
3.111186552187291121e-01
2.871487174868232045e-02
-1.264037966568828109e-01
3.768053898990536554e-02
7.620890467790678025e-02
-2.429772540150308691e-02
-2.903616700537760553e-01
-2.275501052312997596e-01
-3.524400054948566563e-01
9.429832611786863111e-04
-1.865597233287544232e-01
7.804321171483795394e-02
-3.291584279410507408e-02
9.765245272454550762e-02
-2.436971346112050130e-01
2.010138370026887111e-01
-8.771102300594017798e-02
-3.562298598867465194e-02
1.073190394212547444e-01
-6.204704697973707772e-02
-1.867210488683215819e-01
6.149057985003946597e-02
-1.746391049268072593e-01
-8.915004649137606152e-02
4.716406075147100418e-02
7.156919986555661251e-02
2.280926015352572472e-02
1.870717302999205245e-01
1.516693282070703808e-01
1.422313458331453673e-01
-5.281612419984741541e-02
2.172104430105337991e-01
3.038118778525019104e-01
1.371447758664059470e-02
3.809627349213046132e-01
-2.183345292608195598e-01
-2.346193302039319972e-01
-6.414148267897905320e-02
-1.463905089614829791e-01
1.865306958663491277e-01
5.619463305096257522e-02
-7.489683519869567985e-02
-2.507848329157393377e-02
-1.952322581455100403e-01
-1.633152212993292662e-01
-3.403499795598463606e-02
1.652646963856695128e-01
6.998846729438482073e-02
6.028827751298307391e-02
1.656159914304643488e-01
-2.610195490197257384e-01
-3.629798615520091198e-02
7.870456145242389623e-02
-1.297878795423579312e-01
-9.339661951167325948e-02
1.338402098957849340e-01
3.567614149601074092e-02
-2.593191100613070343e-01
-3.888851809377233404e-02
1.429700127337012461e-01
-9.547115234360377400e-02
1.299041933915478543e-02
-5.959780961260416343e-02
-1.650792559316993213e-03
2.244142199991052966e-01
-7.361266658991763578e-02
-3.235325206288452299e-02
-1.142004532494552554e-01
-1.599856611754925106e-01
1.355699730173170747e-01
-2.417740736356723541e-01
-1.615214408244717847e-01
-1.932750886258909895e-01
3.622105685235522260e-02
-2.389485354791926475e-01
9.176172915833638588e-02
-3.329404567144420013e-02
3.635146401070774580e-01
6.213122084716737187e-02
-1.159963594388164349e-02
-9.010747962864645855e-02
-2.078621317680025195e-03
6.182403115021648660e-02
2.506264687780815903e-01
-7.508137000661842253e-02
-2.460687247385892062e-01
-7.357090532493179569e-02
1.952089842326488467e-01
-4.280688283688785511e-02
1.143225184342092499e-01
6.208271959778021154e-01
8.020564428276519275e-02
1.302237631493748660e-01
-3.024423331655186065e-01
-3.338599635691633649e-01
-2.838676538036381536e-01
-1.786027192378124573e-01
1.117496324210236480e-01
-7.181190920072584583e-02
9.181809999691492585e-02
-1.240541134780861893e-01
3.267810218556899682e-01
2.418782022376503027e-01
6.378255385032713387e-02
-1.038329578187199842e-01
-6.710760802125602387e-02
3.966431462451801560e-01
3.480224317062841077e-01
1.624793020098270480e-01
5.223540831623546543e-02
-2.275298546551075829e-01
-1.126758364198124779e-01
2.741427855791444754e-02
2.073619220486503101e-01
1.094183111510632078e-01
4.459543102607583798e-01
7.690753557397247975e-02
3.478648440954571486e-01
-6.292728521014712140e-02
2.693789105178213128e-01
-1.509348392984823928e-01
2.989586108537928277e-01
2.299842178299232875e-01
3.001366142637695300e-01
2.221079445760316962e-01
-1.827878754176676390e-01
5.267038709477401409e-02
-2.835722218368282865e-01
-2.702180465889326144e-01
1.076216700892176081e-01
1.910799427993304100e-01
-1.508362270610578704e-01
1.722515388548308615e-02
-6.043418822621306891e-02
-1.237555650063857648e-01
3.175704173742421865e-02
-7.451732152909454343e-02
8.171209697822674756e-02
-8.303508226190189911e-02
6.893202593575944656e-03
-2.586283608726584055e-02
-9.476595003564390607e-02
1.904096438978044314e-01
4.160576442115843966e-03
-2.095628256296475089e-01
2.251230645129392860e-01
-1.013858234656258711e-01
2.122469838300396205e-01
-3.005591106026870435e-02
3.536107481942817737e-02
3.958370209860022815e-04
3.386485493030496619e-01
-3.049741220082992643e-01
1.454337718178281835e-01
-1.509700798977933467e-01
2.237631648021884065e-02
-3.304525444195843265e-01
1.815719143576655092e-01
1.464695963435060921e-01
1.365184427531408728e-02
-3.651767641433336514e-02
-1.736228671091374354e-01
-9.258166294260923579e-02
4.444174706015824317e-02
-4.144752070723747850e-01
-2.147700203476262393e-01
1.412594410422858549e-01
8.054266382903557675e-02
1.111437157537391168e-01
8.388797808603407069e-02
1.816749923409325118e-01
2.517159680109933295e-01
-1.055910378374928099e-01
1.792157949974920728e-01
3.578547084962346858e-02
4.763174755899206303e-02
4.533030003642045391e-02
-1.730551556473603758e-01
-1.331840798071109999e-01
-2.278071274926402878e-01
-1.266153559256721906e-01
1.569205760151928253e-01
-1.673114790941498259e-02
-2.504644174209972804e-02
-4.893763736305824230e-02
-3.671795932883577529e-01
3.284339765126126354e-01
9.073130876120366617e-02
-2.427622294971449601e-01
-1.095534804914937987e-01
6.746109627892162008e-02
-1.973601199999584499e-01
-1.923881647233580960e-01
-1.707360954141281528e-01
-8.510606129916765961e-02
-9.494250288725968046e-02
1.309677804696547931e-01
-2.128281880774145207e-01
1.783878318568093979e-02
3.226917706122232055e-01
1.074746336295203386e-01
7.280922113393356598e-02
-1.074808521832401331e-01
1.303947707349063616e-02
-1.147801517292019458e-01
1.458073517648200979e-01
9.490080529055594516e-02
2.616141123180319994e-01
-1.268593750909561835e-01
1.318426705163396051e-01
2.298544174156350040e-01
2.788651882378213745e-04
-1.436504223645949374e-01
3.116700440745168166e-02
1.397536606786116686e-01
-3.186240943872221121e-01
-1.410312266809862214e-01
-1.178879294900322255e-01
-2.720319548387573061e-01
2.570212556988358821e-01
7.476203581222472250e-02
-9.680704463175547614e-02
-2.557644503674621483e-01
-1.132201067914989367e-01
-1.065465679412287286e-01
3.155564804826505032e-02
1.767945005558977656e-01
-1.700117116166926790e-01
-1.517481389009223483e-02
2.014267002395432882e-01
1.686969820495205219e-01
4.297051079580574418e-01
4.094455988136896929e-01
-1.263681730720276619e-01
-2.333244628949896760e-01
8.093831942554462200e-02
2.995064408246041476e-01
7.232316286143100625e-02
-3.047534430979421949e-02
-9.664454822695578429e-02
-1.875080644849579647e-01
-9.550066638819558473e-02
1.120078899134517234e-02
-2.332099548911019740e-02
-1.722839537493478859e-02
-4.089333289780267000e-02
3.081544502106178252e-01
-1.270297324036960829e-01
-1.540609845574384129e-01
7.043844625274187088e-02
-1.749595318127400712e-01
-9.380127983052816143e-02
-9.530541536814490441e-03
-2.342558680528259163e-01
3.336303830817374805e-02
-3.299272053692703377e-01
1.380369238377936458e-01
-2.193407581621134306e-01
1.176119692068890721e-01
2.332630104874762744e-01
-2.117466154109358401e-01
9.807891418555030050e-03
-1.382499431712368720e-01
2.540894977410084188e-01
2.588893802234232266e-02
3.418785021287513992e-02
-1.157283895471535595e-01
1.882856776681907651e-01
1.983270910312779078e-01
-4.936206215507868422e-01
-3.192801941973712476e-01
-1.077139100431242918e-01
-7.941986893997851626e-02
-5.467239139193622727e-02
4.577004662856470202e-02
-2.165892486805111039e-01
-1.788323667376501280e-01
-7.226100862349398024e-02
-1.135097150806354677e-01
2.217589442516237630e-01
1.202233456838453785e-01
-3.515590348625587946e-01
-2.514394295502586085e-01
-1.380136774021062385e-02
-9.679397264896821840e-02
-1.329142216115277164e-01
1.123245028662670786e-01
9.293546229698443351e-02
-2.630005040824740514e-01
-1.977720723867249508e-01
4.836275248975872854e-02
-2.300073323731531283e-01
1.718032599128740401e-01
-2.957407874610154530e-02
-2.569521815636665041e-01
1.912800489914354141e-01
-2.503918866562392931e-01
1.916483760202763731e-01
7.377079411744778825e-02
2.641746562914356611e-01
-2.127743033864784028e-01
-4.691657672746663704e-02
-5.234150097022235298e-02
3.131006822527758193e-01
3.315421361167799619e-01
-1.590028107352349229e-01
-1.330702404044339371e-01
-1.182896007667041775e-02
-7.824596265357761440e-03
6.831012618259080238e-02
1.739318329289192833e-01
-1.078467213836992594e-01
-2.317175814364603736e-01
-2.015837440911787959e-01
-1.946981355281781137e-02
9.146149037700547491e-02
8.747788147261725822e-02
-6.064492355706034565e-02
-2.553975130046369224e-01
-2.489851921401327328e-01
-8.458370136494391955e-02
2.845839659852197889e-01
6.512495319875773181e-02
-2.304837370797778451e-01
-1.712217440508221056e-01
-2.861394120254079007e-02
2.264768572663579393e-01
-1.594781791854174915e-02
5.413688131153945871e-02
-3.465376285281608348e-01
2.645860981810588264e-02
9.799938757825681079e-02
-2.928163049468143417e-02
-2.603443506814377972e-01
-1.684864637776159746e-01
3.335371831135270360e-01
-3.422162770005101051e-01
-2.142095883522577293e-01
1.479560235417792108e-02
4.381384235106230984e-01
-1.921837294762097081e-01
-5.534052495563897972e-02
-6.802414135400265682e-02
-7.581902958829830896e-02
1.132981197123963529e-01
1.267635725785692946e-01
2.577747392031444207e-01
7.669227441533832401e-02
-1.935641738391508104e-02
2.268418581044457094e-01
5.420715644467220123e-02
-4.001093027572305560e-02
-6.380991784908177089e-02
2.776604624324702838e-03
1.890141122948243158e-01
2.107504607457593923e-02
-1.800235470948855498e-01
9.189410542083256694e-02
8.809216825910236304e-02
-3.308507081629066260e-01
-9.570327491855209340e-03
-2.926644517342525953e-01
3.143805775878494302e-02
-1.813945028442965346e-01
2.966160202043055527e-01
-1.639784373524023064e-01
-1.200416891030263028e-01
1.713097163238185838e-01
5.304758385396787963e-03
3.140641231312499282e-01
3.317832588565980401e-01
8.691227274706921080e-02
2.233552689736604535e-01
2.078359442305227067e-01
1.001542019273888723e-01
-2.421699138753337713e-02
2.400418264579999850e-01
9.209866401997068852e-02
6.221450926647412172e-02
2.498798539980628952e-01
1.219259918824812799e-01
-2.091097586332812119e-01
-1.589172671222094935e-01
5.575476134375970637e-03
-1.217731910794168926e-02
1.420004222768911362e-01
-3.452851061421958329e-02
3.330788750744554383e-01
-7.958840539089470645e-02
-4.058525800073064516e-01
2.988158496379729190e-01
-1.127074352811374969e-01
6.585250489759578163e-02
-4.043405544866261747e-02
-3.323770397096732776e-02
-3.439389975023536272e-01
-9.037902400226709154e-02
2.840046439564650749e-01
1.410061733708906362e-01
3.297867396421712005e-01
-3.536332096971405575e-02
-2.390776379076484451e-02
-2.683174521993560435e-01
1.971466874827738636e-01
3.510179587916513466e-02
-2.649173124143774233e-02
1.501656990301273031e-01
2.249528245287684414e-01
1.973936340129826272e-01
1.151833063208042990e-01
-3.387469493151618605e-01
1.165640121462562136e-02
1.893363717986753236e-01
8.838941472740657890e-02
-3.655489678354071903e-01
1.359395950146571885e-02
-1.119214684518156228e-01
1.160313303351186986e-01
1.347049209389186708e-01
-3.527047084414086653e-01
-2.077595142996067901e-01
-3.908726818352070698e-02
5.537786669339266055e-02
-7.586890729883291606e-03
5.443106983187823156e-02
-2.241427180909368599e-01
-3.585280083783015659e-01
-2.204871319438549138e-01
1.822814807049087105e-01
1.875080226402112415e-01
-2.776112121621322482e-01
1.737622350407970195e-01
2.850276372308663819e-01
1.257567465589039812e-01
-2.318892069169176118e-01
-2.162833662179323643e-02
-1.435602230848158356e-01
5.892975713386465475e-02
-1.954238553512973042e-01
-1.488410560718540776e-01
4.035416629879230027e-02
5.839864638419579174e-02
-1.181272606494030986e-01
-1.290143427400161080e-01
-1.889436498155654121e-01
1.381678547303989701e-01
2.146113855841141616e-01
3.682036395625938319e-01
-1.996834751886059911e-01
1.644969310583203337e-01
-8.005261833016591444e-02
5.437380081753994121e-01
-3.117035106597928693e-02
2.666486342804246790e-01
-4.586482155849998243e-02
-1.236469752240601516e-01
-1.592720253446183731e-02
-1.509045301667938099e-01
-2.283635166093965219e-01
4.835085284836059816e-01
2.324853908540080172e-01
-4.529725050569962524e-02
-1.197488366073902188e-01
1.532102798094315821e-01
-2.400723006268255522e-01
-1.247620177219223025e-01
9.796855216816612033e-02
3.288730623792608943e-01
2.201988281436853545e-01
1.661647535479006399e-01
1.423430481262122904e-01
4.805954778780064385e-01
1.650815107323734265e-01
2.055475915483673255e-01
-4.477013075328212938e-02
2.277977809405876478e-02
2.673689329623383237e-01
-2.114016485795265909e-01
-3.783643291069257453e-01
-2.885092030361987581e-01
1.400094499419102523e-01
7.733907680945044383e-02
4.475260985243803558e-02
5.108715402833238772e-02
8.250556912980047675e-02
-3.650545635569822367e-01
5.561747474516659517e-02
-4.172021070952579014e-01
-5.057832612456161087e-02
4.033008783198736014e-01
-2.438697532317371797e-01
-3.007820129093412564e-01
1.709357715303010672e-01
1.586738665323615127e-01
-6.146090818207925466e-01
-2.520526984765186426e-02
1.116435732441862921e-01
3.607185167596362735e-04
4.164918385179287169e-02
-9.721506396786427917e-02
-2.617215001481774661e-01
8.296957330393175956e-02
1.536164243810281445e-03
-4.142515381997397550e-01
1.355691442721119744e-01
9.873792254194026230e-02
-4.071072651523620356e-02
-3.375784975678116084e-01
-8.549733260732658713e-02
-4.079136826759883344e-02
-2.425971364799089924e-01
-4.049695135780797400e-02
3.925140881173669882e-01
2.219227688869588322e-01
2.618837867749648773e-02
-2.604260616632634862e-01
8.476829546906433643e-02
-8.795844164199152770e-02
1.342710826593647711e-01
7.047627643097291728e-01
1.099122233155693934e-01
3.369293580048521863e-01
1.227468596305363591e-01
-3.568792329021049092e-02
-5.037106148296044417e-01
4.497031845350827894e-01
4.548644850995874345e-01
1.576239108521199916e-01
1.468437698974775496e-01
-6.869757602654165407e-02
8.902525014299507433e-03
6.194236946500362995e-02
-2.898806679112749321e-02
2.366747461361336582e-02
3.356978992770829340e-01
2.789127955517911941e-02
-4.643458862860895542e-02
4.097524896031867203e-01
-1.675645909048328608e-01
-8.718895707501189696e-02
-1.307164516675512755e-01
-1.119690184544091943e-01
-7.276979073423064936e-02
1.544540887754292102e-01
9.539192937372180381e-02
-1.326749152553323985e-01
-1.991311261950855505e-01
1.019197151150590813e-02
-1.419516898642533831e-01
1.628871498950305030e-01
6.307579881654719334e-02
4.078808434500941216e-01
1.888473799611821158e-01
-1.237440341095759760e-01
-5.130506239601242413e-01
8.724728342311313667e-02
3.009806309397122237e-01
-1.792140649759072779e-01
4.005571910034971816e-02
2.446478330787052458e-02
8.185840597760128678e-02
8.473105139832307064e-02
2.812654436072166073e-02
-2.278354307711936977e-01
1.611684769628545302e-02
-2.187343603927680569e-01
6.271054294106225002e-02
1.913503369592120251e-01
-2.800981239552586821e-01
-9.460344606571777920e-03
9.370543216258893360e-02
-8.310368946672058721e-02
-1.619012355953588778e-01
-1.601733728680863056e-01
4.230838608312033067e-01
4.900304492300368020e-01
6.223484406495739113e-02
-1.185866363080532032e-01
-5.058475281402173840e-01
-2.265962226267594637e-01
2.438126195243754402e-01
1.834080458636460076e-01
1.704670331112639881e-01
3.012592629349203910e-01
-1.969466695098992526e-01
-1.934479914241741816e-01
-9.851854703833040627e-03
1.571721605904107255e-01
5.952908805334087422e-02
9.783088644782805821e-02
2.391782694764013062e-01
7.027856677850562173e-02
1.118251215666466597e-01
-2.938337820435388825e-01
-4.347593473238616224e-01
-1.133774969585224363e-01
-1.289869869941575320e-01
1.143085206281241745e-01
-2.368471634958266639e-02
-3.550865470810120605e-01
-3.712266469228596155e-01
1.537499639912028038e-01
-4.989566244168716636e-02
-8.710643855437481820e-02
4.654163717262105870e-01
-8.205909577638198504e-03
9.921089303464358800e-02
-1.820827039284643456e-01
-1.691485528781118408e-01
-2.136968562758216061e-01
2.288247488510806657e-02
3.892771258205474649e-01
-1.628176948553035353e-01
-1.961414790241201855e-01
6.222298313578763368e-02
3.782115545308344096e-02
2.302855446365094649e-01
1.570413671222339186e-02
1.638021415534764436e-01
-1.678026508608570500e-01
6.482784143100744911e-02
1.424440295209155327e-01
4.953519890821672655e-01
-1.187140187377060535e-01
-5.545504071030038507e-02
2.055172257342222086e-01
7.715446667472461439e-02
-2.866719674077724059e-02
1.366700412884416793e-01
2.779393276636494270e-01
1.608498541881566157e-01
1.092895294914412868e-01
-3.646812137506086349e-01
-2.195404289424967570e-01
-8.800828827578881242e-02
-2.093489942920727376e-01
-2.544777757058778317e-02
1.175075608361128149e-01
3.109593436197772287e-01
3.368070930422355502e-01
1.035578607157843223e-01
2.499879300253622927e-01
3.443605561484759381e-01
1.217463401882335899e-01
-1.920229019518351066e-01
2.028485933725099888e-01
-2.562076142684225899e-01
-1.383127496290724456e-01
-3.791679372489700772e-01
1.577131730435581969e-01
3.957771012744082939e-01
-1.451710602032198760e-01
1.767355346848276665e-01
3.815910963057479455e-01
2.051073591123581813e-02
-9.527370400347580370e-02
-2.358452818520781480e-01
1.407216154053771498e-02
3.346493690141873895e-02
-4.328868900873081293e-02
8.137675403646416061e-02
1.965470544213349657e-01
6.648857117228225422e-02
1.883226072483391578e-01
8.565865926410771991e-02
-3.194602466571098143e-01
-1.282168336931600039e-01
-1.107162885673256408e-01
-2.306550536931949724e-01
-2.334281885615689112e-01
2.533591420136840910e-01
3.441698328906750426e-01
-5.166914214326337462e-02
-4.693624731250777699e-02
3.581460842142167311e-02
-4.490773751810105824e-02
1.827959894632954774e-01
9.075526206882386648e-03
-1.750834847895339497e-01
2.578290958696430324e-01
3.600576942950306503e-02
1.128887595011313916e-01
-3.081590287249194593e-01
-8.987321739757386796e-02
1.681939405714532598e-01
-7.584480980852265075e-02
1.209412050033786407e-01
1.896045822450263263e-01
5.974089627975245204e-02
4.376269005813705065e-02
-7.549931750908350780e-02
2.401986335512402704e-01
-9.079626407733421001e-02
7.840503067952407645e-02
-2.351197025836397336e-01
-5.900200752264378457e-02
-3.194544897101125880e-01
-3.056943145612337192e-03
2.874274443043063898e-01
-7.828878473237004323e-03
3.236586239052701569e-02
-1.560283033172348843e-01
2.582442509332549124e-02
-2.310271828418692941e-01
-2.255982353719372946e-01
-5.547041084301278929e-02
-4.584853252267962614e-02
-2.630771358654869219e-01
4.355518641789489220e-01
2.183289657600241684e-02
7.757405720518539827e-02
6.371994879447893945e-02
1.352169262399230409e-02
-7.424060324454906379e-02
-2.058046966826888868e-01
-1.820633606077550481e-01
6.158840506249601415e-02
-2.900359047072385565e-01
-3.294693939350725742e-01
7.992398540192393154e-05
-1.164233047954704031e-01
1.607069654910448508e-01
1.860664097150362475e-02
-1.399999226347121706e-01
2.343178488240922064e-01
-4.972065680476099869e-01
2.260549467300651261e-01
-2.156626929512816260e-01
-2.153879089615692577e-01
2.043943517249609820e-01
-1.557587393101142470e-01
-7.187419075854072081e-02
2.973571102836258251e-01
-1.473198690951903755e-01
2.213703122685783398e-01
-3.518018862938462332e-01
8.559163440486759755e-02
2.693765382299127542e-01
-2.710045847010040393e-02
-1.984667433965726369e-01
1.390368487029232103e-01
3.941494385926784250e-01
-2.231613193470361467e-01
9.367273169897992469e-02
-6.799867234235435973e-03
-1.979297180332944828e-01
4.551507925034095972e-03
-2.219089612128134215e-01
2.084984247349814471e-03
2.770792270273471636e-01
9.529484336958983504e-02
3.247077642233262007e-01
3.161446062500405385e-01
2.063575614273129299e-01
-4.720036298009220449e-02
-6.692362110121662377e-01
6.059027532581942599e-02
3.931807880009897255e-02
-3.413774025466306261e-01
1.238954343846361827e-01
-1.796933927537846254e-01
2.581801352430798668e-01
-1.540665297747100537e-01
4.014519691700019211e-02
-2.781386692525810722e-01
1.510785301380107859e-01
-6.833621294173930494e-02
6.725669543901126313e-02
-1.154615506047626944e-01
-2.414034527575852351e-01
3.644043805165383954e-01
1.706492791181334623e-01
-1.312962794741654449e-01
-1.542193989584315916e-01
2.781610428343526120e-01
7.089629509883073333e-02
1.453539155609317457e-01
1.105859017736487426e-01
-2.032619583733567270e-01
9.260482424484205166e-03
-1.099152286910213411e-01
5.802086258902373200e-02
-9.284427074709795946e-02
1.306476065268228903e-01
-7.766311648684293134e-02
1.047882336626821537e-01
-2.115208069758368059e-01
-3.267894124967904435e-02
-1.317242681837067497e-01
4.063126595287539500e-01
-3.743529844066543766e-01
3.149569835284755492e-03
8.101716210687069653e-02
-4.602404418628511240e-02
-1.416942585254938602e-01
1.425621755315268635e-01
-1.883470770729694585e-02
5.597087486987402383e-02
2.101878368788978324e-01
-1.743547136162960087e-01
-6.761102449495044742e-02
2.083454949277317170e-01
-6.388982795844483364e-02
-5.317994868149542725e-02
-3.295996034345630848e-02
3.398022498150126552e-02
1.110149913671812233e-01
-4.788409293913683390e-02
-3.446561418454121561e-01
3.809362089319939804e-02
-5.460515235013638224e-02
-8.355911645051519732e-02
1.978800472099186136e-01
1.804428965996727752e-01
2.687253460603019617e-01
-1.496355430833181677e-01
6.899874391524331296e-02
-1.697558537611068563e-01
-2.520373884356628125e-01
-7.783734118762044955e-03
-5.331905794249906100e-02
-9.983831915559018833e-02
-4.455093842652271263e-01
4.239538863952235434e-03
-3.267108576398008446e-01
-1.203855035456818240e-01
3.753337338761751352e-01
2.839136399179163495e-01
3.224610962890270272e-02
-6.963285832046686719e-02
-1.691852443803958383e-01
-1.971847628288708743e-01
2.545863663476619632e-01
1.786109641941383275e-01
2.186262096581149117e-01
9.537755371317885311e-02
-6.067834873697387083e-02
-1.032764814913975787e-01
1.924271220582159381e-01
2.930920263530477632e-01
-1.410582383123898664e-01
2.728882352727117211e-01
9.790386111506041433e-02
-2.551599045010917721e-01
3.670627467455014337e-01
-3.755097421435160121e-01
-5.648591558889085734e-02
-3.654267048749076374e-01
-7.287176773391218498e-02
3.617834823923977150e-01
3.288514442726375719e-01
-5.738272469373057599e-02
-3.358008455899744171e-02
1.696765803883649448e-01
1.906047174066747840e-01
1.245524077887490283e-01
1.527029105411664700e-01
9.261810455821889443e-03
1.814226634848668113e-02
1.725487548976371022e-01
2.231335361205769030e-01
6.413676596070577718e-02
-8.715878928732279096e-02
7.236407600368230386e-02
-2.140075561041849261e-01
-6.702123546468032045e-02
-1.192030177069901553e-01
5.637741469842039339e-03
6.208064636678375936e-02
7.209859240430121011e-03
-1.656229294759242188e-01
2.598208333236746714e-01
-5.458614124588707234e-02
1.031563936666466674e-01
1.080776641949248440e-01
-1.028245899535470964e-01
1.181282366943186696e-01
-1.905206017586590916e-01
-2.766746004355115085e-01
4.363403773462458668e-01
1.862597021204722703e-01
-1.570757395909444243e-01
2.816857692152513470e-01
-1.038427791801030814e-01
-7.001609297920741160e-02
6.462737616364544468e-02
2.740103682466204504e-01
-5.967706803079492889e-02
-1.645838280323848601e-01
-2.425379786554075212e-01
-3.594367002738555611e-02
9.204185262600243778e-02
1.238836500960259490e-01
-2.471530582707299473e-01
-6.217644537277409317e-02
1.333723299814373875e-01
7.107168775037626951e-02
-1.762077435403926542e-02
-3.861401042226786720e-03
1.127622909355140424e-01
3.479692508017455665e-01
1.868061873353259877e-02
-1.643057723404165449e-01
8.748696171157765988e-02
-8.297085313440405452e-02
-3.080132855684302173e-01
6.178975006839623058e-02
-2.619723570581775629e-01
-2.093792470428641472e-01
4.611522485913205349e-01
6.332333616855484459e-02
6.007457185440380487e-02
-3.224246021878944823e-01
2.837554826630584448e-01
-3.302641164495085935e-01
1.646941643602797822e-02
1.745701778611072619e-01
1.709844109859386119e-01
-3.715026438832141897e-01
-4.964831266316691027e-02
1.525452448755476031e-01
-1.536013697367633324e-01
-6.488120677531521163e-02
-5.640516944977171793e-02
2.114851049163276320e-01
-2.166174726412153917e-02
1.321775430882206059e-01
-6.313166600195697920e-02
4.659161096386865014e-02
6.916442743642414216e-03
-2.116582930883648961e-01
2.721548937719313055e-01
-6.255233738036661273e-02
3.328162288140257830e-01
1.145204447870389469e-01
-3.556151564100431539e-01
1.081974369244658452e-01
5.638165421827019685e-02
-3.336029658375994078e-02
1.898546771943854794e-01
-1.831257767497573574e-01
2.306631499370961902e-01
-6.311897149086807823e-02
1.463377350002459665e-01
-3.030297140578083748e-01
-2.607042800067727040e-01
2.196358423575197304e-03
-9.566280202831115020e-02
3.081360159298042189e-01
4.115469674775915077e-02
-9.477605891357925028e-02
2.440711045323254724e-01
8.230976147341673155e-02
-1.927107372805582641e-01
-1.915788481722808800e-01
8.081215871671415529e-02
5.180643813192140762e-03
2.912177437227049873e-02
-5.896608433142043471e-02
-1.654888021258215658e-01
8.206334242271882962e-02
-1.602343787786970897e-01
4.840133487867050166e-02
-1.132415831331176972e-02
3.323611624282884480e-01
-1.776943240834811255e-01
-5.438188553631749800e-01
-1.497890647014195886e-01
-1.676791570473709636e-01
-1.815568100115750802e-02
2.945010617363570948e-01
2.136467846906332513e-01
3.520053010744277344e-01
1.428912842697921959e-01
-9.962442679808431942e-03
2.608590154807970407e-01
2.487717224671889549e-01
5.602710165921433172e-02
8.888869378724953418e-02
1.128799067252881649e-01
6.112783743370869133e-02
1.228548038546547344e-01
1.619987341408476167e-01
2.555052142887858646e-01
-7.035718416076013060e-02
-1.190254844406283680e-01
-1.037669606825634833e-01
9.684107732258076529e-02
-1.742555507994043296e-01
2.265466460568392182e-01
-3.751103202034722275e-03
5.375370211535823728e-01
3.907516388283174824e-02
-1.449401495971535114e-01
-8.709504062231117338e-02
-7.311928589232562226e-02
-3.033240463918519536e-01
-7.168759894712063707e-02
-4.686949011806680332e-01
4.961081433611170821e-01
-8.690285643590794917e-02
8.191119465755933304e-02
3.053843866016398012e-02
1.420483059891806434e-02
2.141225108635360155e-02
-6.476284701388315690e-02
-2.513861997725194697e-01
-1.394462284608103120e-01
-5.830050690456182322e-02
5.882089825369064134e-02
8.530441301058268311e-03
1.917450400217232953e-01
-5.426902641018070683e-02
2.997365679291646434e-01
1.203948434257315764e-01
3.211582475017628058e-01
-2.696807712154434267e-01
1.653260476134188750e-01
-1.761946740612110041e-01
-6.603737647942885258e-02
-1.081365360652753460e-01
-4.001472402244748983e-02
-9.508058958885881595e-02
-9.714973724239318875e-02
1.474536889585252031e-01
-2.824440105670407153e-01
-2.406001309344072692e-01
-1.204964373494732399e-01
-1.085414193462449911e-01
2.163137447630512911e-01
-1.559047730690373557e-01
3.213308374800973866e-01
1.759295165416622508e-01
-9.298768545162072741e-02
-2.195023031463796681e-01
3.267454646058610135e-01
8.590560157555064691e-02
-1.485145765523619710e-01
-2.696879172178141826e-02
9.343513541190479055e-02
-1.716322667765100285e-01
1.542340950866621929e-01
-3.962856306047168875e-01
-2.202550845855231476e-01
-4.539801019513208247e-01
2.005167504934556866e-01
-2.648535423301904418e-02
-1.275867246709073977e-01
-7.686673580457285826e-02
-2.965646192293988070e-01
3.651203613302069217e-01
1.226241579747505139e-01
-8.166206014394683521e-02
-1.684034388864691922e-01
-2.012348917308353496e-02
-3.131546002435702802e-01
-9.531293714244030990e-02
8.931903571124284735e-02
8.099919697854073009e-02
3.805202590929716022e-01
5.216690500489595816e-02
1.496733380242821765e-01
-4.781216472427594066e-01
1.006063825016908497e-01
-2.113065699842869016e-01
-1.231056991868389149e-02
-2.608437107458583260e-01
1.600334792925569571e-01
2.767113006372139417e-01
4.330428298905910495e-02
-1.628634540381122126e-02
-3.645359137782142045e-02
-1.229811067213352621e-01
2.271246212158259392e-01
-2.674523043423832069e-03
1.390439755309352265e-01
-7.079972457997495139e-02
1.426562359229626986e-01
-2.600406438890485172e-01
-5.402284586860827131e-01
-7.706611942429369977e-02
1.228078858547183017e-01
1.346351053912897278e-01
-2.340630224562540440e-01
-1.815284956482729195e-01
-2.005884715409479713e-01
3.432679271671539301e-01
1.252662264164431383e-01
-5.884464431142002322e-02
1.947488033811010655e-01
4.532794834360970304e-02
4.319495772795688832e-02
-1.728312190901271084e-01
5.974055296753769118e-02
-8.151820260989964262e-02
-2.061462568067369550e-02
-3.198042997406559951e-01
2.632307247913169834e-01
1.525994355817949510e-01
-1.725916657823271805e-01
-6.325517444257321154e-02
4.612405902412250458e-02
-2.095637601169235940e-03
-2.644336286512576351e-01
1.036094484685581990e-01
2.144037187246291276e-01
-9.288668704109125096e-03
-1.329868648714137014e-01
-6.462152378451295476e-02
1.171680384026500994e-02
3.274047321256497861e-02
2.168839378093895542e-01
-3.894267980528685197e-02
1.513975392879766679e-01
2.987265427023569342e-01
-3.657798829732641366e-01
-3.578110463359639448e-01
1.596531453614806195e-01
-3.607044488208603905e-01
1.722412070033171594e-01
-2.520676050002459978e-01
-4.731090312186049807e-01
1.608239208244985896e-01
9.971931650217009946e-02
-5.691958641929949492e-01
-9.055915920432908162e-02
3.079878490476682315e-02
8.103435842180447754e-03
-7.913228018894323534e-02
2.202355855487643232e-01
-2.223176954590719845e-01
-1.273769799664289069e-02
-1.197280530146229011e-01
-1.091083585087008062e-01
-4.001889419708331425e-02
1.728855730890911380e-01
1.032789193612879269e-01
9.762554850076947399e-02
-1.929184317261464499e-01
-6.149404434471675979e-02
1.619195866427567410e-01
-1.942232538024150912e-01
2.357903311721380180e-01
-5.548696404542566990e-02
-3.116409073939465160e-02
6.566218918554375672e-02
4.711076455517979739e-02
8.276205657458722900e-03
-2.127748788604041374e-01
4.870578396216069250e-01
-2.456316085899306126e-02
1.254248280623017076e-01
-4.416116005527285782e-01
1.605573849035133449e-01
-2.078875979570238564e-01
2.075368080897275203e-01
-8.633393820289957110e-02
-1.704181863140554476e-01
9.905403285683227199e-02
9.855655190231381313e-02
4.172629306529881954e-02
-4.516378805653012973e-01
-1.496615645663082750e-01
2.953374333373980365e-01
-6.561339121002170149e-02
3.994677927957243080e-01
-1.391880311591706283e-02
-6.866034661202221473e-03
2.111389737649635168e-01
5.599947187265824633e-02
-2.277952787908026910e-01
3.171706897890088639e-01
1.985200131261890544e-01
7.253690040763444147e-02
-1.164960607904068635e-01
-2.226106924588922009e-02
9.580793534476496343e-02
-1.190738790711690642e-01
-3.632408494680868793e-01
2.508118429718390052e-01
-4.788103575507979964e-02
3.767209563610764145e-02
-5.452830618408752161e-02
-9.712702295708688927e-02
-4.730143805862652706e-01
-3.964530666491358768e-02
7.832644682989226004e-02
3.613989339138061752e-01
-2.136258221044434469e-01
5.386220248660061882e-02
-2.891574169545791384e-01
7.443094610065940919e-02
2.877026770621906593e-01
2.391068051416797569e-01
-1.233516312485554833e-03
1.127987043243898063e-01
3.031071179363209467e-01
1.830694588220126151e-01
-6.682050395919127139e-02
-1.196348028791046764e-01
4.883062144595309850e-02
-4.318827243242482489e-03
-9.199889733488858523e-02
4.030806764405709536e-02
2.433791338459883047e-01
-3.177898198316816414e-01
-3.815748879793937759e-02
2.541615147896781335e-01
1.887646763194629762e-01
2.504932137313547469e-01
-9.532585158328710229e-02
-9.412485791353686349e-02
1.907602712461239358e-01
-1.891971790514095642e-01
-1.241985204676184923e-01
1.363736119272249137e-01
3.204957167965501452e-01
1.214734544530275961e-01
1.522604793900997344e-01
1.050973809392517777e-01
1.550262314026044363e-01
1.318165296304542322e-01
1.203070540736031896e-01
-4.662111062579359089e-02
3.246166021761943271e-02
4.005643218416714973e-02
-3.352353587872813345e-01
-3.267029372543692745e-01
1.493828599482030783e-01
1.599294121250607603e-01
-1.531623280646990382e-01
1.612518458305473579e-01
9.521476693142065517e-02
1.370351433980372680e-01
-2.494825953360014711e-02
-3.288530707603208869e-01
-8.165877098745058515e-02
3.249851628725813901e-02
1.527243050584532469e-01
1.282960878471249844e-01
-8.895190916548881277e-02
-1.783044619409690501e-01
5.610799164869912925e-01
-2.077302996309415284e-01
-1.621235651041570414e-01
-2.925471955202941371e-02
-9.384099866817656455e-02
1.263983071277510195e-01
1.079327520268458379e-01
-5.824496899591646848e-02
-2.060053584025306195e-01
-5.484293202601483452e-01
3.648131198839678624e-01
6.370857036083713010e-02
5.272673161225553684e-02
-2.459876958076146203e-01
-1.811618858373468255e-01
6.475152674838768885e-02
1.148097515658706887e-02
-6.016404041804988834e-02
-8.015787772967924996e-02
7.807296518735782342e-01
1.470918972952781623e-01
2.316966900556139131e-01
3.850523404294398655e-01
2.757697669624577519e-01
-1.584865908054504668e-01
1.980929850401652592e-01
-1.026375393887545145e-01
1.668137223983023332e-01
7.142137767957363881e-01
2.446894201659313151e-01
2.682543187697421505e-01
3.533305563538372690e-02
-4.072775805007395472e-02
-4.640121016254321051e-01
-1.040386364927134849e-01
-1.947407460563114687e-02
-7.269327049605943392e-02
1.130962174323395103e-01
-2.033100318883403756e-01
-9.066183353262105560e-02
-4.222009833214355329e-02
-3.168875704717125652e-01
3.347763969994900501e-02
2.569556056591295115e-02
-6.283944210550507226e-02
4.675884000234668825e-02
1.099812508526263610e-01
5.768604617191606249e-02
3.507462181335672113e-01
3.190344922761084168e-01
1.557233887528742047e-02
3.382261557161258397e-02
-1.094921142587329671e-01
1.598689876739600446e-01
-7.811313741612330164e-02
-1.915784486768401240e-01
-2.922706934854911731e-01
1.986733876742020344e-01
5.763853798566974385e-02
-3.631023103149323972e-01
6.682423255614597379e-02
-4.015718602895770872e-02
3.631309111987734428e-01
2.858836036514474099e-02
-4.128847442115180649e-02
1.769573439362619183e-02
-6.725428781437925441e-02
1.976538996993015274e-01
-1.346174732910467298e-01
1.420020334490282865e-01
6.764396498021750526e-02
-6.933960306597748702e-02
-3.712069872732961379e-02
9.228433819550718731e-02
-7.261249587640446201e-02
-1.142139757748029255e-01
3.054041718434091779e-01
2.146338056604203681e-01
-5.145415593106655860e-01
1.648822248310364835e-01
-2.930752788698329780e-01
-4.507421176719527689e-01
-9.005103767511400681e-02
3.719594328560838631e-02
1.021592881677391984e-01
1.369023854337548807e-01
-3.887038193170425093e-01
2.189632264585357757e-01
-1.561475911579575208e-02
-3.672293383504053321e-01
-3.448899125686948341e-01
-2.584210062438036526e-01
-5.660083367695525336e-01
-1.937669335801865331e-02
-9.158716541110450970e-02
1.855589997358575438e-01
1.452123017319642828e-01
-1.785715021156842053e-01
-1.146463776278544983e-01
2.915559740251935650e-01
4.700766478498156348e-02
-4.453347595550348481e-02
-6.655998405762557357e-02
8.890998183173109970e-02
-5.354305871904049829e-02
-4.993928383784845826e-02
-1.943902075474302771e-01
2.915272367521097308e-01
-5.683673734800942512e-02
-6.489058770975866808e-02
2.466307482051341704e-01
9.638193297267183546e-02
1.977361699255195948e-01
-1.257738238544292841e-01
-3.396762468393913492e-01
-3.050311151074135974e-01
-1.507539999360527593e-02
2.266033497882342929e-01
3.158849393250612869e-01
-2.971658880675130954e-01
-2.349923175065002645e-01
1.916186067528454218e-01
-1.050795976034080842e-01
-4.277265005130972270e-02
1.468179832637437135e-02
2.958635911763653481e-01
8.212765410767151539e-03
1.298980280340127358e-01
-1.300808538462575326e-01
-3.194275211248600588e-01
1.316127578352081773e-01
1.135885789462765666e-01
1.099121990847392594e-01
-1.090775797568713928e-01
1.117384991702582986e-01
-2.309103732595249314e-01
5.952231076289734579e-01
1.128526771926142702e-01
-1.914256671346208638e-01
3.700384081563301564e-01
-2.124003581721744735e-02
5.765670789204874191e-02
4.326878740004997396e-05
7.024363858439740260e-02
1.266006212422108798e-02
-6.473405252173154711e-02
-5.255521984064554647e-02
2.712845957128064978e-01
3.225789098532524379e-01
-1.171188454056687756e-01
-2.261301535899151172e-01
2.283546131896049824e-01
-3.698261003400189484e-01
-8.821126567059585366e-02
1.080965724302932890e-01
-2.035245461349827548e-02
2.736536557754846166e-01
2.526056512123572850e-01
4.086449770111295066e-01
-2.717798882888979306e-01
4.335449412685601911e-02
2.763705173336695742e-01
4.407035277392690742e-01
-1.113994954223267164e-01
1.635864765248828678e-01
-1.471019613405212256e-01
1.362658733758574658e-01
-3.820766046177161840e-02
-1.581288029383777216e-01
2.745790582791491352e-01
-1.254214266627008967e-01
5.264796285181353452e-01
-2.660305109211988026e-02
-1.103195850480728213e-01
-3.382537183996159325e-01
-3.175641580984005577e-03
-5.643308388605538378e-02
2.463241878507034799e-01
-1.153711245429826088e-01
-4.377237329557195217e-02
4.217664080435491042e-02
-2.179607284193419703e-01
-2.631971744682699010e-01
-2.146252178945000921e-01
-2.055901140823830076e-01
4.536198490358071544e-01
-2.607489375801945800e-02
5.606249681422099257e-02
-1.538129931961504382e-01
5.505319324081363146e-03
3.085646957487549469e-01
-5.342146913407360698e-01
-1.413721458779793050e-01
-7.530477565806627249e-02
3.932966551592486648e-01
2.305670373946772655e-01
7.093426043113780499e-02
4.746983597247134701e-01
1.289981169738984301e-01
1.555475148802381857e-01
-3.169936311511638016e-01
9.269068511049968762e-02
5.259902744624275206e-01
-1.342683196292153436e-01
7.957155948318798966e-02
-6.365502303920080041e-02
-2.741261933550908636e-01
2.049048383184131072e-01
1.797053468446177249e-01
1.080670078997654632e-01
1.402211900308379111e-01
1.341083971793682328e-01
-2.536339855131233834e-01
-4.115919185042419826e-01
2.154772040434536351e-01
-2.848364838243792052e-01
5.599323994539830152e-02
1.203931323753727745e-02
1.760235697664041393e-02
1.883228086296797055e-01
-2.081467394079062824e-02
1.665834737292343215e-01
1.143620448740438750e-01
-1.232897396524529204e-01
-4.789480931423451687e-02
-1.684510622448702477e-02
-1.095139265881198004e-01
1.399979553664310872e-01
-5.079238303858525649e-02
5.769652187536573607e-01
-5.926176755840817378e-01
-9.049769681567911006e-02
1.664006869750754569e-01
-1.947431025623974354e-01
-2.114067956736293830e-01
7.833270521745150372e-02
-1.034228412383055434e-01
4.072717918889650623e-01
3.418010734936463568e-02
-9.097345669104499322e-02
-1.274309366186371084e-01
2.475075394946747998e-01
-4.717747319130661809e-01
1.041334329851347912e-01
1.835029492919793004e-01
-3.177283286395167494e-02
-1.906518101806031484e-01
4.795885229199385764e-03
-7.032231295610909261e-02
2.138372720934879623e-01
8.362486838413074608e-02
1.896416365174483643e-01
1.747087895697671811e-01
5.902100693134941511e-02
-9.208598907810321144e-02
9.314745029786327627e-04
-1.650189654162103475e-02
-4.383649989808524050e-01
1.134795015428523984e-01
2.522244253366673905e-01
-1.586811261280195867e-02
-2.015091808538330143e-01
-5.598806295062849769e-02
1.147847920476106759e-01
-6.344454970302713936e-02
-2.428978983087339005e-01
-2.427645838376549514e-01
4.843421670179570704e-02
7.547094696267918346e-02
2.124328838471983838e-01
-1.547350075760372812e-01
-6.707134363889616369e-02
-1.888348254967690543e-01
-2.028275725076727765e-01
2.327604350673099787e-01
9.874743222929917297e-02
6.762394925901715759e-02
-1.603531562063607308e-01
-9.636266663554897416e-02
-1.074487209310797803e-01
-1.928870767338979608e-01
1.106023660220309748e-02
1.704865852708460361e-01
6.008406730441664262e-02
-1.462641361550545971e-01
2.868470190333433090e-01
-1.390553168653695937e-01
-2.688778717315317701e-01
-2.876601039715988573e-01
3.432249688882771377e-01
5.446680065373409041e-02
3.333641605753145942e-01
8.296885907233264579e-02
-3.646517130093828163e-01
1.221000881190597853e-01
-2.495774186220419896e-02
-1.266455499228825721e-01
3.725985108485120878e-01
-2.273754379514462964e-01
4.466754876072467212e-02
-9.450103633262821323e-02
1.650270823999084868e-01
6.579759851680305749e-02
1.409946220460083499e-01
4.963822927130969176e-01
-1.197582788054092351e-01
-4.531140953192996229e-02
2.365893137392487411e-01
-9.920601223450002670e-02
1.125217151203256050e-01
1.931852224558801012e-01
-1.374301916582661709e-01
2.648415516479811771e-01
6.734776084955905462e-02
-1.649425949184524787e-01
1.750173246121820847e-01
2.777467999821635336e-02
-3.370346772491857879e-01
2.722690709152177091e-02
-5.067534372783179947e-02
2.651051582410424712e-01
6.354037684840424527e-02
-1.691978887230468909e-01
1.096054236607315185e-01
-4.203029840627096059e-01
1.980858317053592887e-01
-3.748676089927457378e-01
2.208813770437595067e-02
-1.008129346449506136e-01
-6.322706607081705898e-02
4.315871864651455586e-02
-2.375034914927055818e-01
7.338803701779722521e-02
-2.028003042809325140e-01
1.797740559574326769e-01
9.266226716741159108e-02
5.051822443335995949e-02
1.737997588908258284e-01
-5.062343247990831047e-02
5.382506252999512686e-01
3.634762471823872743e-02
7.615753838569201684e-02
3.537396229425612132e-02
-6.283379455554681525e-02
4.144122788501157229e-01
1.295323671592188072e-02
-5.229752196789117652e-02
2.182370860111262217e-02
-1.636267121114967915e-01
4.538612766864228987e-01
7.027312082241937707e-02
3.598232986242497211e-01
7.112380719189131950e-02
-2.229880037732646925e-01
-4.738702579225931855e-01
-2.824327891682931746e-01
2.917463347254335426e-01
6.217379123906145999e-01
1.303432621619440568e-01
8.862658766819146716e-02
-2.916262078326389284e-01
1.482702019647726410e-01
-3.177290348757882965e-01
2.502854138335596224e-01
9.847965599669859793e-02
3.527955591492293874e-01
3.725508218978142994e-01
5.178827242255962249e-02
-2.421575751432489543e-01
2.942844213509116513e-01
-1.894365484994853799e-01
4.744538913535009325e-03
3.259498392171495396e-01
-2.393348873784109654e-01
5.651968603663380941e-01
5.913441313658854281e-02
-5.475514974105661486e-02
-2.153629150397253778e-01
9.506063787864374448e-02
4.864125730530666769e-01
-7.436102705020085357e-02
8.113234798119378297e-03
-3.235203590984360444e-02
-1.515322187729299663e-01
-1.468175664893221939e-02
-1.788523595873235672e-01
-4.494649709006200422e-01
7.332805475179797472e-02
3.326381696439358882e-01
1.015535788158533209e-01
-4.325746952581047133e-01
4.307290285964168741e-02
-4.065323470562909880e-01
-9.528746058391705798e-02
-8.294429975467161598e-02
9.813752165887956735e-02
-7.408289505052500015e-03
5.030857965114995251e-02
-2.173901573831966694e-01
2.462820390521745784e-01
1.619059301248028937e-01
3.898485125290515607e-02
-1.676171203157823253e-01
2.045390883583008967e-01
4.180595680025225858e-01
-3.660886245125461597e-02
6.102812102964846191e-02
1.285317831518340004e-01
7.816232347890758603e-02
9.522834313302716569e-02
-3.545990011857264590e-01
-4.633261926231060229e-02
2.458511087788517110e-02
-1.642996340625598184e-01
2.607300455742309758e-02
5.825191390819225434e-01
-9.791437372648342796e-02
2.190311613425372783e-01
-5.071958723047559348e-02
3.839822787002589166e-02
-1.760180521397171349e-02
-2.062562559155852737e-01
2.477761803408361219e-01
-1.123192589440436262e-01
-4.352051651985974073e-02
-4.182865307930271337e-01
1.564339174763876850e-01
-2.300167047565113421e-01
8.109335218376449717e-02
3.278665293193507857e-01
1.892005956386613175e-01
9.949131124860367825e-02
2.240250950203869496e-01
2.022896108288846639e-01
-2.040749780525258628e-01
-7.163785584852820632e-02
2.578665628505549812e-01
-2.543086875394647839e-01
-5.258921754462449888e-02
9.916691014264723825e-02
-1.593195196917443768e-01
-1.870533250582263607e-01
7.493656741019928680e-02
-1.023424317656431437e-01
-1.761902895561073268e-01
-7.748983883747076473e-02
-6.040614935392202636e-03
6.301302777429874935e-02
-8.032456055832251640e-02
8.035778466890484972e-03
-1.275042089363660480e-01
2.110232313625166889e-01
4.961867205449527196e-03
-1.932704119462674563e-01
1.360525042159089169e-02
3.507862046883201690e-01
-1.203970310112597621e-02
-1.251988934451182811e-01
7.957032248665339355e-03
3.278021769949731046e-01
1.439615048242769146e-01
-2.175141766919496122e-01
9.410190252253181065e-02
-3.094011776169579633e-02
-2.132321970723431714e-01
3.400240557197176661e-01
8.076485206279397644e-02
6.350939510757924733e-02
1.356947456588615264e-01
1.142270221760374044e-01
-2.636764654369766134e-02
8.978968481159545212e-02
2.369209261994304760e-01
-2.900055694230084802e-01
-4.077212846701773197e-01
-1.572754326756320986e-01
-3.163924834046874524e-01
2.651142607857451261e-01
-1.315809660317737717e-01
2.079626450967730078e-01
2.712406159650972981e-01
2.945284134445934621e-01
-3.083449117723357502e-01
1.231957180627611254e-01
-2.527425722386714146e-01
3.184325521420991456e-01
1.534106383803319484e-01
-5.751170851401975204e-02
-1.954676279601638422e-01
5.763813611808123877e-02
2.433908114374164766e-01
-1.869433706322406186e-01
7.650058448463809002e-02
-4.855037610392711200e-01
6.010820752440183823e-02
1.310240789637574510e-01
1.528826141474129707e-01
-2.791082804042900878e-01
1.291349252789265357e-02
2.109743873613783294e-01
-1.460846317381383520e-02
-1.068888250072035639e-01
1.660269406641207146e-01
-2.822380235686019478e-01
-7.454153777321022301e-02
9.591743051815294907e-02
-3.690596701514838873e-01
-2.613522629672002107e-01
1.077183283347681181e-01
3.595598880361875471e-01
-4.998466004258120959e-02
-6.625709129795211150e-02
-6.921331876777679637e-02
4.586066682295224239e-02
-5.537128651038305399e-02
-1.385701571570154833e-01
-3.131369713906524410e-01
-1.879171422488981058e-01
1.719731761914711776e-01
2.031252846742667012e-02
-5.179243231726240321e-02
4.530739808220299314e-02
-5.618065440002716765e-02
-2.230369242000822261e-01
-1.666986662348437787e-01
2.918553078038416126e-01
7.502580815796630609e-02
3.960615718967739340e-01
8.046732275635737341e-03
2.128153785657735109e-01
-2.147671967637093671e-01
-7.442203864078920927e-02
6.533734501631767444e-02
-1.681376645793276198e-02
2.411541252177104577e-01
8.012535444108501159e-02
2.379429384403356981e-02
3.312941695020579780e-01
-4.448131226382082831e-02
2.863850167908539301e-01
-3.350045827194099435e-02
-1.693739112960498672e-01
-1.813326456030895095e-01
-1.958366957069878067e-01
1.269950407518871949e-01
3.098662494579326188e-01
7.521355073086044563e-02
1.280489624349027411e-01
2.723761995103960998e-01
1.808439110704421898e-02
-2.392167420330475192e-01
-2.204820080962472117e-01
-5.420922235520447136e-02
1.152911833613196185e-01
-7.624753813713879003e-02
1.727300515233498313e-01
2.285741448257377628e-01
1.763903812019711470e-01
-1.446854112827342387e-01
6.038088050702115211e-02
4.894493841778642385e-02
3.127084568847212503e-02
4.025048502985691112e-02
1.416447747538508023e-02
-4.214994691468775811e-01
-3.354802827136943999e-01
-4.690290029514405101e-01
9.554852631893474358e-04
1.283024537886696403e-01
4.281050940766899932e-02
-1.684080870716441747e-01
-1.523123482649378071e-03
-1.274142764593417243e-01
1.281827533685074051e-02
-6.798525360831936259e-02
-1.297656021460343208e-02
-4.270772339004025309e-02
7.389849346559864340e-04
-1.269825710425631082e-01
-4.181925979177257557e-02
1.270396462630440648e-01
6.479963857364015589e-02
-6.004458024524961246e-02
-4.523849185813643148e-01
-2.465122682746204441e-01
2.213248841462757965e-01
-8.671826770791868366e-02
9.624860815305716355e-02
1.691079767830075964e-01
4.217743496015741167e-01
-1.532386397574960202e-01
1.932599274043513005e-01
1.525059778302480240e-01
-2.563016736039830726e-02
2.252400892476532634e-01
-1.955083833149146300e-01
4.461985550380914711e-02
1.249222505946048500e-01
-1.404838699902789811e-01
-1.056816146561196101e-01
-1.335852670736127068e-01
3.421621858694717799e-01
-2.346676069230915485e-01
2.853009750323405938e-02
-3.466368820651847399e-02
2.419689547671809854e-02
8.533140764099454711e-02
-1.295201988202925591e-01
-2.025219707730891161e-01
4.515188095183563129e-03
-1.207481116205855187e-02
2.993570039380485590e-02
-1.134058216032721861e-02
5.329470116639720839e-02
1.005484530290012141e-01
7.127446100931655870e-02
7.873366711225349146e-02
9.379037665917833166e-02
6.008017164248755093e-02
1.738365210273652706e-02
-1.995931714154335068e-01
8.913914826862825991e-02
1.178417781960776900e-01
6.228537021659206335e-02
-6.345757409130042825e-02
4.273073184815716075e-01
-1.850729124987430252e-01
1.459199193481640622e-01
-1.231948665557918293e-01
1.068878254382332228e-02
-3.533752023249696617e-01
3.448351713682661912e-01
-2.059711856848218947e-01
-1.531780928655678831e-01
-1.698975054352028571e-02
9.650848312947524210e-02
-1.113502171930693709e-02
-3.051004236278898052e-01
-2.806355073953761270e-01
1.845473225128145545e-01
1.614920261165765300e-02
7.072446042734895078e-02
4.161932434244357271e-02
-1.352303620783193742e-03
4.703018341109997669e-02
1.418005066366914979e-01
-1.010497287729797411e-01
8.930539374965822119e-02
9.111881320229628378e-02
3.121990739017335148e-01
-5.945710907453725241e-02
-1.772703313076094134e-01
-8.922268345110349885e-02
-3.134106283899953937e-01
2.392167568424307389e-01
-6.089975177273927731e-02
-3.100985679781446125e-01
3.006789044147459289e-01
-1.602997015478113685e-01
-2.417683540697169314e-02
-1.170975847175972501e-01
-1.692576503778542296e-01
-6.415983832888240423e-02
-3.830719310837592956e-02
-1.933621924127161829e-01
2.964195798725744457e-01
-6.053552350144694033e-02
4.168454903266176625e-01
2.450807092004620436e-01
2.135295647510500050e-01
6.883486110301151317e-02
-1.508693409593686308e-01
8.433468698553789333e-02
-2.014943983840662145e-01
-1.164639273703210881e-01
2.847526746631359740e-01
-5.605725318438471022e-02
-2.328682061090353583e-01
-6.521210382971427688e-02
3.768212774022315359e-01
-1.923716815159825511e-01
-1.301029068987815396e-01
4.046651418587043358e-01
-2.635061219186636272e-01
2.274523812064906669e-01
4.059324042279940925e-02
-1.803049109188271659e-01
2.317467948022383373e-01
-6.148954796255167582e-02
-1.995999102316641238e-01
4.851458638587036881e-02
-7.177548810905264032e-02
-2.551842967813019447e-01
1.471156739229898675e-02
1.839073104026071326e-01
-2.482941089049274519e-01
2.217815070809743827e-01
-4.063802258485784032e-03
-4.753601015459789636e-01
4.490936278879970045e-01
1.131420531450694350e-01
-8.216078783423176601e-02
-2.400865379036239144e-01
-9.490025065958057615e-02
-1.223676375566904728e-01
1.899815656334057912e-01
-1.489873177981733410e-01
-4.383608552107166045e-01
-1.506841938659765623e-01
-8.509941324051821521e-02
2.056655107102640240e-03
2.291528847154269410e-01
-5.731940390767036320e-01
-1.183495909219841324e-01
7.804490287147385075e-02
1.256467025820880157e-01
2.925712241852444339e-03
-1.894982613203351485e-01
-8.355374907941416976e-03
-5.388358636129671891e-02
2.848695029687438041e-01
2.502630674998150909e-02
-2.400314960278221166e-01
2.760673461205031542e-01
1.331492597298710445e-01
1.423747203952691748e-02
4.993798966746747225e-02
2.631845538498724379e-01
3.989239720334010753e-01
2.221239775656783932e-01
-2.107161542103519469e-02
4.062701550116673554e-02
-1.312459177046018666e-01
-7.951007545645571994e-02
-1.324619653473207981e-01
-1.002205308808905709e-01
1.653099649903468360e-01
-7.158466608585027646e-02
3.583895938775440854e-02
-3.324013470098264311e-01
-1.025044266656529972e-02
-6.551107451326085469e-03
3.288591466593798196e-01
-2.769566622685035173e-02
1.355875681885124473e-01
2.457637197571788668e-01
1.467070775856677001e-01
1.675135901840993369e-01
1.429348432847776795e-01
-1.076032319198092502e-01
3.066176268514571590e-01
1.961504448078358886e-01
-3.651243143897258681e-01
1.129561629860208471e-01
2.092107720570285379e-01
6.313257762650371918e-02
5.671242555615116365e-02
-9.226598096677408878e-02
1.074499894275684347e-01
1.043639101487763149e-01
5.514359140106311202e-02
-1.823340469642548423e-01
3.847154337394331214e-01
1.614474660001436190e-01
1.506769116409867049e-01
-4.385915979889389721e-02
-7.437189891485014304e-01
1.176603353709291394e-01
-9.491244195740182465e-02
2.308088559637321013e-01
-6.697411579820651550e-02
-1.870936774063443331e-01
-9.997289352349277014e-02
4.606004561906482109e-01
-3.031376086257860925e-01
2.837231865815514897e-01
-4.168598026387763666e-01
-1.003313263781601128e-01
5.745305863761653725e-02
-8.943096367407366021e-02
1.717984859790677443e-01
-8.633583305880646042e-02
-2.813386009313004754e-01
1.997820869132476973e-01
2.771582330078358955e-02
-3.187700647203278725e-01
-7.090823902226181530e-02
2.101897213278336729e-01
1.713863407072783729e-01
-5.350248918425069000e-01
2.373539972587145053e-01
-2.967292284390000145e-01
1.660685518869858823e-01
2.375653337917598973e-01
-3.412472143859659468e-01
-4.442174535642914174e-02
-5.367037578875527570e-01
-7.798968361557163421e-03
1.046498070388574703e-01
-1.996644093962826258e-02
-8.419311839721006774e-02
-4.547608553521283181e-02
1.162672240111651545e-01
1.167201226811923481e-01
-3.342089577367117481e-02
2.587590676472780737e-01
-1.574674263700439614e-01
5.351288150793520604e-02
3.577776054519057336e-01
-5.207741613949713466e-01
-2.122790770658704584e-01
2.659912551294518201e-01
5.820389917570363905e-03
2.994680152239738713e-01
8.637675801693843469e-02
4.592032054029394905e-02
2.872378070694175597e-02
-1.401468550813811942e-01
9.017806768951783930e-03
2.353877428884813480e-02
1.065614421388135363e-01
3.187260122966389941e-01
6.420673506068096288e-03
4.862446532302634461e-01
-9.382883458186187797e-02
1.202261773954456797e-01
2.827064481739828827e-01
1.021654053638920839e-01
2.273095366095465308e-01
1.511722755233408100e-01
-2.642823790637972015e-01
-3.211335328494785979e-01
3.252976743306033591e-01
4.317006701592229767e-01
2.318368414910514791e-02
-1.901973914275405519e-01
6.588877664462530759e-02
-4.429200292591777832e-01
-6.377205861887989824e-02
-3.047261104112919949e-01
1.739355178067086283e-01
2.571191781162428525e-01
4.040991221878946216e-01
4.394469549425208954e-01
1.913426412428995693e-01
-1.514170592142491389e-01
1.374393889574296590e-01
3.699860344181570698e-02
-6.833625279211394399e-02
1.066602801063120803e-01
1.425373490932591580e-01
2.070695947963775707e-02
3.297272477834960469e-01
3.122630110464084674e-01
4.698811252387154885e-02
6.648357249994499285e-02
-1.505690188279989183e-01
-1.506506678546737921e-01
-1.430137106854103834e-01
-2.413436819399332814e-02
1.060600150711123735e-01
-7.897531020831578819e-02
-3.974990099914203073e-03
7.228200237413403562e-01
-2.063381621474120464e-01
-3.913788425756243305e-01
-3.786230744914957924e-01
-3.318876819903441855e-01
-1.878960796579080827e-02
5.864887565872232283e-02
1.099242150723830497e-01
1.628625250442266581e-01
1.722069679099253736e-01
5.500884820678874076e-01
-3.339585416495421261e-02
-2.400736147935529086e-01
-2.467776234706888505e-01
4.770253949313099651e-01
2.086095129656237446e-01
3.133698848897528144e-01
1.669808632138174986e-01
-4.130515174596988137e-02
-1.210424479118347718e-01
1.722441533825058158e-01
9.259335337021723511e-02
-2.046269044247485680e-01
-3.547045900303401611e-01
8.316468548353091184e-02
6.189902554957976699e-02
3.119330912521751653e-01
-3.402394210306407697e-03
-6.363472015374717350e-02
-4.529266987557921398e-03
8.717477785954863556e-01
-3.252411101387324144e-01
1.773373295205817046e-02
-3.153396014965615946e-01
-8.754000786696321257e-02
3.839838991170786975e-01
6.051262500255454035e-02
8.988683796982126217e-02
3.014604862429179008e-02
2.111460540666530161e-01
1.055042014409358631e-01
5.787776656950272512e-03
2.571460283593182683e-01
-4.117672366855002625e-02
1.764184080683861219e-02
-3.056019783473704066e-02
2.149019873475688236e-02
-5.447330957126320095e-02
-1.598415547236381185e-01
9.617992672461003756e-02
2.805925907507255679e-01
4.990175307149796041e-02
-1.644471319411870969e-01
-2.257803559128119045e-02
-3.141804294199418979e-01
-8.214053741688229215e-02
3.217778747366752817e-02
3.687466719903387813e-01
-4.116070420365248173e-01
-2.222386359546434376e-01
4.127180685479069910e-01
-1.034510673679317067e-01
-1.199198298227584225e-01
8.181159343472581280e-02
-2.615928501067556478e-01
3.452092167053723570e-01
-1.602579049477501072e-01
2.233881753470070841e-01
2.504019518035904140e-02
3.325728217810838827e-01
4.832180966577261372e-01
-1.219529348236871036e-01
2.677640421236504031e-01
-1.603474374353091314e-01
1.702650474952618898e-01
7.438319648646601889e-02
-1.890643899675311101e-01
-4.539527966257553976e-02
6.624084217148798470e-02
-2.560817850276960184e-01
8.029178541044572348e-02
2.568804513155190095e-01
-9.878167680046280597e-02
5.635547765970924106e-01
2.363444636158485920e-02
1.761546103353999193e-01
3.876041079481144513e-01
-2.234232454098654674e-01
1.090069683303628370e-02
-4.502960634165397574e-03
2.354323742703490485e-01
-2.053766843663391295e-01
-2.291934171666138581e-03
-5.466915127178803013e-01
4.099541923858861237e-02
1.412257976013248269e-02
-6.024470412946640596e-02
-2.134580773513891361e-01
-6.114548333561078963e-02
1.459060034987882670e-01
6.779323996289650031e-03
-1.763208047883736695e-02
1.007232094258749405e-01
-9.368942757649670328e-02
2.484349828452300513e-01
-1.069751617628513646e-01
1.288673869226289806e-02
-2.699520318226977800e-01
2.481898792941646670e-01
1.819650505801604645e-01
2.608892239261479534e-02
-1.565816659884129713e-01
1.493300704528075784e-01
2.848756064403539789e-01
-7.606735220061491831e-02
-2.495132414424583098e-02
3.062370287789334955e-01
4.479348113788454711e-02
-9.749876554744908719e-02
4.134229637070915842e-01
9.362931161816287484e-02
-2.551334542514284709e-01
1.261564807815645783e-01
-7.540349750314936372e-01
-5.265083641819383597e-01
-4.301530451500019947e-02
-7.686645901990056540e-02
-1.072335455375564572e-01
-3.567378519086100708e-02
1.457019681133823741e-01
1.266894726986877717e-01
8.177922554363709073e-02
2.017968130688096648e-02
-3.175213868491751912e-01
-6.666803185914439434e-01
-9.914129383202048562e-02
-4.033694855567688392e-02
-6.690886751500307872e-02
1.383867128480073365e-02
-2.209883229548825212e-01
2.934563016001917601e-01
2.184863996765970817e-01
-1.799110228103187881e-01
4.085157938429804236e-01
-3.375769689709600674e-01
9.243571131028889901e-03
2.194581217693678810e-01
-4.294706624551318519e-02
2.548993418642404585e-01
2.409037057103136439e-02
2.914016509655633844e-02
3.831431176799238170e-01
-1.813601938149600745e-01
-2.084476147660367928e-01
-6.601398009184862303e-01
-3.049271784266715524e-01
-2.222884143072131335e-01
-2.903571528513569922e-01
2.044870857559276944e-01
6.025238502043622768e-01
-2.207994635147964013e-01
8.172869393923665182e-02
1.303455637646251108e-01
-1.167115638666744309e-01
-4.080682183436524224e-01
8.778362379561660545e-02
-2.479102868137023075e-01
3.053048974424913409e-01
-1.512571895181225590e-01
2.771531344906842387e-01
-4.742315674477776133e-02
-9.887052998033268869e-02
-1.443176022791887447e-01
5.138479736751214721e-01
-4.231147058506602027e-02
1.918162451632257279e-02
3.075880437105156170e-02
1.803503444911730147e-01
2.630641777792632197e-01
1.063284669639647101e-01
-3.391312842096643604e-02
-1.010537461286680344e-01
3.679216507487027138e-02
-2.794382515599092565e-01
-4.812851024297176705e-01
2.512981040344666045e-02
7.318188151693916232e-01
-1.341565142999239235e-01
1.365661142216686476e-02
1.807438036564573136e-01
2.015058004136557057e-01
1.304249700358439401e-01
-1.336996495558612219e-01
-9.115764574074894377e-02
3.794571025159886035e-02
2.719168467696684299e-01
-1.960086588754630932e-01
2.297603060990489887e-01
-1.538707182571476262e-01
1.583922253795409796e-01
6.068618207380400281e-02
2.061641148246819988e-01
2.678146940951044164e-02
5.831821716626873348e-02
1.012952935140030422e-03
-3.651267942832193102e-03
2.666165726520326462e-01
-6.281243861708292464e-02
1.585499350374336425e-01
2.105241897698341413e-01
2.036036689961752966e-01
7.877772323366963314e-02
-1.204494933579021987e-01
-1.108168789187488901e-01
-2.137241259995385501e-01
4.129895792322350045e-01
2.511539630180643634e-01
3.233067171475623169e-01
1.270133912629670403e-01
4.411095854720208098e-02
2.122904019922121632e-01
-7.725887222661931286e-02
2.837984066276294515e-01
-5.169208167234350115e-02
-9.820549647800026760e-02
1.451448069062216406e-01
-2.561356600642930581e-01
1.225519740984663992e-02
-1.683610706687553860e-01
5.536670673999183117e-04
2.867679961125954025e-01
6.764519380190778253e-02
-1.441153329117993709e-01
1.290239847329861800e-01
-1.793074714608157982e-01
1.565445984763902398e-01
-3.153490485335270210e-01
1.709401038335600087e-01
5.666709347000731256e-01
-2.249208373417831749e-03
-3.428549857429090408e-02
-1.730659148981781303e-01
3.610236473172797056e-01
-3.364859445036562646e-01
1.225531948975195490e-01
-6.072114118743392186e-02
2.848903490410127637e-02
8.479955979714923209e-02
-2.261815597746964501e-01
-9.418125744564558727e-03
1.212220403112546363e-01
-8.964929153845335730e-02
-6.501073787671562965e-02
-1.453176690374979318e-01
2.136877890909381073e-01
2.542214568442776809e-02
-3.737161172384664276e-01
-5.149835218424919647e-02
1.341290088895506216e-01
-8.197957413076484290e-02
-1.330315846460955291e-02
-3.839929275426232080e-01
-4.140030683592883093e-03
1.444384447178150011e-01
-1.082510363351006227e-01
4.261745487857087067e-01
1.288974750298893523e-01
-2.951129249904709262e-01
-5.246033735736539416e-01
-6.832914910238710449e-02
2.075379844279515718e-01
-2.509746761813773097e-01
1.333055019843302769e-01
5.549574691104070673e-02
-3.877168427863582345e-02
-4.363034289402484833e-01
3.085209418838203432e-01
-7.235479205871127306e-02
-1.157252160790993994e-01
4.390213897915866137e-01
7.721807670163076398e-02
3.019917979627787311e-02
2.051531654027118901e-01
-2.757906086179100213e-02
1.414992248344878745e-01
-4.470242206533096320e-03
-3.210475098252109083e-01
3.181013400416308340e-02
2.183746865599154596e-01
-6.484413009302310293e-02
-5.026535146778936952e-02
-1.206628922414953037e-01
-1.454370981504276850e-01
2.551689901912475023e-01
-1.261003732916072262e-01
-5.880760605062539809e-02
1.113764156119761289e-01
-1.258681286904178229e-02
7.806780599872997772e-02
6.203415837332949129e-02
-4.942888547449024172e-01
-5.224547750721162398e-01
-2.367137955380401726e-01
-5.095089622367842130e-01
3.195997191601858411e-02
6.452817506767558053e-02
2.230765952705855981e-01
1.824562409768197280e-01
1.167537685161500055e-01
4.606800149208830630e-01
-2.861690095907203357e-01
5.543013003724401450e-02
2.070565788781928707e-01
3.297313952840116857e-01
-4.496616362340141726e-02
-3.175821659226159555e-01
2.865257831301856184e-01
2.536865270249752946e-01
2.272670356406134295e-01
6.600651822170775819e-03
1.470579357596445980e-01
2.950223928190799927e-01
7.388512804174367232e-02
5.558783026972550362e-02
-2.003718332680994030e-01
6.696624146881036133e-02
3.928991270111559589e-03
4.489451787299327812e-01
-2.528327265947579172e-01
-3.280224842219044423e-01
-1.478829823393761900e-01
-2.880699284067001487e-01
3.227060328822101143e-02
3.359777880483267448e-02
-2.239724604590519752e-01
-7.241207289675365144e-02
1.354399224683147489e-02
4.070163282768222701e-01
-1.447287155244591783e-01
-6.060361455938571840e-02
1.501328668292061796e-01
2.528846599454956934e-01
1.118725574327611993e-01
8.958435070827343305e-02
5.389799758452208656e-02
4.184931485244869354e-02
5.510445569952211395e-03
1.720448493169519366e-01
-1.562480285359441889e-01
1.959493663352518122e-01
1.495894373501099051e-01
-5.186229963977366519e-02
1.404405780198139386e-01
1.048680041525740098e-01
-2.559582175496037948e-01
3.943194709285054167e-02
2.279269231461263090e-02
-4.058229758286502897e-01
-8.629972425566043159e-02
4.997352720182376973e-02
2.824759548379548457e-01
-3.768094551186502994e-02
-3.989927710315601117e-01
-5.763635923249746384e-02
-1.460313431830531083e-01
-9.100134962697574437e-02
1.416859384624123697e-01
2.606892341953639392e-01
-2.257184704979224923e-02
-2.454281455362686548e-01
-2.090525305814227019e-01
-2.170842087254914177e-01
4.599749285296436674e-01
2.689426447721604552e-01
-5.865132875920823358e-02
-1.652691622305122593e-02
2.935847995808631983e-01
-2.691677093136408683e-01
2.139673980341843806e-01
7.495931111450221396e-02
-7.448383050557619289e-02
2.050219295582928619e-02
1.466294766198028843e-01
1.073698260781393021e-01
9.144274687593894127e-03
-9.183917112630122018e-03
-3.274802075464981754e-02
5.816428089171188365e-01
2.058882925042206380e-01
-8.783967021206647019e-02
-5.880105777186006577e-03
-3.720179066285459867e-04
-3.005263055874561884e-01
-4.391390064615382505e-01
1.389554546842665939e-01
8.780023995898686429e-02
-4.319609417416043207e-01
-1.212140796505203483e-01
-6.431334959632067916e-02
2.782131735554377872e-01
3.513124354936840443e-02
1.844784969412554265e-01
5.427250963651329002e-02
-1.138987584189352503e-01
2.373954971058263308e-01
2.392642590216770837e-01
-2.648342520712860040e-02
-4.267502842119048068e-01
1.039022906450770556e-01
1.840896758232153305e-02
8.859640613165067902e-02
1.545107255524309081e-02
6.625646441275685750e-02
-1.136573358290149244e-01
2.581300446329165554e-02
-3.991692511984070157e-01
2.074397157573142358e-01
-2.871269484162182750e-01
4.833750874813813603e-01
-1.675556590160630910e-01
-2.721616021988035317e-01
1.315184200299196471e-01
-2.691752082628805498e-01
-2.403577985694267394e-01
2.117693258505104204e-01
1.635629488044438584e-01
1.264388494309936217e-01
-2.268592660098264213e-01
8.162476156520559467e-02
1.191920118296261460e-01
2.208776610292140924e-02
7.394270711508624250e-02
6.671699248569108731e-02
2.654013563530545072e-01
-7.704883641379876857e-02
-1.970620651113983157e-01
3.957995484219658383e-02
1.026234601810823432e-01
-3.691082813528191037e-02
-1.878144009004975232e-02
5.274662652293243131e-02
3.399853507611204639e-01
1.066141686385771309e-01
9.100122881187891477e-02
1.887362911447335381e-02
3.271050168438027206e-01
3.581422122079625514e-01
3.052532264567202058e-01
-1.646037533589712332e-01
-1.193872331208976345e-01
-7.207426370965165641e-02
1.206514187776070168e-01
-9.537703453100868090e-02
-2.592262683340282869e-01
7.793396185660698972e-02
-4.449194500182385853e-02
1.757201229010175725e-01
9.972787218044688526e-03
2.196670976032455702e-01
-4.880662126128005318e-01
5.893426739462655217e-02
-1.129964817208200800e-01
2.090778051699032358e-01
1.777262025109360363e-02
3.585938560820801091e-01
7.900392439363444763e-02
5.611089309152159782e-02
-9.658392272140362000e-02
2.188167378840836785e-01
-1.297842500134874233e-01
-1.886215662456955378e-01
-7.578959763799779370e-02
-1.272048282167691224e-01
1.203564171466064286e-01
-2.426852855137574816e-01
2.326132588948812835e-02
3.601019316025748096e-01
6.736035476306437286e-02
-2.243000833447689468e-01
1.550668018406438017e-02
-3.585023003758121274e-02
-9.989482813466811495e-02
1.023371251359502521e-01
-1.046056838766893649e-01
1.111519399022191934e-01
1.398473879720983359e-01
-2.848660503444965311e-02
3.095693704037892902e-01
-1.697392486612377405e-01
-1.733139738516399631e-01
3.628646831973660891e-01
-8.914624232375720561e-03
-2.609184098882663672e-01
-8.189138940947848777e-02
1.971962814599414748e-01
2.601454336795612776e-01
1.803523736181341097e-01
1.380766586434570842e-01
-2.806319006194780280e-02
-1.273367002392494785e-01
-1.627938374936789001e-01
-3.506837060826503705e-01
-1.516702877828549068e-01
-2.475028985354954178e-02
5.503053588291800802e-02
-9.096822585724874399e-02
3.006336249027858898e-01
-2.603852558318479060e-01
-2.588234869384601830e-02
4.459327121902403879e-02
-2.595763302365161618e-01
3.767677416399776713e-01
2.589697136279376921e-01
-1.451127622356211677e-01
2.155483826977825368e-01
-7.645105450282889403e-02
-4.194364684715259917e-02
-1.838035343626754636e-01
-2.759948607035178636e-01
7.463385563358089503e-02
-2.239161741063585565e-01
6.809752458394228991e-02
9.034063033820159683e-02
1.139942982438323926e-01
-1.971952921813417414e-01
-5.961876129295502758e-02
6.988690599612372434e-02
9.194587706882177691e-02
3.430603056267133577e-01
6.003808681725265189e-02
8.679700063702719404e-02
-5.190074671669644979e-02
7.445476191497176974e-03
-2.365415000711940940e-01
-1.207483595400739851e-01
-1.870975456967749195e-01
-1.208044124865789541e-02
1.415181245803913135e-01
5.838225392747768000e-02
-1.616310708950735586e-02
-7.795310018116859141e-02
-2.800111594161532325e-01
-1.221964651026535703e-01
-2.737940624813179347e-01
3.459452812977422687e-01
2.068675684316680363e-01
-5.607035974988168470e-02
-3.056418060720321739e-01
-1.251165450333658336e-01
-2.592768930077911718e-02
1.064468098920342970e-01
-2.760525379353267472e-01
1.814526041075164298e-01
-2.998140153671615543e-02
1.623201974208362541e-01
-1.062793067057223179e-01
9.531292955153949920e-02
4.007929439397810434e-01
-3.841839468586665668e-02
2.424944823247848213e-01
-9.934810555486596473e-02
2.577963908535605975e-01
1.645760048767339889e-01
1.341877514071976585e-01
-9.669356722448134434e-02
2.450630505738440185e-02
7.382540140302194798e-02
2.039403066173462939e-02
9.174937419892439938e-02
1.966306437242991145e-01
-3.475930699737130869e-01
-6.168007056899041940e-01
-1.391871040201720644e-01
-3.586642110384244408e-01
1.301794973665602040e-01
3.319538844075419770e-01
-2.878459537506228294e-01
-2.496485057268157393e-01
-3.273708297768657682e-01
-2.356489875951806034e-01
-4.243763051653743346e-01
1.343579899266137412e-01
9.819648423724097741e-02
6.487192555464975363e-02
-4.930700845463377446e-02
-2.419295896751333386e-01
-1.124199716861070120e-01
3.727762605186829559e-01
1.015635033664951531e-01
2.615588257870709588e-01
9.768670352395782824e-03
2.044750878810167732e-02
-2.348488459203855183e-01
1.520775297538872438e-02
-1.049855309095698297e-01
-2.437736712507865000e-01
-2.593388725171314468e-01
-7.978086186774284438e-02
-2.377096012385903484e-02
-1.408408824808901789e-02
-1.813606913534968890e-01
-2.268580968361124939e-01
-2.547330581877844252e-02
2.358866083649353296e-01
5.151471621493332043e-01
6.738518229395246140e-02
2.100833207302078842e-01
6.010848790056316088e-02
9.005740322854352553e-02
-3.877539146976947265e-02
6.364171708243206160e-02
7.235055079065526307e-02
2.259854426326370069e-01
1.928147157673882339e-01
2.480939207271042612e-01
-1.336596680961681660e-01
3.892713171931657112e-01
-1.645822633599502982e-02
-1.776973926150983776e-02
-2.554022605953208333e-02
-1.309256538737761100e-01
9.193340529880469902e-02
1.339040444065829893e-01
2.336779933115160357e-01
2.198562615047380819e-01
-9.635057480137312544e-03
2.447919716449148964e-01
6.180460716253532300e-02
5.275226290038124155e-01
1.765262104917773300e-01
-3.309805349907048999e-01
2.234942103673438069e-02
1.891776756395016079e-01
-1.603584707033015033e-01
-1.183173968511106455e-01
-1.838952440208188321e-01
1.534825740927023285e-01
6.119921841672071317e-02
9.378206219254676956e-02
-3.383365269129384734e-02
4.441386952927518089e-02
1.224233990593271704e-01
1.603763274791216442e-01
-3.671014368839869979e-02
-2.041619923261673575e-01
-1.156229543129925069e-01
-5.716338623337468422e-02
-3.806262679816707073e-01
-2.658930887582532931e-01
2.752009184401156827e-01
-3.831969051826190908e-02
5.987122405896162791e-02
8.147076706369466015e-02
1.539030804456741897e-01
1.149663055917676674e-01
8.244410604882452046e-03
4.687066198938139028e-01
-7.322770948330768748e-02
1.175388357069607169e-02
1.937198976794613781e-01
-3.367884398247586453e-01
2.597290809557433189e-01
-5.487769594594984340e-03
-1.071647471733451484e-01
9.756761334715340073e-02
2.387918267038377229e-01
1.641776062612577136e-01
1.994626697337688326e-01
4.115323326393276887e-02
5.725451714195590319e-02
2.479280212913261353e-02
-1.474843355098216791e-01
1.252431594591951469e-01
3.181178967327300683e-02
-6.554784319289704009e-02
1.911464366510198798e-01
2.017676219332114051e-01
1.884387737791204387e-01
3.009235420915779557e-01
-9.638949184543561810e-02
2.051983644442157972e-01
1.310186400743161006e-01
4.139250732543309219e-01
-1.753591106245541709e-01
-4.340886613963062524e-01
1.136127203870346686e-01
-9.098494482740814016e-02
-1.482208243077436649e-01
1.209694881233416702e-01
3.062889533891581806e-01
-1.732096165031285773e-01
2.263135330434621340e-01
3.619152866273367408e-01
1.815916838093535254e-02
4.158672756010353133e-01
1.080874125903689698e-01
1.242052070671044312e-01
1.559528149367318262e-01
-3.086400591993390119e-01
-3.753031447706013657e-02
-1.517597625035548292e-01
1.955867114407864038e-01
-1.696638562897328784e-01
-1.858126316076717799e-01
1.323136262428525022e-02
1.168569961070549112e-01
6.595261437978930386e-02
2.360489334612985712e-01
-2.103867942955988668e-01
-1.304705867084594677e-02
-3.253409958321168971e-01
1.252083787318092334e-01
-1.414168309027958315e-01
-4.729910115327951026e-01
-6.895262344029289003e-02
-1.052497538566330715e-01
3.064145802252006903e-02
-5.708542143118047751e-02
2.236779195990158675e-01
1.879986778682752879e-01
2.625805783608702038e-02
4.980416628705736093e-02
-1.563654156582656440e-01
2.747768343022181092e-01
1.629518682798804796e-01
-9.263018897366635460e-03
9.128077382684510882e-03
2.313924174307984971e-01
-8.227080727089582102e-02
-2.648930219145610443e-01
1.663314299237126856e-02
2.626636704122505273e-01
8.727882709914368264e-02
1.742338075194195257e-01
-1.304969995682733475e-01
-9.829024154121955570e-02
1.424617567157379083e-01
-6.769819696392616326e-02
2.862984087230288077e-01
4.959561522305910852e-01
-1.355288226998018208e-01
1.467461157344246148e-01
-2.104465746959667261e-01
-1.516160293967233341e-01
-8.176582621698354203e-02
6.925424676248197187e-02
1.887933793875810895e-01
-1.812084990679132257e-01
2.640160585758927758e-01
3.473102230667436952e-01
1.475421719888018457e-01
-1.769028279972296447e-01
1.347613561669412097e-01
7.555303920068754883e-03
3.375171044432588863e-01
-2.494399902860635343e-01
-3.210811883194141791e-01
1.401992410009696988e-01
7.451127566484630482e-02
1.790393716349612530e-01
1.101092393679763692e-01
-1.013909300833845534e-01
4.985965727852054163e-02
-2.692504093502122164e-01
-2.115114798965880283e-01
1.182936871827924147e-01
3.263182074123263110e-01
2.628601081032176379e-01
1.949998986872196818e-02
2.110836697202685130e-02
3.617500649354294384e-01
4.321739691440683317e-02
-2.017324416341091387e-01
1.435682411331993813e-01
-6.013864355286542285e-01
8.162054295708880136e-02
4.294601955282128514e-01
-8.744701104339190623e-02
8.159734881252719840e-02
1.979623618855083367e-01
-2.066650925218687651e-01
-4.786561324193185779e-02
3.379038106046200474e-01
-3.290696834359036482e-01
1.409362722238050314e-01
-1.575819181139601066e-01
-2.051107010525097737e-02
-2.668593564583965905e-01
-6.369221267459924951e-02
1.990674863118118698e-01
1.127122738853345192e-02
2.490746840665864770e-01
1.167637914746262329e-01
7.196470507600277733e-02
